tree
version=v4
num_class=1
num_tree_per_iteration=1
label_index=0
max_feature_idx=32
objective=binary sigmoid:1
feature_names=school1 major_type major1_1 major1_2 major_data job class1 class2 re_registration nationality inflow_route whyBDA what_to_gain hope_for_group major_field desired_career_path completed_semester project_type time_input desired_job certificate_acquisition desired_certificate desired_job_except_data incumbents_level incumbents_lecture incumbents_company_level incumbents_lecture_type incumbents_lecture_scale incumbents_lecture_scale_reason interested_company expected_domain onedayclass_topic is_major_it
feature_infos=[0:91] -1:1:0:2 -1:4:5:1:3:9:0:6:8:2:7:10 -1:2:1:4:0:3:5:7:9:6 [0:1] -1:0:2:1:3 [1:13] [2:13] -1:0:1 -1:0:2 -1:0:3:2:1:4 -1:2:0:3:1:6:4:5 -1:1:0:2:3 -1:1:0:2 -1:9:8:5:11:1:12:16:13:20:2:21:32:19:23:24:18:25:17:4:22:6:7:14:33 -1:1:0:2:3 [0:20241] -1:0:1 [0:24] -1:3:1:13:0:18:5:9:25:26:15:20:90:16:28:57:2:66:80:7:54:32:21:30:55:63:74:107:10:12:19:34:37:56:118:136:8:65:71:102:140:142 -1:1:2:7:6:4:15:8:25:10:19:0:5:13:18 -1:9:6:5:1:8:23:25:2:16:3:14:15:13:30:29:47:24:18:21:53:19:28:42:22:35:27:38:41:0:10:12:46:56:32:45:51:61:72:76:11:31:39:50:58:62:79 -1:0:8:24:11:12:14:5:16:27:2:3:34:1:41:19:22:21:40:25:58:39:7:29:44:9:33:51:38:59:6:32:45:49:56:67:76:10:17:20:23:35:36:54:66:73 -1:1:0 -1:1:2:0 -1:2:1:0:3 -1:0:2:1 -1:1:0:2 -1:19:72:128:225:12 -1:3:4:18:16:58:46:31:47:26:157:5:38:57:80:7:42:64:39:72:123:206:311:29:36:48:50:70:112:121:131:222:226:232:236:282:315 -1:0:5:8:3:11:23:12:16:26:76:56:85:15:29:47:60:82:13:38:62:71:35:103:130:1:22:63:64:67:87:111:119:123 -1:1:13:3:21:6:4:10:7:0:20:11:30:14:8:9:18:12:25:15:17:19:27:2:28:5:16:23:24:26 [0:1]
tree_sizes=2714 3071 3146 2955 2858 2880 3184 2966 3235 2901 2958 2950 2721 2992 3073 3133

Tree=0
num_leaves=26
num_cat=10
split_feature=20 3 0 13 0 16 24 18 0 16 13 0 4 0 4 0 26 13 0 16 0 26 24 24 16
split_gain=11.5886 11.5912 6.81272 8.81495 7.78428 5.0617 7.23277 4.90164 6.93536 4.19828 3.52662 5.12744 5.79275 2.89638 6.42782 3.55885 2.87278 2.3965 2.20287 2.54443 6.9513 1.78678 0.744047 0.651685 0.64178
threshold=0 1 22.500000000000004 2 36.500000000000007 5.5000000000000009 3 2.2500000000000004 32.500000000000007 7.5000000000000009 4 25.500000000000004 1.0000000180025095e-35 45.500000000000007 1.0000000180025095e-35 15.500000000000002 5 6 26.500000000000004 6.5000000000000009 52.500000000000007 7 8 9 5.5000000000000009
decision_type=9 9 2 1 2 8 9 2 2 10 1 2 2 2 2 2 1 1 2 10 2 1 9 9 10
left_child=1 10 5 4 -4 -2 17 8 -5 -8 11 12 -1 14 15 -3 -12 -7 22 20 -20 -13 -18 -16 -24
right_child=2 13 3 7 -6 6 9 -9 -10 -11 16 21 -14 -15 23 -17 18 -19 19 -21 -22 -23 24 -25 -26
leaf_value=-0.81160950850018665 -0.90470733957406213 -0.84383170225520021 -0.89012847783297955 -0.77385316589800368 -0.81501701081400157 -0.84781422058447153 -0.84532514662867697 -0.7536819691653307 -0.84781422058447153 -0.90274550788476593 -0.91521068461829425 -0.90163203584489515 -0.88401893266875653 -0.87315751904347105 -0.84781422058447153 -0.78759077267841704 -0.90574175991932748 -0.80135150674297251 -0.80798903729175808 -0.8962970524190792 -0.89488034629404201 -0.86229610541818547 -0.87579948451989176 -0.87315751904347105 -0.89602365299144049
leaf_weight=6.9051783084869403 4.3942043781280544 4.184956550598149 6.6959304809570312 5.8589391708374041 7.1144261360168457 4.3942043781280518 6.6959304809570312 4.6034522056579581 6.9051783084869385 6.0681869983673096 8.1606652736663818 7.7421696186065656 4.603452205657959 4.6034522056579581 5.6496913433074951 8.5791609287261945 6.9051783084869385 7.5329217910766602 4.6034522056579572 4.8127000331878653 4.603452205657959 4.603452205657959 7.7421696186065692 4.603452205657959 7.9514174461364746
leaf_count=33 21 20 32 28 34 21 32 22 33 29 39 37 22 22 27 41 33 36 22 23 22 22 37 22 38
internal_value=-0.856226 -0.866644 -0.840472 -0.82162 -0.851435 -0.855264 -0.846464 -0.797913 -0.813865 -0.872623 -0.877074 -0.864583 -0.840573 -0.842076 -0.829712 -0.80603 -0.888384 -0.818469 -0.882405 -0.866835 -0.851435 -0.886964 -0.892064 -0.859193 -0.886046
internal_weight=156.517 96.254 60.2634 31.1779 13.8104 29.0854 24.6912 17.3676 12.7641 12.7641 68.6333 23.8543 11.5086 27.6207 23.0173 12.7641 44.779 11.9271 36.6184 14.0196 9.2069 12.3456 22.5988 10.2531 15.6936
internal_count=748 460 288 149 66 139 118 83 61 61 328 114 55 132 110 61 214 57 175 67 44 59 108 49 75
cat_boundaries=0 1 2 3 4 5 6 7 8 9 10
cat_threshold=2 20 2 2 1 2 1 1 4 2
is_linear=0
shrinkage=1


Tree=1
num_leaves=29
num_cat=12
split_feature=19 8 16 7 6 13 32 23 6 16 7 1 13 4 24 24 1 6 23 6 6 16 24 24 16 6 16 6
split_gain=11.1287 9.38981 7.76682 5.66498 5.64279 5.38087 7.83748 5.81906 5.04159 4.81603 3.32899 2.749 2.58721 2.31196 1.82485 1.70752 2.0284 1.16662 1.8647 0.972308 0.789668 1.40717 0.699431 0.576082 0.452175 0.266111 0.176188 0.104434
threshold=0 1 5.5000000000000009 3.0000000000000004 1.5000000000000002 2 1.0000000180025095e-35 3 3.0000000000000004 6.5000000000000009 12.500000000000002 4 5 1.0000000180025095e-35 6 7 8 6.5000000000000009 9 3.0000000000000004 5.5000000000000009 6.5000000000000009 10 11 6.5000000000000009 5.5000000000000009 6.5000000000000009 6.5000000000000009
decision_type=9 1 8 10 2 1 2 1 2 8 8 9 1 2 9 9 9 2 1 2 2 8 9 9 8 2 10 2
left_child=2 5 19 4 -4 6 7 -2 -6 12 13 17 -3 -7 -9 27 -17 18 22 -1 21 -13 -12 -11 -16 -8 -18 -10
right_child=1 9 3 -5 8 10 25 14 15 23 11 20 -14 -15 24 16 26 -19 -20 -21 -22 -23 -24 -25 -26 -27 -28 -29
leaf_value=-0.028057897474769673 0.050890763131091858 0.019744726769125812 -0.027509526057793766 0.077997588742921301 0.082745880611450745 -0.025008988029259896 -0.044202503751883893 -0.025673425241834549 0.01124954754822627 0.0099519786883671899 -0.070820877148868089 -0.011616226145868257 0.072718332106857991 0.021170519213878365 0.022995213573498818 0.056696982004660779 0.01137166692188752 -0.021866063437344863 -0.027827267963531944 -0.00048188990962487271 -0.004270153025141229 -0.048088273121203215 -0.048025869518063979 -0.013934068682539597 -0.00017078995028537713 -0.027989849631903624 0.025498653237076913 0.00045833817772367646
leaf_weight=5.8249321430921537 7.7657684981822968 4.3941997438669205 4.587092697620391 5.6820455938577643 4.2107319086790111 5.421630918979643 5.6119382381439227 5.4596187621355057 4.8331016302108765 4.8788271546363831 6.8446460217237473 6.7002780288457879 4.8476625829935092 5.419691875576973 4.2212853133678445 5.8596620857715607 4.2149364203214628 5.0387256741523734 7.0190893411636397 7.0840688347816467 6.7065894454717627 4.3691867142915735 6.6197478920221329 5.2304864823818189 4.2044163346290597 4.6102667599916458 4.633107453584671 4.1820268332958221
leaf_count=28 37 21 22 27 20 26 27 26 23 23 33 32 23 26 20 28 20 24 34 34 32 21 32 25 20 22 22 20
internal_value=-2.0483e-05 -0.00915671 0.0172332 0.0319349 0.0238868 -0.0171056 -0.000806705 0.0162297 0.0323268 0.0214431 -0.0267012 -0.0329052 0.0475311 -0.00192336 -0.00315555 0.0233775 0.0338798 -0.0434195 -0.0487215 -0.012925 -0.0178092 -0.026012 -0.0596137 -0.00240649 0.0114354 -0.0368905 0.018769 0.00624361
internal_weight=156.476 105.364 51.1117 38.2027 32.5207 86.0129 31.8733 21.6511 27.9336 19.3512 54.1396 43.2983 9.24186 10.8413 13.8853 23.7228 14.7077 25.5222 20.4835 12.909 17.7761 11.0695 13.4644 10.1093 8.4257 10.2222 8.84804 9.01513
internal_count=748 504 244 182 155 412 152 103 133 92 260 208 44 52 66 113 70 123 99 62 85 53 65 48 40 49 42 43
cat_boundaries=0 3 4 5 6 7 8 9 10 11 12 13 14
cat_threshold=327721 0 67108864 1 1 1 2 2 4 4 2 2 2 2
is_linear=0
shrinkage=0.05


Tree=2
num_leaves=29
num_cat=4
split_feature=31 11 4 16 26 0 0 1 16 6 6 16 6 0 0 0 6 16 0 6 7 7 6 0 0 0 0 6
split_gain=10.8608 7.99938 7.01626 6.27453 6.00064 5.70922 6.20746 4.52973 9.1883 3.77217 3.21746 2.93314 4.45206 3.19013 2.79396 2.4389 2.42091 4.56557 2.41102 2.38884 3.26416 1.7179 0.871097 0.606748 1.19249 0.552196 0.364751 0.000572693
threshold=0 1 1.0000000180025095e-35 5.5000000000000009 2 13.500000000000002 5.5000000000000009 3 5.5000000000000009 4.5000000000000009 5.5000000000000009 6.5000000000000009 4.5000000000000009 26.500000000000004 47.500000000000007 13.500000000000002 6.5000000000000009 7.5000000000000009 25.500000000000004 7.5000000000000009 9.5000000000000018 11.500000000000002 4.5000000000000009 25.500000000000004 16.500000000000004 21.500000000000004 36.500000000000007 7.5000000000000009
decision_type=9 1 2 8 1 2 2 9 8 2 2 10 2 2 2 2 2 8 2 2 8 8 2 2 2 2 2 2
left_child=7 3 4 9 -3 6 -5 19 -9 25 15 12 -7 -13 -15 -6 17 -10 -17 20 -1 -4 -23 24 -22 -2 -25 -24
right_child=1 2 21 5 10 11 -8 8 16 -11 -12 13 -14 14 -16 18 -18 -19 -20 -21 23 22 27 26 -26 -27 -28 -29
leaf_value=-0.0028829156343634131 -0.0082097763610171678 0.047422635508162794 -0.00066034869976211148 0.038318939984317124 -0.021044549522754089 0.034499994250106837 -0.039055833236707804 -0.071029281768457755 0.0506664538648567 0.030028336046904133 -0.040172810713531626 0.063054595011515266 0.093670806031720344 -0.0080379385069943073 0.046010502368987474 0.039885085706503676 -0.012382079345879527 -0.014447702860787844 -0.0023828170835807445 -0.0039339518061246945 -0.059222113308418547 -0.024179479630772278 -0.047872883257020209 -0.070903466243820309 -0.022013293248406254 -0.031802815733951703 -0.050970476239586365 -0.04705281866101247
leaf_weight=4.3871232718229294 4.7803214490413648 7.5636327564716339 4.2198023349046707 5.9043543785810453 6.0167927742004492 6.1147727221250534 4.6206841617822647 4.1654667556285885 6.9496146589517602 5.8984489291906348 4.8139959424734107 5.5379420369863519 6.6212258785963058 5.487461328506468 4.2375188767910004 6.2866001576185209 6.7454928159713736 4.3942392170429239 7.2815758138895035 5.209938555955886 4.5105377882719129 7.5897253006696763 4.3541356772184354 4.1476222872734052 4.1202594190835953 5.1540503650903702 5.1382526904344559 4.1658332645893097
leaf_count=21 23 36 20 28 29 29 22 20 33 28 23 26 31 26 20 30 32 21 35 25 22 37 21 20 20 25 25 20
internal_value=-3.47425e-05 0.00884947 -0.00511615 0.020992 0.00851201 0.0357444 0.00435 -0.0173622 -0.00407856 -0.00164456 -0.00355021 0.0475458 0.0652619 0.0327627 0.0155129 0.00545164 0.0113383 0.0254434 0.0172013 -0.0344173 -0.0415379 -0.0290593 -0.0364982 -0.051003 -0.041459 -0.0204501 -0.0598737 -0.0474719
internal_weight=156.417 106.649 52.2921 54.3568 31.9626 38.524 10.525 49.7685 22.2548 15.8328 24.399 27.9989 12.736 15.2629 9.72498 19.585 18.0893 11.3439 13.5682 27.5137 22.3038 20.3295 16.1097 17.9167 8.6308 9.93437 9.28587 8.51997
internal_count=748 509 251 258 153 182 50 239 106 76 117 132 60 72 46 94 86 54 65 133 108 98 78 87 42 48 45 41
cat_boundaries=0 1 2 3 4
cat_threshold=134349706 11 4 2
is_linear=0
shrinkage=0.05


Tree=3
num_leaves=28
num_cat=10
split_feature=31 16 3 13 0 6 0 8 6 26 23 0 0 13 0 18 0 16 13 16 0 0 0 0 27 13 0
split_gain=9.97675 12.2382 9.1205 6.3585 7.54227 5.30013 4.38823 4.8364 4.1428 3.6063 3.93884 4.09248 3.29734 3.0982 3.04331 8.49914 2.65381 2.62261 3.04309 2.53629 2.22638 5.97113 1.59571 0.95438 0.547678 0.402459 0.0393236
threshold=0 5.5000000000000009 1 2 15.500000000000002 6.5000000000000009 19.500000000000004 3 4.5000000000000009 4 5 29.500000000000004 23.500000000000004 6 29.500000000000004 2.2500000000000004 29.500000000000004 6.5000000000000009 7 6.5000000000000009 13.500000000000002 23.500000000000004 20.500000000000004 42.500000000000007 8 9 53.500000000000007
decision_type=9 8 9 1 2 2 2 1 2 1 1 2 2 1 2 2 2 10 1 8 2 2 2 2 9 1 2
left_child=1 12 6 -3 -5 8 17 9 20 10 19 -12 -1 -7 22 -16 -11 18 -2 23 -4 -22 -6 -8 -20 -19 -14
right_child=2 3 5 4 14 13 7 -9 -10 16 11 -13 26 -15 15 -17 -18 25 24 -21 21 -23 -24 -25 -26 -27 -28
leaf_value=-0.039215335477470151 0.0068916742916699698 0.08618067941509748 -0.011099358462931251 -0.014742495906656184 0.040759479465417359 -0.034328563089854471 -0.012124975411115773 0.028946354187170634 0.0660004935004187 0.037656182364784123 -0.034672875009650321 0.035335896271496386 0.0087881452786741001 0.014373985976741511 -0.0089542125396808187 0.080237829595397381 -0.013004062541169687 -0.04919284352454667 -0.048386195328491297 -0.063519308718630194 0.072382598969541731 -0.0060192134950151528 0.079938856607689374 -0.041491493433841335 -0.027661816794687672 -0.070574868446599257 0.0019846465892220818
leaf_weight=8.0131023377180117 5.0739816129207629 5.3478017598390579 4.9972656965255764 7.9473616927862194 4.8749386817216891 6.7140340954065323 5.9801273345947283 6.4040653854608527 5.7728891372680655 4.1443274766206724 4.1445757299661654 4.2057754397392273 4.3760551661252958 6.3575727343559247 7.1638775616884214 4.2587269097566605 6.8709594160318375 4.7167229056358337 6.9271524101495743 7.3755618035793296 4.4842728078365308 5.2974764406681061 5.5661400854587555 5.1486523002386093 5.9056837260723132 4.1256488114595395 4.1267551630735397
leaf_count=39 24 25 24 38 23 32 29 30 27 20 20 20 21 30 34 20 33 23 34 36 21 25 26 25 29 20 20
internal_value=-5.06367e-05 0.0161709 -0.00876828 0.0359775 0.0269716 0.0109836 -0.0183207 -0.0112398 0.0300821 -0.0180355 -0.0279174 0.000588058 -0.0162019 -0.0106413 0.0421345 0.0242995 0.00605605 -0.0368897 -0.025888 -0.040781 0.0160518 0.0299227 0.061646 -0.0257112 -0.0388488 -0.0591692 0.00548613
internal_weight=156.322 51.6748 104.647 35.1588 29.811 33.6235 71.0232 44.274 20.5519 37.87 26.8547 8.35035 16.5159 13.0716 21.8637 11.4226 11.0153 26.7492 17.9068 18.5043 14.779 9.78175 10.4411 11.1288 12.8328 8.84237 8.50281
internal_count=748 246 502 166 141 159 343 213 97 183 130 40 80 62 103 54 53 130 87 90 70 46 49 54 63 43 41
cat_boundaries=0 1 2 3 4 5 6 7 8 9 10
cat_threshold=35675153 20 4 1 1 2 2 1 2 2
is_linear=0
shrinkage=0.05


Tree=4
num_leaves=27
num_cat=13
split_feature=19 8 13 4 7 16 16 17 27 1 7 1 23 16 1 4 4 4 26 4 26 16 16 16 13 27
split_gain=9.72407 8.42682 6.39814 6.97609 4.20255 3.41213 3.06672 3.65773 2.84117 3.2323 2.18161 2.29781 2.0352 1.64211 2.69048 1.77291 1.63568 1.47273 1.3811 1.30365 1.23321 1.05299 0.579664 0.544168 0.36417 0.191071
threshold=0 1 2 1.0000000180025095e-35 4.5000000000000009 5.5000000000000009 6.5000000000000009 3 4 5 12.500000000000002 6 7 7.5000000000000009 8 1.0000000180025095e-35 1.0000000180025095e-35 1.0000000180025095e-35 9 1.0000000180025095e-35 10 7.5000000000000009 4.5000000000000009 7.5000000000000009 11 12
decision_type=9 1 1 2 10 8 10 1 9 9 8 9 1 8 9 2 2 2 1 2 1 8 8 8 1 9
left_child=4 2 3 8 5 16 7 -3 9 -2 19 20 -5 14 17 24 -1 -7 23 -4 21 22 -12 -13 -15 -14
right_child=1 6 10 12 -6 13 -8 -9 -10 -11 11 18 25 15 -16 -17 -18 -19 -20 -21 -22 -23 -24 -25 -26 -27
leaf_value=0.010867295912217072 0.037921041383374543 0.013849880144554169 -0.023841401956472632 0.0022184708411866509 0.056709893517362012 -0.0037902567054457536 -0.0013271165580412136 0.073114675783003805 0.047594020073211576 -0.018790431712217774 -0.052524586198929517 -0.0019198591396035439 -0.04603718042305583 0.013143525835245235 0.054148872575321742 -0.013780696395280109 -0.028118561949990906 0.035095791531071778 -0.038044617098019644 0.010894937366599947 -0.024961422987446132 -0.069804591049527229 -0.03107641427949839 -0.023674425290386214 0.032234355875780572 -0.03156041861929286
leaf_weight=4.9212156087160093 4.5091662257909748 6.3791291266679782 5.3477417081594449 4.7766348719596863 6.581933692097663 5.0958405733108521 9.146455764770506 4.3987594842910767 7.061027094721795 5.6741908937692669 6.1441761553287515 8.698462247848509 4.0968909859657288 5.2802327275276184 7.8224169760942468 5.2112033367156974 5.9353053569793701 4.6628649979829788 6.0415307283401498 5.4575900733470917 7.846186742186549 4.4558424949645987 6.4647135287523279 4.2933929860591897 4.7408567070960981 5.1373091191053408
leaf_count=24 21 30 26 23 31 24 43 20 33 27 31 42 20 25 36 25 29 22 29 26 39 22 32 21 22 25
internal_value=-6.70108e-05 -0.00852786 -0.0161206 0.00192884 0.0162345 0.0138517 0.0199668 0.0380375 0.0232212 0.00632127 -0.0264246 -0.0313738 -0.0242775 0.0218908 0.0323021 0.00987411 -0.0104464 0.0147901 -0.0182937 -0.00629667 -0.0413678 -0.0489113 -0.0415279 -0.00910905 0.0221752 -0.0379833
internal_weight=156.181 105.929 86.0049 31.2552 50.2519 43.6699 19.9243 10.7779 17.2444 10.1834 54.7496 43.9443 14.0108 32.8134 17.5811 15.2323 10.8565 9.75871 19.0334 10.8053 24.9109 17.0647 12.6089 12.9919 10.0211 9.2342
internal_count=748 510 417 149 238 207 93 50 81 48 268 216 68 154 82 72 53 46 92 52 124 85 63 63 47 45
cat_boundaries=0 3 4 5 6 7 8 9 10 11 12 13 14 15
cat_threshold=1114153 0 67108864 1 1 1 2 1 2 1 2 1 1 2 2
is_linear=0
shrinkage=0.05


Tree=5
num_leaves=27
num_cat=8
split_feature=3 20 6 0 26 21 0 6 16 4 16 27 0 6 0 0 4 23 1 26 0 0 16 6 0 0
split_gain=9.088 11.5196 9.36303 6.47334 5.38961 5.0232 5.08951 4.40818 3.4439 3.1796 3.14738 5.98007 1.99705 3.05227 1.83642 1.66705 1.57681 1.4116 1.3407 1.25847 1.25364 1.09021 2.02323 1.00147 0.782128 0.51028
threshold=0 1 6.5000000000000009 19.500000000000004 2 3 8.5000000000000018 9.5000000000000018 5.5000000000000009 1.0000000180025095e-35 6.5000000000000009 4 19.500000000000004 4.5000000000000009 13.500000000000002 36.500000000000007 1.0000000180025095e-35 5 6 7 30.500000000000004 21.500000000000004 6.5000000000000009 3.0000000000000004 45.500000000000007 23.500000000000004
decision_type=9 9 2 2 1 9 2 2 10 2 10 9 2 2 2 2 2 1 9 1 2 2 10 2 2 2
left_child=1 5 8 18 15 6 -1 -4 -2 14 23 -12 -8 19 -7 16 -5 25 -3 -14 -6 -16 24 -10 -23 -11
right_child=2 3 7 4 20 9 12 -9 10 17 11 -13 13 -15 21 -17 -18 -19 -20 -21 -22 22 -24 -25 -26 -27
leaf_value=0.050826553099931393 0.0071128052992907908 -0.026366092213859174 -0.034878787015973724 0.019639130661349428 0.077853799149584291 -0.044441105456617162 -0.033590563756311566 0.023876005300443912 0.052068514800449175 -0.048118899876270077 0.066451856059411396 -0.0072454736387423781 -0.02777865551211367 0.038243238450315471 0.0032737450848548235 0.029936517352004879 -0.018237550314744951 -0.031976612209460263 0.0032653326985698423 0.0073148377728368373 0.041291040977623594 0.0043777127313752336 -0.045664593071734094 0.084379591563464793 -0.02435129982272791 -0.069510550141076016
leaf_weight=4.5289985537529018 6.4113847017288235 7.9546693563461304 8.175187870860098 5.3684976398944872 4.6004419624805468 7.8804228603839901 5.4800166487693813 5.2376287430524817 4.3608752042055148 4.6246983706951141 5.685689240694046 5.3358170539140684 5.9035097807645736 4.1223517656326285 5.3818054497242001 8.2997155934572202 5.6285819709300995 6.5343311131000528 7.3396430611610395 4.5034029185771987 4.7807111889123917 5.2519641220569593 5.9751986712217322 5.3282719850540161 4.31587253510952 7.0186842828989029
leaf_count=22 31 39 39 25 21 39 27 25 20 23 26 25 29 20 26 39 27 32 35 22 22 25 29 24 21 35
internal_value=-7.56848e-05 -0.00727648 0.017836 0.0115067 0.0281334 -0.0188195 0.00210545 -0.0119354 0.0391353 -0.0281998 0.0490485 0.0307729 -0.00787008 0.00183094 -0.0238691 0.0130201 0.000252893 -0.0505759 -0.0121462 -0.0125926 0.0592211 -0.0161216 -0.0228373 0.0698371 -0.00858141 -0.0610139
internal_weight=156.028 115.494 40.5349 43.9723 28.6779 71.5213 24.5383 13.4128 27.122 46.983 20.7107 11.0215 20.0093 14.5293 28.8053 19.2968 10.9971 18.1777 15.2943 10.4069 9.38115 20.9248 15.543 9.68915 9.56784 11.6434
internal_count=748 558 190 208 134 350 120 64 126 230 95 51 98 71 140 91 52 90 74 51 43 101 75 44 46 58
cat_boundaries=0 1 2 3 4 5 6 7 8
cat_threshold=21 2 1 8388686 2 2 2 1
is_linear=0
shrinkage=0.05


Tree=6
num_leaves=30
num_cat=10
split_feature=31 11 24 0 0 13 6 24 16 32 0 0 1 16 6 32 8 24 0 16 16 16 0 0 1 24 0 16 0
split_gain=9.05245 6.34667 6.93288 5.90718 9.51578 5.83267 8.89663 3.76356 3.61458 3.93841 3.12416 5.90948 2.79867 4.36463 3.33872 2.53438 2.09183 1.73358 1.58595 1.57132 5.81908 1.56065 1.45086 1.4435 1.36811 1.35607 0.574751 0.269092 0.130275
threshold=0 1 2 41.500000000000007 53.500000000000007 3 6.5000000000000009 4 5.5000000000000009 1.0000000180025095e-35 29.500000000000004 11.500000000000002 5 5.5000000000000009 7.5000000000000009 1.0000000180025095e-35 6 7 19.500000000000004 6.5000000000000009 5.5000000000000009 7.5000000000000009 30.500000000000004 21.500000000000004 8 9 28.500000000000004 6.5000000000000009 24.500000000000004
decision_type=9 1 9 2 2 1 2 9 8 2 2 2 9 10 2 2 1 9 2 10 8 8 2 2 9 9 2 10 2
left_child=7 2 -2 8 -5 6 10 -1 24 16 11 -3 15 -14 25 23 18 19 -10 20 -7 -18 27 -9 -4 -15 -25 -19 -17
right_child=1 5 3 4 -6 17 -8 12 9 -11 -12 -13 13 14 -16 28 21 22 -20 -21 -22 -23 -24 26 -26 -27 -28 -29 -30
leaf_value=0.022801033100092346 -0.032923837155225316 0.00037808192460047463 -0.024907862572336504 0.11629615473774749 0.025271374257496079 -0.026730808709591498 -0.047654064520159987 -0.068435394480373127 -0.0039713160378745888 -0.016175796534728108 -0.0024195472979907807 0.075550595501341522 -0.050354969269108686 -0.0018710332674161192 -0.03496468886442914 -0.0060834749776339184 0.070273237628122598 -0.050533584421171021 0.035011209795914065 -0.026084375308802418 0.051345615786862336 0.034373056491633087 -0.0114253582192485 -0.022110046412265195 0.013100683710891856 0.033467824186934232 -0.045908629058389404 -0.033542488784306483 -0.018890965966566954
leaf_weight=4.7720867097377777 5.1975662559270859 4.1729620844125765 5.503823310136795 4.4377386420965186 8.1337157338857633 5.8314102590084085 4.3201162964105597 5.2857824712991741 4.4181263595819509 4.4448632746934882 4.3625245094299308 6.9998641312122345 5.0825523585081127 4.9150968641042709 4.1573409140110007 3.9636071175336829 5.1308812499046317 5.2362759858369845 6.3720771819353104 6.7485675364732733 4.0396678149700174 7.3837724775075921 5.9386245757341376 4.2121706306934339 4.1547707319259626 6.0637262314558011 6.3791104406118393 4.1987121999263763 3.9785003066062927
leaf_count=23 25 20 27 20 38 29 21 27 21 21 21 32 25 23 20 20 23 26 29 33 19 34 29 21 20 28 32 21 20
internal_value=-8.757e-05 0.00796477 0.0186549 0.0277512 0.0574032 -0.00458845 0.015814 -0.0160812 0.0177864 0.0269558 0.0334634 0.0474743 -0.0239462 -0.0102652 0.00319654 -0.0355593 0.0351821 -0.0186847 0.0190495 -0.00749061 0.00522141 0.0490918 -0.0307861 -0.0470945 -0.00855799 0.017647 -0.0364439 -0.0429723 -0.0124992
internal_weight=155.836 107.026 55.1773 49.9798 12.5715 51.8487 19.8555 48.81 37.4083 27.7497 15.5354 11.1728 44.0379 20.2187 15.1362 23.8192 23.3049 31.9933 10.7902 16.6196 9.87108 12.5147 15.3736 15.8771 9.65859 10.9788 10.5913 9.43499 7.94211
internal_count=748 509 258 233 58 251 94 239 175 128 73 52 216 96 71 120 107 157 50 81 48 57 76 80 47 51 53 47 40
cat_boundaries=0 1 2 3 4 5 6 7 8 9 10
cat_threshold=134349706 11 1 1 1 2 1 2 2 4
is_linear=0
shrinkage=0.05


Tree=7
num_leaves=28
num_cat=12
split_feature=31 16 3 14 24 26 26 24 26 6 26 17 32 6 6 24 4 18 16 16 6 16 6 6 6 26 16
split_gain=8.44363 9.25235 6.97002 6.63851 6.15743 3.21951 3.17673 3.08401 4.56893 2.22629 1.92598 2.44127 1.85507 2.68794 2.28112 1.67912 1.55351 1.41216 1.2504 2.47986 1.18844 0.924827 0.653787 0.496961 1.00917 0.398669 0.316817
threshold=0 5.5000000000000009 1 2 3 4 5 6 7 6.5000000000000009 8 9 1.0000000180025095e-35 1.5000000000000002 7.5000000000000009 10 1.0000000180025095e-35 2.2500000000000004 6.5000000000000009 5.5000000000000009 5.5000000000000009 6.5000000000000009 4.5000000000000009 1.5000000000000002 4.5000000000000009 11 6.5000000000000009
decision_type=9 8 9 9 9 1 1 9 1 2 1 1 2 2 2 9 2 2 10 8 2 10 2 2 2 1 8
left_child=1 5 3 7 9 16 -3 25 -9 -4 -5 15 13 -8 17 21 -1 22 19 -6 -20 -12 -15 -17 -25 -2 -13
right_child=2 6 4 10 18 -7 12 8 -10 -11 11 26 -14 14 -16 23 -18 -19 20 -21 -22 -23 -24 24 -26 -27 -28
leaf_value=0.017184424175705672 -0.0027730108708075673 -0.0074810883917816361 0.002492654068622392 -0.011092820675930679 0.0091982568062062477 -0.048295985169273643 0.0075664990631975409 0.0031605512837251173 0.065603327610525716 -0.042169716637729088 -0.00057552828851195463 -0.050660333045517703 0.01325681936899256 0.060265560472008241 0.020606933161412471 -0.024752829803045398 -0.020072614175556482 0.081781449987742866 -0.00018968392341559795 0.057646906026401913 0.031495817448175874 -0.031975985802027769 0.035400391286595959 -0.055974537161624233 -0.02853698565957466 -0.022286075300794447 -0.068676194006458191
leaf_weight=6.2948633581399918 5.2227500081062317 4.5204139202833176 5.8677115887403488 8.1930312514305115 4.3537668883800515 4.7826627045869836 4.311630502343184 8.8833425790071487 4.3708591163158408 5.3199742883443832 5.7034905850887299 5.0650321394205067 6.3681782037019721 6.3120933920145053 4.7654815763235083 4.4367543607950237 5.0366106778383255 5.083744913339614 6.0863872617483121 6.7147124558687219 5.7600406259298325 3.9821253418922424 4.5486010313034058 7.6909428983926755 5.9393393993377686 5.2476784586906433 4.7090369313955316
leaf_count=31 26 21 27 39 21 24 20 44 21 26 28 25 30 29 22 22 25 23 28 30 27 20 21 39 29 26 24
internal_value=-9.988e-05 0.0147475 -0.00819256 -0.0167151 0.00901708 -0.0138951 0.0317072 0.00543775 0.0237524 -0.0187452 -0.0271233 -0.0378509 0.0373507 0.0434828 0.0509602 -0.0302827 0.000624425 0.0600322 0.0265064 0.0385897 0.0152166 -0.0134855 0.0498517 -0.0392876 -0.0440187 -0.0125528 -0.0593402
internal_weight=155.571 52.0243 103.547 69.4444 34.1026 16.1141 35.9101 23.7246 13.2542 11.1877 45.7198 37.5267 31.3897 25.0216 20.7099 27.7527 11.3315 15.9444 22.9149 11.0685 11.8464 9.68562 10.8607 18.067 13.6303 10.4704 9.77407
internal_count=748 246 502 343 159 80 166 117 65 53 226 187 145 115 95 138 56 73 106 51 55 48 50 90 68 52 49
cat_boundaries=0 1 2 3 4 5 6 7 8 9 10 11 12
cat_threshold=35675153 20 6656 4 1 2 4 1 4 1 4 1
is_linear=0
shrinkage=0.05


Tree=8
num_leaves=31
num_cat=14
split_feature=31 19 4 0 22 13 6 6 13 26 0 6 0 24 7 13 0 6 1 32 24 1 24 0 13 0 24 6 6 0
split_gain=8.75211 6.64736 6.22742 6.43503 4.97323 4.55502 6.50874 4.22093 4.167 4.12651 7.66589 3.62344 3.61894 3.50014 3.38451 3.44239 3.06499 2.74897 2.62446 1.67747 1.52625 1.47633 1.33626 1.29699 2.27187 1.40392 2.4423 1.02765 0.90616 0.110231
threshold=0 1 1.0000000180025095e-35 36.500000000000007 2 3 3.0000000000000004 5.5000000000000009 4 5 36.500000000000007 5.5000000000000009 19.500000000000004 6 12.500000000000002 7 16.500000000000004 6.5000000000000009 8 1.0000000180025095e-35 9 10 11 24.500000000000004 12 7.5000000000000009 13 5.5000000000000009 5.5000000000000009 39.500000000000007
decision_type=9 9 2 2 9 1 2 2 1 1 2 2 2 9 8 1 2 2 9 2 9 9 9 2 1 2 9 2 2 2
left_child=2 9 5 7 8 11 21 16 13 -2 18 20 -9 -3 15 -6 -4 -10 -11 -5 -1 -7 -8 24 -16 -26 -27 29 -24 -25
right_child=1 4 3 19 14 6 22 12 17 10 -12 -13 -14 -15 23 -17 -18 -19 -20 -21 -22 -23 28 27 25 26 -28 -29 -30 -31
leaf_value=0.085405387553826539 0.056639952002543952 0.0094197649249593771 -0.011555442049701572 0.05148609920838583 0.022689392229407086 -0.033973155679732164 0.057450112488520104 -0.028393434499522498 0.007320854401666823 -0.047438919174795688 0.056232112253568389 0.012016715227517382 0.03173944083995929 -0.048163975766758224 -0.0043799523703589999 -0.035124531797223017 -0.068882249546765167 0.057592743150481032 0.0017672272068059583 0.0085430621584234295 0.046798312787195435 0.0042556548961870805 0.039308558206626681 -0.057475623707513329 -0.067917805428172551 -0.0074083606887747431 -0.058672004040165066 -0.036236679492352035 0.0091811794335826084 -0.068770957322317069
leaf_weight=4.9424750804901123 4.9790398627519608 5.5597679167985916 4.1474291235208565 4.7755389362573606 4.7848860025405884 5.6171611696481705 4.6287200152873993 4.828474283218382 7.6220511645078659 4.5799696892499924 4.9776638001203528 4.6047750115394601 5.1930281817913055 5.0231139212846756 5.2027250528335607 5.5742766708135587 5.3254735469818115 4.2275937050580978 6.6363220512867027 4.3415260314941406 5.3105138093233091 4.5883987993001956 5.2406569570302945 4.1751710921525937 4.0460796505212775 4.7217661440372467 4.5740860253572446 5.8863160610198966 4.7653986811637878 4.4750745743513107
leaf_count=22 23 27 20 22 23 28 22 24 37 23 23 21 24 26 25 27 27 20 31 21 24 22 24 21 21 23 23 29 22 23
internal_value=-0.000108302 -0.0101303 0.0123392 -0.00363719 -0.0176542 0.026962 0.0138633 -0.0198533 0.00338294 0.0114322 0.00459206 0.0488614 0.00276674 -0.0179121 -0.027118 -0.00842034 -0.0437834 0.0252563 -0.0183252 0.0310367 0.0654089 -0.0167856 0.0352363 -0.0411704 -0.032405 -0.0433335 -0.032633 -0.0523526 0.0249603 -0.0633191
internal_weight=155.355 87.0459 68.3096 28.6115 65.8729 39.6981 24.8403 19.4944 22.4325 21.173 16.194 14.8578 10.0215 10.5829 43.4404 10.3592 9.4729 11.8496 11.2163 9.11706 10.253 10.2056 14.6348 33.0812 18.5447 13.3419 9.29585 14.5366 10.0061 8.65025
internal_count=748 425 323 138 325 185 118 95 110 100 77 67 48 53 215 50 47 57 54 43 46 50 68 165 92 67 46 73 46 44
cat_boundaries=0 1 2 3 4 5 6 7 8 9 10 11 12 13 14
cat_threshold=35970129 9 16793861 1 2 4 2 2 2 2 2 4 1 2
is_linear=0
shrinkage=0.05


Tree=9
num_leaves=27
num_cat=8
split_feature=19 31 8 7 27 4 7 13 16 0 13 16 18 0 0 4 16 1 16 0 6 6 0 24 0 0
split_gain=7.8614 8.18617 6.93635 6.46756 6.20983 4.91502 3.8058 2.92059 2.84322 3.12711 4.26883 3.26717 2.4743 3.54246 4.71806 2.81341 3.02062 2.56576 1.8917 1.68677 1.68365 1.35137 1.00814 0.912416 0.453302 0.123706
threshold=0 1 2 11.500000000000002 3 1.0000000180025095e-35 4.5000000000000009 4 4.5000000000000009 54.500000000000007 5 6.5000000000000009 1.7500000000000002 11.500000000000002 3.5000000000000004 1.0000000180025095e-35 6.5000000000000009 6 6.5000000000000009 11.500000000000002 5.5000000000000009 4.5000000000000009 23.500000000000004 7 30.500000000000004 26.500000000000004
decision_type=9 9 1 8 9 2 10 1 8 2 1 10 2 2 2 2 10 9 10 2 2 2 2 9 2 2
left_child=6 5 3 4 -3 7 12 -2 23 10 19 -12 22 14 -14 17 -17 -15 -4 -10 -7 -13 -1 -5 -6 -21
right_child=1 2 18 8 24 20 -8 -9 9 -11 11 21 13 15 -16 16 -18 -19 -20 25 -22 -23 -24 -25 -26 -27
leaf_value=0.0052364564016623054 0.020406848916157651 0.05190159803371569 0.029886259560282492 -0.040435004942508825 -0.0073223469454484968 0.016147410657904669 0.052375344697060067 0.069205945625403151 -0.030339684915799976 0.0064070360958715048 0.01217405267061215 -0.050982051125856798 0.026159497050056785 0.022143389454698757 -0.04711902047048705 0.032264744801539846 -0.017590246218842146 0.065025553609962206 -0.0043639090760621271 -0.068407341026148802 -0.027179963145814737 -0.012558638877579228 -0.028392242869146524 -0.066909340250776744 -0.02856050481982994 -0.056956742789212714
leaf_weight=4.4569912105798704 6.492948591709137 4.8304973989725095 8.0840229392051715 7.3918672204017639 5.5183872282505018 4.5470571666955948 6.7073683589696875 5.8094521164894104 6.5692946910858181 6.5012041777372351 7.026841968297961 4.9190390557050687 4.5081855803728086 7.3679546117782593 4.2839156687259674 6.6933993846178055 5.5636006146669388 6.6244119107723236 8.0420679897069913 5.2541506141424161 4.4232864230871201 4.2789246737957001 4.4575615525245667 5.8144853413104993 4.6123658120632172 4.2802042961120605
leaf_count=21 31 23 37 39 27 22 31 26 34 32 33 24 21 35 21 32 27 29 38 27 21 21 21 31 22 22
internal_value=-0.000121168 -0.00782325 -0.014848 -0.0237204 0.00525167 0.0155966 0.014443 0.0434508 -0.0320504 -0.0252343 -0.0315974 -0.0134963 0.0119406 0.0179239 -0.00954516 0.0271246 0.00963496 0.0424451 0.0128057 -0.0498346 -0.00521737 -0.0331073 -0.011579 -0.0520911 -0.0169917 -0.0632669
internal_weight=155.059 104.396 83.1234 66.9973 14.9613 21.2727 50.6634 12.3024 52.036 38.8297 32.3285 16.2248 43.956 35.0415 8.7921 26.2494 12.257 13.9924 16.1261 16.1036 8.97034 9.19796 8.91455 13.2064 10.1308 9.53435
internal_count=748 510 410 335 72 100 238 57 263 193 161 78 207 165 42 123 59 64 75 83 43 45 42 70 49 49
cat_boundaries=0 3 4 5 6 7 8 9 10
cat_threshold=1114153 0 67108864 56321 1 1 2 2 2 2
is_linear=0
shrinkage=0.05


Tree=10
num_leaves=28
num_cat=12
split_feature=20 21 0 13 0 1 13 0 7 13 18 0 24 24 16 18 16 24 17 4 0 0 13 4 16 24 16
split_gain=7.16161 7.60625 4.85349 5.35773 5.70977 4.06488 4.59736 6.84449 4.03928 3.95557 3.22702 5.20526 2.69412 2.63128 2.62452 2.28141 2.16991 3.08056 1.95518 5.62068 3.09364 1.41134 1.37901 0.451049 0.36389 0.356487 0.000650927
threshold=0 1 22.500000000000004 2 36.500000000000007 3 4 23.500000000000004 6.5000000000000009 5 2.2500000000000004 32.500000000000007 6 7 8.5000000000000018 1.2500000000000002 5.5000000000000009 8 9 1.0000000180025095e-35 29.500000000000004 15.500000000000002 10 1.0000000180025095e-35 5.5000000000000009 11 7.5000000000000009
decision_type=9 9 2 1 2 9 1 2 8 1 2 2 9 9 8 2 10 9 1 2 2 2 1 2 8 9 10
left_child=1 13 9 4 -4 6 7 -3 -8 12 11 -5 -2 21 18 -10 -11 -18 19 20 -7 -1 -21 -23 -17 -9 -26
right_child=2 5 3 10 -6 14 8 25 15 16 -12 -13 -14 -15 -16 24 17 -19 -20 22 -22 23 -24 -25 26 -27 -28
leaf_value=-0.01280384532998532 0.0010185488627915827 0.030102063037934536 -0.030724409632235102 0.065353033249977946 0.033816940779063769 0.026213375687764068 0.001711060160851595 -0.024262493980078022 -0.018791381160763846 -0.016995529794337275 0.079007420193981104 0.0029476532607298164 -0.051675165139139057 0.045003314822186363 0.031207495867074567 -0.052561767285374629 0.044298398944670692 -0.0016097103818683107 0.014029054578354464 -0.030134611225898264 -0.024952493003126464 0.0086396436252263557 -0.06960262264251714 0.031462784065880704 -0.068282422729662992 -0.043264111114808997 -0.067404973936613446
leaf_weight=5.1563916653394708 4.5988702476024628 6.7826866656541851 6.408548966050148 6.2811277359724063 7.3648471534252167 6.92353855073452 4.1944597214460373 4.3954354077577591 4.0291084796190324 4.7698222547769573 5.0608723759651175 7.1396994888782501 5.133320689201355 7.3082540929317483 4.3599121719598761 7.0392281860113117 7.4699778258800507 7.1536160707473737 6.2287388443946901 4.9114858210086823 5.1530741900205612 4.2605385333299619 4.0284618586301804 4.4008378833532333 4.8230202794075012 5.6298723518848401 3.7624916881322861
leaf_count=25 21 32 32 28 34 32 21 22 21 24 22 33 25 36 21 38 34 35 29 24 24 20 20 22 25 28 20
internal_value=-0.000130019 -0.0085253 0.0120661 0.0273923 0.00378685 -0.016041 -0.0287166 -0.00868889 -0.0428319 -0.000764065 0.0449841 0.0321542 -0.0267752 0.0140765 -0.00481075 -0.0523381 0.0122891 0.0218409 -0.0105745 -0.0178664 0.00438097 0.00790652 -0.0479194 0.0202361 -0.0609887 -0.0349332 -0.0678979
internal_weight=154.768 93.3875 61.3807 32.2551 13.7734 72.2615 40.6563 16.808 23.8483 29.1256 18.4817 13.4208 9.73219 21.126 31.6052 19.6538 19.3934 14.6236 27.2453 21.0166 12.0766 13.8178 8.93995 8.66138 15.6247 10.0253 8.58551
internal_count=748 460 288 149 66 357 207 82 125 139 83 61 46 103 150 104 93 69 129 100 56 67 44 42 83 50 45
cat_boundaries=0 1 2 3 4 5 6 7 8 9 10 11 12
cat_threshold=2 41036 2 2 1 1 2 2 2 1 2 2
is_linear=0
shrinkage=0.05


Tree=11
num_leaves=27
num_cat=5
split_feature=19 31 16 16 6 4 32 16 0 0 13 13 32 16 0 0 0 0 6 0 0 13 4 0 0 6
split_gain=7.0295 7.24133 4.79586 5.4783 4.63289 4.19063 2.6268 3.44949 3.02666 2.50253 2.45283 2.4432 2.32938 4.59653 2.48958 2.21489 1.64897 1.56382 1.52812 1.24647 1.00109 0.753922 1.30037 0.977238 0.700854 0.399559
threshold=0 1 4.5000000000000009 6.5000000000000009 4.5000000000000009 1.0000000180025095e-35 1.0000000180025095e-35 7.5000000000000009 15.500000000000002 25.500000000000004 2 3 1.0000000180025095e-35 5.5000000000000009 27.500000000000004 19.500000000000004 11.500000000000002 42.500000000000007 5.5000000000000009 19.500000000000004 30.500000000000004 4 1.0000000180025095e-35 23.500000000000004 19.500000000000004 3.0000000000000004
decision_type=9 9 8 10 2 2 2 10 2 2 1 1 2 8 2 2 2 2 2 2 2 1 2 2 2 2
left_child=12 5 21 4 20 10 7 -5 -9 -10 -2 -6 13 25 16 -14 -15 -16 -7 -18 24 -3 -23 -24 -4 -1
right_child=1 2 3 6 11 18 -8 8 9 -11 -12 -13 15 14 17 -17 19 -19 -20 -21 -22 22 23 -25 -26 -27
leaf_value=-0.011618706493865406 0.018852631399130876 -0.022330118589158187 -0.015675550076159627 -0.047540759422935903 0.0057187647191909753 0.01532806488768014 -0.052922986223560169 -0.039236884572397226 0.029279856451969923 -0.01300668783694074 0.063199192493951936 0.045972434321944616 0.0089242113065885944 0.012929941446383257 -0.020558529384409482 0.054952070249276765 0.06154087029053134 0.015712347175757566 -0.026052919358729207 0.028018842849475319 -0.034346893465419727 -0.066651558730745936 -0.014067177211660814 -0.047779330320191583 0.0087191183450316245 -0.033415190573794662
leaf_weight=4.3512854725122434 6.5562237203121185 5.3224601447582245 7.2555262148380333 6.7596340328454998 7.671463742852211 4.5628164708614349 6.2507867068052283 5.0523651242256191 6.3119506835937482 7.8501801490783691 5.9458786249160767 7.4111887514591199 4.3279473036527616 7.4915484040975633 4.680336818099021 6.5985812544822693 5.0799407362937909 8.1404767036437971 4.3654950559139252 6.1066067963838577 4.093983829021453 4.4458081126213083 3.7339028716087341 5.0664696842432022 4.9549924284219742 4.0684399455785751
leaf_count=22 31 27 36 34 37 22 32 26 30 39 26 34 21 35 22 31 23 37 21 27 20 24 20 27 24 20
internal_value=-0.000138887 -0.00746803 -0.0141465 -0.00934201 0.00552566 0.0144949 -0.0238232 -0.0168202 -0.00601269 0.00584009 0.0399434 0.0254983 0.0135919 0.010666 0.019438 0.0367206 0.031084 0.00247138 -0.00490515 0.0432416 -0.0129502 -0.0382241 -0.0446104 -0.0334756 -0.00577627 -0.0221508
internal_weight=154.456 103.611 82.1807 63.6121 31.3872 21.4304 32.2249 25.9741 19.2145 14.1621 12.5021 15.0827 50.8452 39.9186 31.4989 10.9265 18.6781 12.8208 8.92831 11.1865 16.3045 18.5686 13.2462 8.80037 12.2105 8.41973
internal_count=748 510 410 312 151 100 161 129 95 69 57 71 238 186 144 52 85 59 43 50 80 98 71 47 60 42
cat_boundaries=0 3 4 5 6 7
cat_threshold=1114153 0 67108864 56321 2 2 1
is_linear=0
shrinkage=0.05


Tree=12
num_leaves=26
num_cat=14
split_feature=3 20 6 0 26 8 0 22 27 17 0 13 0 13 7 27 26 16 0 0 27 16 16 8 13
split_gain=7.05901 9.73272 8.76278 5.23414 3.72488 6.47467 2.93677 2.8388 2.52948 2.40287 2.24126 3.36517 2.42179 2.13873 2.10149 2.65646 1.8193 1.75731 1.75658 1.73193 1.49241 1.93207 1.41797 1.36589 0.972523
threshold=0 1 6.5000000000000009 11.500000000000002 2 3 36.500000000000007 4 5 6 52.500000000000007 7 19.500000000000004 8 1.0000000180025095e-35 9 10 7.5000000000000009 5.5000000000000009 19.500000000000004 11 4.5000000000000009 6.5000000000000009 12 13
decision_type=9 9 2 2 1 1 2 9 9 1 2 1 2 1 10 9 1 8 2 2 9 8 10 1 1
left_child=2 7 14 18 5 -5 22 10 -9 16 11 -2 -13 -6 15 19 -10 20 -3 -1 -18 -22 -7 -4 -11
right_child=1 3 23 4 13 6 -8 8 9 24 -12 12 -14 -15 -16 -17 17 -19 -20 -21 21 -23 -24 -25 -26
leaf_value=0.071800126999689906 0.037601104598744321 -0.0021751397217425051 -0.026923359609324699 0.058446768665710448 0.071914419597884457 -0.001384841944693441 0.020270808793026521 0.0023525353802142765 0.0042857920073992575 -0.034721082621573467 -0.031744416162892093 -0.030814857164635046 0.016954576124594431 0.028429025889923111 0.070376836812096277 0.010447445229474443 -0.041166103924919595 -0.052825938054023004 -0.044131628677851829 0.029938434928277604 -0.034408788400728689 0.0029060506527435448 -0.036609786032627649 0.0075668237240478376 -0.062327391685846778
leaf_weight=4.7009406387805939 6.7407609373331079 6.4111974388360959 6.8889443576335889 5.4476467967033386 4.400627925992012 5.5711567699909263 7.847224384546279 6.1119387447834015 4.6578129082918167 5.7169647365808487 3.953286111354827 5.4519624412059819 5.1685352772474289 7.9098614454269391 4.7166888266801825 7.5618572831153914 7.2214032411575344 6.2455950528383246 4.0836058109998703 5.2082069367170334 6.1109215468168268 8.0237662494182587 5.8642698526382446 4.921146422624588 7.2182310521602613
leaf_count=21 32 31 34 24 20 27 36 30 23 29 20 29 26 35 21 35 37 32 21 24 33 39 29 23 37
internal_value=-0.000144087 -0.0059803 0.0171864 0.0104672 0.0215006 0.0103137 -0.00328457 -0.0167102 -0.0232962 -0.0319194 0.00151987 0.00996984 -0.00756755 0.0439737 0.0407614 0.032766 -0.024619 -0.0294967 -0.0185007 0.0497978 -0.022674 -0.0132265 -0.0194488 -0.0125516 -0.0501262
internal_weight=154.155 120.157 33.9978 47.5356 37.0408 24.7303 19.2827 72.6212 51.3066 45.1947 21.3145 17.3613 10.6205 12.3105 22.1877 17.471 32.2595 27.6017 10.4948 9.90915 21.3561 14.1347 11.4354 11.8101 12.9352
internal_count=748 590 158 223 171 116 92 367 260 230 107 87 55 55 101 80 164 141 52 45 109 72 56 57 66
cat_boundaries=0 1 2 3 4 6 7 8 9 10 11 12 13 14 15
cat_threshold=10 2 1 2 18692 512 4 1 1 2 2 4 1 1 4
is_linear=0
shrinkage=0.05


Tree=13
num_leaves=28
num_cat=9
split_feature=31 0 21 7 16 24 0 7 16 16 0 0 16 8 0 27 13 7 4 23 0 13 16 23 4 6 16
split_gain=6.56075 5.26163 5.75745 4.16974 4.15473 3.18542 3.7241 3.13209 3.12876 4.05093 2.73395 2.48863 4.10317 2.39736 3.85312 2.55913 5.8817 2.52148 4.022 2.04247 1.99209 1.51554 1.40041 1.33125 1.20912 0.520737 0.0545861
threshold=0 13.500000000000002 1 3.0000000000000004 4.5000000000000009 2 38.500000000000007 12.500000000000002 4.5000000000000009 6.5000000000000009 22.500000000000004 53.500000000000007 6.5000000000000009 3 26.500000000000004 4 5 5.5000000000000009 1.0000000180025095e-35 6 27.500000000000004 7 4.5000000000000009 8 1.0000000180025095e-35 4.5000000000000009 6.5000000000000009
decision_type=9 2 9 10 10 9 2 8 8 10 2 2 8 1 2 9 1 10 2 1 2 1 10 1 2 2 8
left_child=5 3 10 19 23 7 8 -1 -7 24 -3 12 -12 15 -15 16 -6 18 21 22 26 -17 -2 -4 -10 -24 -9
right_child=1 2 4 -5 13 6 -8 20 9 -11 11 -13 -14 14 -16 17 -18 -19 -20 -21 -22 -23 25 -25 -26 -27 -28
leaf_value=0.0044329506781487947 -0.011786500357597866 -0.039913996830233174 0.010687580067655935 0.03216455237864764 0.088802621062131132 -0.034500006114155088 -0.043270646148288461 -0.057620631740538955 0.049488964115008881 -0.014843356706657918 0.040791803567594015 -0.027679908185353177 -0.01892170263762321 0.084662197153238528 0.024156351518522329 0.023851556660660262 0.0089157341447019586 -0.017922516279570422 -0.0048571376719637053 0.0024308390745141923 -0.022360641517942672 0.058987117836990705 -0.051842246673433102 -0.024136717945712465 0.014295631048319128 -0.028950201114643623 -0.065876765953112676
leaf_weight=4.020363062620163 6.9926281869411495 6.0209821164608028 7.3137075603008253 4.6833159178495398 4.4018453508615529 4.6305999159812989 5.6639617085456839 4.0544677227735528 5.2563158422708529 7.9674065113067618 6.0916972905397424 5.7457501590251914 5.4511675089597711 4.8523418307304365 5.7482805401086807 6.1452708840370178 4.8346324563026428 4.4552421122789374 7.6139244288206092 7.4775292873382631 5.380669727921485 6.131207734346388 5.2340782135725004 4.3925283253192902 4.5558687895536423 4.7284402698278427 3.9548603147268304
leaf_count=20 36 29 36 22 19 25 29 21 25 39 29 28 26 21 25 29 23 21 38 37 28 27 26 22 22 23 22
internal_value=-0.000150404 0.00651956 0.0138033 -0.0110537 0.0204468 -0.0143191 -0.00704717 -0.0342697 0.00210796 0.0116423 -0.00762595 -0.000792191 0.0125918 0.0311224 0.0518524 0.0245787 0.0469876 0.016077 0.0236926 -0.0193379 -0.0458902 0.0413992 -0.0289384 -0.00237953 0.0331484 -0.0409772 -0.0616974
internal_weight=153.799 108.315 79.1986 29.116 55.889 45.4845 28.0742 17.4104 22.4102 17.7796 23.3096 17.2886 11.5429 44.1827 10.6006 33.5821 9.23648 24.3456 19.8904 24.4327 13.39 12.2765 16.9551 11.7062 9.81218 9.96252 8.00933
internal_count=748 517 373 144 261 231 140 91 111 86 112 83 55 203 46 157 42 115 94 122 71 56 85 58 47 49 43
cat_boundaries=0 1 2 3 4 5 6 7 8 9
cat_threshold=135398154 41959714 4 1 1 1 2 2 2
is_linear=0
shrinkage=0.05


Tree=14
num_leaves=29
num_cat=10
split_feature=3 31 6 16 0 6 23 27 6 16 18 6 0 23 0 23 13 16 26 0 0 16 13 0 27 0 0 0
split_gain=6.3086 9.04642 7.66849 3.93498 4.34747 4.21827 3.54135 4.12144 2.44026 2.22078 2.18588 1.85554 2.18889 1.78543 1.68 1.56434 2.33286 1.53685 3.16021 1.53103 3.63519 1.32257 1.30709 0.852485 0.706222 0.437333 0.387767 0.0858771
threshold=0 1 6.5000000000000009 6.5000000000000009 19.500000000000004 4.5000000000000009 2 3 5.5000000000000009 6.5000000000000009 2.2500000000000004 5.5000000000000009 16.500000000000004 4 29.500000000000004 5 6 6.5000000000000009 7 28.500000000000004 21.500000000000004 6.5000000000000009 8 11.500000000000002 9 23.500000000000004 36.500000000000007 23.500000000000004
decision_type=9 9 2 10 2 2 1 9 2 10 2 2 2 1 2 1 1 8 1 2 2 10 1 2 9 2 2 2
left_child=2 3 11 4 13 26 7 -5 15 24 -11 12 -1 -2 -14 17 -17 19 27 20 23 -4 -21 -3 -10 -18 -6 -19
right_child=1 8 21 6 5 -7 -8 -9 9 10 -12 -13 14 -15 -16 16 25 18 -20 22 -22 -23 -24 -25 -26 -27 -28 -29
leaf_value=0.0052981245983263897 -0.037360087702562092 -0.014659866520277271 0.0073312564108590971 0.020824378959139977 0.0020653040701381843 0.042372544650531335 -0.0030576266767987138 0.077669001853664044 -0.0019938386181108793 -0.039147609021535447 0.0060066651167914788 0.067150765288913408 0.061918517273499209 0.0017982753806834719 0.024997823116421292 0.019952730246939665 -0.013935169653295595 -0.067066995476997154 -0.0070872692827091063 -0.020106195968129976 0.028629275512964649 -0.026580650261297373 -0.057273097319522064 -0.045731983259146201 0.022892456277720571 -0.035917739783020659 -0.018644675977093513 -0.057010347027895952
leaf_weight=5.6960714459419313 7.5664832592010516 4.7052266895771044 5.0748825818300229 7.8652385920286179 5.3162956982851046 8.2926336377859098 5.7755207270383844 5.3628419786691666 5.722339391708374 6.6616225540637952 4.4844890385866165 4.3999202400445929 5.9406015723943693 4.7310579121112823 6.4010994881391525 4.2725575268268567 4.5467601269483549 4.0372962504625303 3.8291652947664252 4.9013295322656631 3.9118527024984351 6.6328454613685608 4.5722842216491681 4.158212423324585 5.6808482110500353 4.503576248884201 3.9318429678678513 4.4766081124544144
leaf_count=27 38 25 25 37 26 37 28 24 28 34 22 19 26 23 29 20 24 22 19 25 19 32 24 21 27 23 20 24
internal_value=-0.000155422 -0.00570919 0.0161825 0.00981496 0.000498523 0.0164789 0.0296079 0.04387 -0.0163522 -0.00510928 -0.0209804 0.0380379 0.0309365 -0.0222952 0.0427694 -0.025056 -0.0104984 -0.0306627 -0.0448122 -0.022813 -0.0115182 -0.011881 -0.0380442 -0.0292371 0.010404 -0.024874 -0.00673954 -0.0617792
internal_weight=153.452 119.306 34.1454 48.8419 29.8383 17.5408 19.0036 13.2281 70.4642 22.5493 11.1461 22.4377 18.0378 12.2975 12.3417 47.9149 13.3229 34.592 12.3431 22.2489 12.7753 11.7077 9.47361 8.86344 11.4032 9.05034 9.24814 8.5139
internal_count=748 590 158 233 144 83 89 61 357 111 56 101 82 61 55 246 67 179 65 114 65 57 49 46 55 47 46 46
cat_boundaries=0 1 2 3 4 5 6 7 8 9 10
cat_threshold=10 35970128 2 2 2 2 1 1 2 2
is_linear=0
shrinkage=0.05


Tree=15
num_leaves=30
num_cat=15
split_feature=21 11 7 6 16 16 23 6 24 6 6 6 7 1 8 6 16 26 1 24 16 1 16 16 24 26 27 8 24
split_gain=6.22389 7.88822 4.90713 3.05892 2.87519 3.2194 3.55832 3.32079 3.16341 2.98145 2.51512 5.75208 4.07659 5.57803 2.30124 2.01628 3.92138 2.88487 2.00995 1.26695 1.19924 2.7297 1.57822 0.900733 0.709559 0.599395 0.955867 0.370041 0.0528006
threshold=0 1 11.500000000000002 7.5000000000000009 5.5000000000000009 7.5000000000000009 2 4.5000000000000009 3 3.0000000000000004 9.5000000000000018 6.5000000000000009 4.5000000000000009 4 5 7.5000000000000009 6.5000000000000009 6 7 8 5.5000000000000009 9 7.5000000000000009 7.5000000000000009 10 11 12 13 14
decision_type=9 1 8 2 8 10 1 2 9 2 2 2 10 9 1 2 10 1 9 9 8 9 8 10 9 1 9 1 9
left_child=15 2 25 4 8 6 -6 18 9 -4 11 12 13 14 -3 17 -17 -1 -8 -7 28 23 -23 -22 -5 26 -2 -15 -19
right_child=1 10 3 24 5 19 7 -9 -10 -11 -12 -13 -14 27 -16 16 -18 20 -20 -21 21 22 -24 -25 -26 -27 -28 -29 -30
leaf_value=0.040829203332817643 -0.016698684604160765 0.048613159033731132 0.0086509614585405688 -0.039928938058024402 0.037142126881212892 -0.055110033608560684 -0.0053019816640495505 0.021077447129282268 -0.065907921278331824 -0.052217331181605021 0.038245049743936305 -0.033123636475691824 0.054917238334639899 -0.034039107190235167 0.0036762984546618222 0.069767558479899502 0.0045142988594698711 -0.014613536843991061 -0.049636281460071006 -0.019359874440718506 0.045083693333004271 0.012229194670726806 -0.028867852069440494 0.015352405469943139 -0.06804377219307732 0.021630189073765058 0.0150022351266609 -0.01312508557630453 -0.0067933328463981217
leaf_weight=6.7867294102907181 4.4942243695259094 6.6094668805599213 4.548989862203598 5.3568483144044876 4.9144553393125534 4.2686228603124619 4.951270386576657 5.1354131251573554 6.0840136706829044 3.6070165038108826 7.4980954378843299 7.2645895630121222 5.6174707859754553 4.4475941359996831 5.0075439512729645 4.7060186415910703 4.5077101737260818 4.6153037548065186 5.2856522053480157 5.9086504131555539 4.7735568583011627 4.7090154290199271 4.6358542889356622 5.4627047926187515 3.8621908724307996 4.8708110004663459 5.04970735311508 4.0327856540679932 4.0547568351030367
leaf_count=31 22 29 24 28 23 24 23 24 34 20 35 34 25 24 23 21 22 24 28 30 21 23 23 25 20 24 24 19 21
internal_value=-0.000159635 -0.00654841 -0.0161873 -0.0254834 -0.0200754 -0.011406 0.000106624 -0.0117334 -0.0386222 -0.0182682 0.00970778 0.00616323 0.017262 0.00673687 0.029243 0.0138911 0.0378432 0.0115572 -0.0281932 -0.0343545 0.00452527 0.0113801 -0.00815845 0.0292172 -0.0517073 0.00735815 7.43155e-05 -0.0240936 -0.0109562
internal_weight=153.067 108.815 68.3379 53.9231 44.7041 30.4641 20.2868 15.3723 14.24 8.15601 40.4775 32.9795 25.7149 20.0974 11.617 44.2517 9.21373 35.0379 10.2369 10.1773 28.2512 19.5811 9.34487 10.2363 9.21904 14.4147 9.54393 8.48038 8.67006
internal_count=748 537 348 278 230 152 98 75 78 44 189 154 120 95 52 211 43 168 51 54 137 92 46 46 48 70 46 43 45
cat_boundaries=0 2 3 4 5 6 7 8 9 10 11 12 13 14 15 16
cat_threshold=19137100 2097152 69 1 2 1 2 4 1 4 1 4 1 2 1 2
is_linear=0
shrinkage=0.05


end of trees

feature_importances:
school1=98
completed_semester=67
class1=52
hope_for_group=32
incumbents_lecture=28
major_data=21
incumbents_lecture_type=19
major_type=16
class2=16
incumbents_lecture_scale=12
incumbents_level=11
re_registration=10
onedayclass_topic=9
time_input=7
is_major_it=7
major1_2=6
desired_job=5
project_type=4
certificate_acquisition=4
desired_certificate=4
whyBDA=3
desired_job_except_data=2
major_field=1

parameters:
[boosting: gbdt]
[objective: binary]
[metric: binary_logloss]
[tree_learner: serial]
[device_type: cpu]
[data_sample_strategy: bagging]
[data: ]
[valid: ]
[num_iterations: 16]
[learning_rate: 0.05]
[num_leaves: 63]
[num_threads: 16]
[seed: 42]
[deterministic: 0]
[force_col_wise: 0]
[force_row_wise: 0]
[histogram_pool_size: -1]
[max_depth: -1]
[min_data_in_leaf: 20]
[min_sum_hessian_in_leaf: 0.001]
[bagging_fraction: 0.8]
[pos_bagging_fraction: 1]
[neg_bagging_fraction: 1]
[bagging_freq: 0]
[bagging_seed: 400]
[bagging_by_query: 0]
[feature_fraction: 0.8]
[feature_fraction_bynode: 1]
[feature_fraction_seed: 30056]
[extra_trees: 0]
[extra_seed: 12879]
[early_stopping_round: 0]
[early_stopping_min_delta: 0]
[first_metric_only: 0]
[max_delta_step: 0]
[lambda_l1: 0]
[lambda_l2: 0]
[linear_lambda: 0]
[min_gain_to_split: 0]
[drop_rate: 0.1]
[max_drop: 50]
[skip_drop: 0.5]
[xgboost_dart_mode: 0]
[uniform_drop: 0]
[drop_seed: 17869]
[top_rate: 0.2]
[other_rate: 0.1]
[min_data_per_group: 100]
[max_cat_threshold: 32]
[cat_l2: 10]
[cat_smooth: 10]
[max_cat_to_onehot: 4]
[top_k: 20]
[monotone_constraints: ]
[monotone_constraints_method: basic]
[monotone_penalty: 0]
[feature_contri: ]
[forcedsplits_filename: ]
[refit_decay_rate: 0.9]
[cegb_tradeoff: 1]
[cegb_penalty_split: 0]
[cegb_penalty_feature_lazy: ]
[cegb_penalty_feature_coupled: ]
[path_smooth: 0]
[interaction_constraints: ]
[verbosity: -1]
[saved_feature_importance_type: 0]
[use_quantized_grad: 0]
[num_grad_quant_bins: 4]
[quant_train_renew_leaf: 0]
[stochastic_rounding: 1]
[linear_tree: 0]
[max_bin: 255]
[max_bin_by_feature: ]
[min_data_in_bin: 3]
[bin_construct_sample_cnt: 200000]
[data_random_seed: 175]
[is_enable_sparse: 1]
[enable_bundle: 1]
[use_missing: 1]
[zero_as_missing: 0]
[feature_pre_filter: 1]
[pre_partition: 0]
[two_round: 0]
[header: 0]
[label_column: ]
[weight_column: ]
[group_column: ]
[ignore_column: ]
[categorical_feature: 1,2,3,5,8,9,10,11,12,13,14,15,17,19,20,21,22,23,24,25,26,27,28,29,30,31]
[forcedbins_filename: ]
[precise_float_parser: 0]
[parser_config_file: ]
[objective_seed: 16083]
[num_class: 1]
[is_unbalance: 0]
[scale_pos_weight: 1]
[sigmoid: 1]
[boost_from_average: 1]
[reg_sqrt: 0]
[alpha: 0.9]
[fair_c: 1]
[poisson_max_delta_step: 0.7]
[tweedie_variance_power: 1.5]
[lambdarank_truncation_level: 30]
[lambdarank_norm: 1]
[label_gain: ]
[lambdarank_position_bias_regularization: 0]
[eval_at: ]
[multi_error_top_k: 1]
[auc_mu_weights: ]
[num_machines: 1]
[local_listen_port: 12400]
[time_out: 120]
[machine_list_filename: ]
[machines: ]
[gpu_platform_id: -1]
[gpu_device_id: -1]
[gpu_use_dp: 0]
[num_gpu: 1]

end of parameters

pandas_categorical:[["\ubcf5\uc218 \uc804\uacf5 ( \ub2e4\uc911\uc804\uacf5, \uc774\uc911\uc804\uacf5 \ud3ec\ud568 )", "\ub2e8\uc77c \uc804\uacf5", "__MISSING__", "\ub2e8\uc77c \uc804\uacf5\uacf5\ud559 (\ucef4\ud4e8\ud130 \uacf5\ud559 \uc81c\uc678)", "__UNKNOWN__"], ["\uacbd\uc81c\ud1b5\uc0c1\ud559", "\uc790\uc5f0\uacfc\ud559", "\uc608\uccb4\ub2a5", "\uc0ac\ud68c\uacfc\ud559", "IT(\ucef4\ud4e8\ud130 \uacf5\ud559 \ud3ec\ud568)", "\uacbd\uc601\ud559", "\uc758\uc57d\ud559", "\uad50\uc721\ud559", "__MISSING__", "\uc778\ubb38\ud559", "\ubc95\ud559", "\uae30\ud0c0", "__UNKNOWN__"], ["\uc790\uc5f0\uacfc\ud559", "IT(\ucef4\ud4e8\ud130 \uacf5\ud559 \ud3ec\ud568)", "__MISSING__", "\uc0ac\ud68c\uacfc\ud559", "\uacbd\uc601\ud559", "\uacbd\uc81c\ud1b5\uc0c1\ud559", "\uc758\uc57d\ud559", "\uae30\ud0c0", "\uc778\ubb38\ud559", "\uc608\uccb4\ub2a5", "\uad50\uc721\ud559", "__UNKNOWN__"], ["\ub300\ud559\uc0dd", "\uc9c1\uc7a5\uc778", "\ucde8\uc900\uc0dd", "\ub300\ud559\uc6d0\uc0dd", "__UNKNOWN__"], ["\uc544\ub2c8\uc694", "\uc608", "__UNKNOWN__"], ["\ub0b4\uad6d\uc778", "__MISSING__", "\uc678\uad6d\uc778", "__UNKNOWN__"], ["\uc5d0\ube0c\ub9ac\ud0c0\uc784", "\uc9c0\uc778 \ucd94\ucc9c", "\uc778\uc2a4\ud0c0\uadf8\ub7a8", "\uae30\uc874 \ud559\ud68c\uc6d0 \ub610\ub294 \uc6b4\uc601\uc9c4", "\ub300\uc678\ud65c\ub3d9 \uc0ac\uc774\ud2b8(\ub9c1\ucee4\ub9ac\uc5b4, \ucea0\ud37c\uc2a4\ud53d, \ucea0\ud37c\uc988, \uc704\ube44\ud2f0 \ub4f1)", "\uae30\ud0c0", "\uad50\ub0b4 \ud50c\ub7ab\ud3fc (\uc5d0\ube0c\ub9ac\ud0c0\uc784 X)", "\uc778\ud130\ub137 \uac80\uc0c9", "__UNKNOWN__"], ["\ud070 \uaddc\ubaa8\uc778 \ub9cc\ud07c, \ucee4\ub9ac\ud058\ub7fc\uc774\ub098 \uc6b4\uc601 \ub4f1 \uad00\ub9ac\uac00 \uc798 \ub420\uac83 \uac19\uc544\uc11c", "BDA \ud559\ud68c\uc6d0\ub9cc\uc758 \ud61c\ud0dd\uc744 \ub204\ub9ac\uace0 \uc2f6\uc5b4\uc11c(\ud604\uc9c1\uc790 \uac15\uc5f0, \uc7a1 \ud398\uc2a4\ud2f0\ubc8c, \uae30\uc5c5\uc5f0\uacc4 \uacf5\ubaa8\uc804 \ub4f1)", "\ud63c\uc790 \uacf5\ubd80\ud558\uae30 \uc5b4\ub824\uc6cc\uc11c", "\uc774\uc804 \uae30\uc218\uc5d0 \ub9e4\uc6b0 \ub9cc\uc871\ud574\uc11c", "\uc2dc\uac04\uc801\uc73c\ub85c \ubd80\ub2f4\uc774 \uc5c6\uc5b4\uc11c", "\ud559\ud68c \uac00\uc785 \uc2dc \ucf54\ub529 \ud14c\uc2a4\ud2b8, \uba74\uc811 \ub4f1\uc744 \ubcf4\uc9c0 \uc54a\uc544\uc11c", "\ud604\uc9c1\uc790\uc758 \uac15\uc758\ub97c \ub4e3\uace0 \uc2f6\uc5b4\uc11c", "__UNKNOWN__"], ["\ud504\ub85c\uc81d\ud2b8 \uacbd\ud5d8", "\ub370\uc774\ud130 \ubd84\uc11d \uc5ed\ub7c9", "\uacf5\ubaa8\uc804 \uacbd\ud5d8", "\uc778\uc801 \ub124\ud2b8\uc6cc\ud06c", "\uae30\ucd08\uc801\uc778 python, sql \uc9c0\uc2dd \uc219\uc9c0", "\uc704 \ud56d\ubaa9 \uc804\uccb4", "\uacf5\ubaa8\uc804\uacfc \ud504\ub85c\uc81d\ud2b8", "\uc0ac\uc2e4 \ud55c\uac00\uc9c0\ub97c \uace0\ub974\uae30 \uc5b4\ub835\uc2b5\ub2c8\ub2e4..\u3160\u3160 \ud559\ud68c\ub97c \ud1b5\ud574 \uc704\uc758 4\uac00\uc9c0\uc640 \ud611\uc5c5\uc5d0 \uacc4\uc2e0 \uc804\ubb38\uac00\ub2d8\ub4e4\uc5d0\uac8c \uc720\uc775\ud55c \uc815\ubcf4\ub97c \uc5bb\uace0 \uc18c\uc911\ud55c \uacbd\ud5d8\uc744 \ud558\uace0 \uc2f6\uc2b5\ub2c8\ub2e4.", "\ubd84\uc11d \uc5ed\ub7c9, \uacf5\ubaa8\uc804 \uacbd\ud5d8, \uc778\uc801 \ub124\ud2b8\uc6cc\ud06c", "__UNKNOWN__"], ["\ub124. \uc628\ub77c\uc778\uc73c\ub85c \ucc38\uc5ec\ud558\uace0 \uc2f6\uc5b4\uc694", "\ub124. \uc624\ud504\ub77c\uc778\uc73c\ub85c \ucc38\uc5ec\ud558\uace0 \uc2f6\uc5b4\uc694", "\uc544\ub2c8\uc694. \uac1c\uc778\uc801\uc73c\ub85c \ud559\ud68c \ud65c\ub3d9\uc744 \ud558\uace0 \uc2f6\uc5b4\uc694", "__UNKNOWN__"], ["\uc790\uc5f0\uacfc\ud559, \uc0ac\ud68c\uacfc\ud559", "\uc0ac\ud68c\uacfc\ud559", "\uc608\uccb4\ub2a5", "\ubc95\ud559", "IT (\ucef4\ud4e8\ud130 \uacf5\ud559 \ud3ec\ud568), \uc778\ubb38\ud559", "\uacbd\uc601\ud559", "IT (\ucef4\ud4e8\ud130 \uacf5\ud559 \ud3ec\ud568), \uc0ac\ud68c\uacfc\ud559", "\uacbd\uc601\ud559, \uacbd\uc81c\ud1b5\uc0c1\ud559", "\uacf5\ud559 (\ucef4\ud4e8\ud130 \uacf5\ud559 \uc81c\uc678)", "IT (\ucef4\ud4e8\ud130 \uacf5\ud559 \ud3ec\ud568)", "\uc0ac\ud68c\uacfc\ud559, \uc778\ubb38\ud559", "\uc790\uc5f0\uacfc\ud559", "\uc778\ubb38\ud559", "\uacbd\uc81c\ud1b5\uc0c1\ud559", "\uacf5\ud559 (\ucef4\ud4e8\ud130 \uacf5\ud559 \uc81c\uc678), \uacbd\uc601\ud559", "\uacbd\uc81c\ud1b5\uc0c1\ud559, \uc608\uccb4\ub2a5", "__MISSING__", "\uacbd\uc81c\ud1b5\uc0c1\ud559, \uc0ac\ud68c\uacfc\ud559", "\uc790\uc5f0\uacfc\ud559, \uacbd\uc601\ud559", "\uc758\uc57d\ud559", "IT (\ucef4\ud4e8\ud130 \uacf5\ud559 \ud3ec\ud568), \uacf5\ud559 (\ucef4\ud4e8\ud130 \uacf5\ud559 \uc81c\uc678)", "\uacbd\uc601\ud559, \uc778\ubb38\ud559", "\uacf5\ud559 (\ucef4\ud4e8\ud130 \uacf5\ud559 \uc81c\uc678), \uc790\uc5f0\uacfc\ud559", "\uacbd\uc601\ud559, \uc0ac\ud68c\uacfc\ud559", "IT (\ucef4\ud4e8\ud130 \uacf5\ud559 \ud3ec\ud568), \uacbd\uc601\ud559", "\uad50\uc721\ud559", "\uc790\uc5f0\uace0\ud559", "\uacbd\uc601\ud559, \uad50\uc721\ud559", "IT (\ucef4\ud4e8\ud130 \uacf5\ud559 \ud3ec\ud568), \uc608\uccb4\ub2a5", "IT (\ucef4\ud4e8\ud130 \uacf5\ud559 \ud3ec\ud568), \uacbd\uc81c\ud1b5\uc0c1\ud559", "\uacbd\uc601\ud559, \uc608\uccb4\ub2a5", "IT (\ucef4\ud4e8\ud130 \uacf5\ud559 \ud3ec\ud568), \uc0ac\ud68c\uacfc\ud559, \uc608\uccb4\ub2a5", "IT (\ucef4\ud4e8\ud130 \uacf5\ud559 \ud3ec\ud568), \uc790\uc5f0\uacfc\ud559", "\uacbd\uc81c\ud1b5\uc0c1\ud559, \uc778\ubb38\ud559", "\ubc95\ud559, \uc0ac\ud68c\uacfc\ud559", "\uacf5\ud559 (\ucef4\ud4e8\ud130 \uacf5\ud559 \uc81c\uc678), \uc0ac\ud68c\uacfc\ud559", "\uacf5\ud559 (\ucef4\ud4e8\ud130 \uacf5\ud559 \uc81c\uc678), \uc778\ubb38\ud559", "\uc790\uc5f0\uacfc\ud559, \uad50\uc721\ud559", "\uacf5\ud559 (\ucef4\ud4e8\ud130 \uacf5\ud559 \uc81c\uc678), \uc790\uc5f0\uacfc\ud559, \uacbd\uc601\ud559", "\uc790\uc5f0\uacfc\ud559, \uc778\ubb38\ud559", "\uc790\uc5f0\uacfc\ud559, \uacbd\uc81c\ud1b5\uc0c1\ud559", "\uacf5\ud559 (\ucef4\ud4e8\ud130 \uacf5\ud559 \uc81c\uc678), \uc0ac\ud68c\uacfc\ud559, \uc778\ubb38\ud559", "IT (\ucef4\ud4e8\ud130 \uacf5\ud559 \ud3ec\ud568), \uacf5\ud559 (\ucef4\ud4e8\ud130 \uacf5\ud559 \uc81c\uc678), \uc790\uc5f0\uacfc\ud559, \uc758\uc57d\ud559", "\uc0ac\ud68c\uacfc\ud559, \uc608\uccb4\ub2a5", "__UNKNOWN__"], ["\ub300\ud559\uc6d0 \uc9c4\ud559", "\ucde8\uc5c5", "\uc774\uc9c1", "\ucc3d\uc5c5", "__UNKNOWN__"], ["\ud300", "\uac1c\uc778", "__UNKNOWN__"], ["C. \ub370\uc774\ud130 \uc0ac\uc774\uc5b8\ud2f0\uc2a4\ud2b8", "B. \ub370\uc774\ud130 \ubd84\uc11d\uac00, C. \ub370\uc774\ud130 \uc0ac\uc774\uc5b8\ud2f0\uc2a4\ud2b8", "B. \ub370\uc774\ud130 \ubd84\uc11d\uac00, C. \ub370\uc774\ud130 \uc0ac\uc774\uc5b8\ud2f0\uc2a4\ud2b8, I. \ub9c8\ucf00\ud130", "B. \ub370\uc774\ud130 \ubd84\uc11d\uac00", "B. \ub370\uc774\ud130 \ubd84\uc11d\uac00, F. UI/UX \ub514\uc790\uc774\ub108, G. PM/\uc11c\ube44\uc2a4 \uae30\ud68d\uc790, I. \ub9c8\ucf00\ud130, J. MD", "A. \ub370\uc774\ud130 \uc5d4\uc9c0\ub2c8\uc5b4, B. \ub370\uc774\ud130 \ubd84\uc11d\uac00", "B. \ub370\uc774\ud130 \ubd84\uc11d\uac00, C. \ub370\uc774\ud130 \uc0ac\uc774\uc5b8\ud2f0\uc2a4\ud2b8, I. \ub9c8\ucf00\ud130, J. MD", "G. PM/\uc11c\ube44\uc2a4 \uae30\ud68d\uc790, I. \ub9c8\ucf00\ud130", "A. \ub370\uc774\ud130 \uc5d4\uc9c0\ub2c8\uc5b4, B. \ub370\uc774\ud130 \ubd84\uc11d\uac00, E. \uc18c\ud504\ud2b8\uc6e8\uc5b4 \uac1c\ubc1c\uc790", "A. \ub370\uc774\ud130 \uc5d4\uc9c0\ub2c8\uc5b4, B. \ub370\uc774\ud130 \ubd84\uc11d\uac00, C. \ub370\uc774\ud130 \uc0ac\uc774\uc5b8\ud2f0\uc2a4\ud2b8, D. \uc778\uacf5\uc9c0\ub2a5 \uc804\ubb38\uac00", "B. \ub370\uc774\ud130 \ubd84\uc11d\uac00, G. PM/\uc11c\ube44\uc2a4 \uae30\ud68d\uc790, I. \ub9c8\ucf00\ud130, J. MD", "A. \ub370\uc774\ud130 \uc5d4\uc9c0\ub2c8\uc5b4, B. \ub370\uc774\ud130 \ubd84\uc11d\uac00, C. \ub370\uc774\ud130 \uc0ac\uc774\uc5b8\ud2f0\uc2a4\ud2b8, D. \uc778\uacf5\uc9c0\ub2a5 \uc804\ubb38\uac00, E. \uc18c\ud504\ud2b8\uc6e8\uc5b4 \uac1c\ubc1c\uc790, H. \uc790\uc5f0\uacfc\ud559\uacc4\uc5f4 \uc5f0\uad6c\uc790", "I. \ub9c8\ucf00\ud130, J. MD", "A. \ub370\uc774\ud130 \uc5d4\uc9c0\ub2c8\uc5b4, B. \ub370\uc774\ud130 \ubd84\uc11d\uac00, C. \ub370\uc774\ud130 \uc0ac\uc774\uc5b8\ud2f0\uc2a4\ud2b8", "D. \uc778\uacf5\uc9c0\ub2a5 \uc804\ubb38\uac00, G. PM/\uc11c\ube44\uc2a4 \uae30\ud68d\uc790", "A. \ub370\uc774\ud130 \uc5d4\uc9c0\ub2c8\uc5b4", "B. \ub370\uc774\ud130 \ubd84\uc11d\uac00, G. PM/\uc11c\ube44\uc2a4 \uae30\ud68d\uc790, I. \ub9c8\ucf00\ud130", "B. \ub370\uc774\ud130 \ubd84\uc11d\uac00, G. PM/\uc11c\ube44\uc2a4 \uae30\ud68d\uc790, PO", "B. \ub370\uc774\ud130 \ubd84\uc11d\uac00, I. \ub9c8\ucf00\ud130", "C. \ub370\uc774\ud130 \uc0ac\uc774\uc5b8\ud2f0\uc2a4\ud2b8, E. \uc18c\ud504\ud2b8\uc6e8\uc5b4 \uac1c\ubc1c\uc790", "B. \ub370\uc774\ud130 \ubd84\uc11d\uac00, C. \ub370\uc774\ud130 \uc0ac\uc774\uc5b8\ud2f0\uc2a4\ud2b8, D. \uc778\uacf5\uc9c0\ub2a5 \uc804\ubb38\uac00", "A. \ub370\uc774\ud130 \uc5d4\uc9c0\ub2c8\uc5b4, C. \ub370\uc774\ud130 \uc0ac\uc774\uc5b8\ud2f0\uc2a4\ud2b8", "A. \ub370\uc774\ud130 \uc5d4\uc9c0\ub2c8\uc5b4, B. \ub370\uc774\ud130 \ubd84\uc11d\uac00, C. \ub370\uc774\ud130 \uc0ac\uc774\uc5b8\ud2f0\uc2a4\ud2b8, H. \uc790\uc5f0\uacfc\ud559\uacc4\uc5f4 \uc5f0\uad6c\uc790, I. \ub9c8\ucf00\ud130", "\uae08\uc735\uacf5\uae30\uc5c5", "E. \uc18c\ud504\ud2b8\uc6e8\uc5b4 \uac1c\ubc1c\uc790, ", "B. \ub370\uc774\ud130 \ubd84\uc11d\uac00, G. PM/\uc11c\ube44\uc2a4 \uae30\ud68d\uc790", "I. \ub9c8\ucf00\ud130", "ESG \uacbd\uc601/\uacf5\uc2dc \uc9c1\ubb34", "D. \uc778\uacf5\uc9c0\ub2a5 \uc804\ubb38\uac00", "A. \ub370\uc774\ud130 \uc5d4\uc9c0\ub2c8\uc5b4, B. \ub370\uc774\ud130 \ubd84\uc11d\uac00, C. \ub370\uc774\ud130 \uc0ac\uc774\uc5b8\ud2f0\uc2a4\ud2b8, G. PM/\uc11c\ube44\uc2a4 \uae30\ud68d\uc790", "A. \ub370\uc774\ud130 \uc5d4\uc9c0\ub2c8\uc5b4, B. \ub370\uc774\ud130 \ubd84\uc11d\uac00, C. \ub370\uc774\ud130 \uc0ac\uc774\uc5b8\ud2f0\uc2a4\ud2b8, D. \uc778\uacf5\uc9c0\ub2a5 \uc804\ubb38\uac00, E. \uc18c\ud504\ud2b8\uc6e8\uc5b4 \uac1c\ubc1c\uc790", "D. \uc778\uacf5\uc9c0\ub2a5 \uc804\ubb38\uac00, E. \uc18c\ud504\ud2b8\uc6e8\uc5b4 \uac1c\ubc1c\uc790, G. PM/\uc11c\ube44\uc2a4 \uae30\ud68d\uc790", "A. \ub370\uc774\ud130 \uc5d4\uc9c0\ub2c8\uc5b4, B. \ub370\uc774\ud130 \ubd84\uc11d\uac00, C. \ub370\uc774\ud130 \uc0ac\uc774\uc5b8\ud2f0\uc2a4\ud2b8, E. \uc18c\ud504\ud2b8\uc6e8\uc5b4 \uac1c\ubc1c\uc790", "B. \ub370\uc774\ud130 \ubd84\uc11d\uac00, F. UI/UX \ub514\uc790\uc774\ub108", "B. \ub370\uc774\ud130 \ubd84\uc11d\uac00, H. \uc790\uc5f0\uacfc\ud559\uacc4\uc5f4 \uc5f0\uad6c\uc790", "A. \ub370\uc774\ud130 \uc5d4\uc9c0\ub2c8\uc5b4, B. \ub370\uc774\ud130 \ubd84\uc11d\uac00, C. \ub370\uc774\ud130 \uc0ac\uc774\uc5b8\ud2f0\uc2a4\ud2b8, E. \uc18c\ud504\ud2b8\uc6e8\uc5b4 \uac1c\ubc1c\uc790, \uc544\uc9c1 \ub69c\ub837\ud55c \ud76c\ub9dd \uc9c1\ubb34\ub97c \uc815\ud558\uc9c0 \ubabb\ud588\uc2b5\ub2c8\ub2e4", "B. \ub370\uc774\ud130 \ubd84\uc11d\uac00, F. UI/UX \ub514\uc790\uc774\ub108, G. PM/\uc11c\ube44\uc2a4 \uae30\ud68d\uc790, I. \ub9c8\ucf00\ud130, J. MD, RA", "C. \ub370\uc774\ud130 \uc0ac\uc774\uc5b8\ud2f0\uc2a4\ud2b8, D. \uc778\uacf5\uc9c0\ub2a5 \uc804\ubb38\uac00, E. \uc18c\ud504\ud2b8\uc6e8\uc5b4 \uac1c\ubc1c\uc790", "\uc815\ubcf4\ubcf4\uc548", "B. \ub370\uc774\ud130 \ubd84\uc11d\uac00,  \ub3c4\uc2dc\uacc4\ud68d", "H. \uc790\uc5f0\uacfc\ud559\uacc4\uc5f4 \uc5f0\uad6c\uc790, I. \ub9c8\ucf00\ud130, J. MD", "A. \ub370\uc774\ud130 \uc5d4\uc9c0\ub2c8\uc5b4, B. \ub370\uc774\ud130 \ubd84\uc11d\uac00, C. \ub370\uc774\ud130 \uc0ac\uc774\uc5b8\ud2f0\uc2a4\ud2b8, D. \uc778\uacf5\uc9c0\ub2a5 \uc804\ubb38\uac00, H. \uc790\uc5f0\uacfc\ud559\uacc4\uc5f4 \uc5f0\uad6c\uc790", "G. PM/\uc11c\ube44\uc2a4 \uae30\ud68d\uc790, ", "A. \ub370\uc774\ud130 \uc5d4\uc9c0\ub2c8\uc5b4, B. \ub370\uc774\ud130 \ubd84\uc11d\uac00, C. \ub370\uc774\ud130 \uc0ac\uc774\uc5b8\ud2f0\uc2a4\ud2b8, F. UI/UX \ub514\uc790\uc774\ub108", "B. \ub370\uc774\ud130 \ubd84\uc11d\uac00, C. \ub370\uc774\ud130 \uc0ac\uc774\uc5b8\ud2f0\uc2a4\ud2b8, E. \uc18c\ud504\ud2b8\uc6e8\uc5b4 \uac1c\ubc1c\uc790", "\uc0dd\uc0b0/\uacf5\uc815\uae30\uc220", "B. \ub370\uc774\ud130 \ubd84\uc11d\uac00, C. \ub370\uc774\ud130 \uc0ac\uc774\uc5b8\ud2f0\uc2a4\ud2b8, D. \uc778\uacf5\uc9c0\ub2a5 \uc804\ubb38\uac00, E. \uc18c\ud504\ud2b8\uc6e8\uc5b4 \uac1c\ubc1c\uc790", "\uc544\uc9c1 \uc5c6\uc2b5\ub2c8\ub2e4..", "E. \uc18c\ud504\ud2b8\uc6e8\uc5b4 \uac1c\ubc1c\uc790, \ubc18\ub3c4\uccb4 \uc5d4\uc9c0\ub2c8\uc5b4", "A. \ub370\uc774\ud130 \uc5d4\uc9c0\ub2c8\uc5b4, B. \ub370\uc774\ud130 \ubd84\uc11d\uac00, C. \ub370\uc774\ud130 \uc0ac\uc774\uc5b8\ud2f0\uc2a4\ud2b8, D. \uc778\uacf5\uc9c0\ub2a5 \uc804\ubb38\uac00, E. \uc18c\ud504\ud2b8\uc6e8\uc5b4 \uac1c\ubc1c\uc790, F. UI/UX \ub514\uc790\uc774\ub108, H. \uc790\uc5f0\uacfc\ud559\uacc4\uc5f4 \uc5f0\uad6c\uc790", "\uc778\uc0ac\ud300", "B. \ub370\uc774\ud130 \ubd84\uc11d\uac00, \ucc44\uc6a9 \ub370\uc774\ud130 \ubd84\uc11d \ubc0f HR \uc804\ubb38\uac00", "B. \ub370\uc774\ud130 \ubd84\uc11d\uac00, E. \uc18c\ud504\ud2b8\uc6e8\uc5b4 \uac1c\ubc1c\uc790, F. UI/UX \ub514\uc790\uc774\ub108", "\ub85c\ubd07\uc124\uacc4", "B. \ub370\uc774\ud130 \ubd84\uc11d\uac00, C. \ub370\uc774\ud130 \uc0ac\uc774\uc5b8\ud2f0\uc2a4\ud2b8, G. PM/\uc11c\ube44\uc2a4 \uae30\ud68d\uc790", "B. \ub370\uc774\ud130 \ubd84\uc11d\uac00, C. \ub370\uc774\ud130 \uc0ac\uc774\uc5b8\ud2f0\uc2a4\ud2b8, H. \uc790\uc5f0\uacfc\ud559\uacc4\uc5f4 \uc5f0\uad6c\uc790", "A. \ub370\uc774\ud130 \uc5d4\uc9c0\ub2c8\uc5b4, D. \uc778\uacf5\uc9c0\ub2a5 \uc804\ubb38\uac00", "H. \uc790\uc5f0\uacfc\ud559\uacc4\uc5f4 \uc5f0\uad6c\uc790", "B. \ub370\uc774\ud130 \ubd84\uc11d\uac00, G. PM/\uc11c\ube44\uc2a4 \uae30\ud68d\uc790, \ucee8\uc124\ud134\ud2b8", "B. \ub370\uc774\ud130 \ubd84\uc11d\uac00, F. UI/UX \ub514\uc790\uc774\ub108, G. PM/\uc11c\ube44\uc2a4 \uae30\ud68d\uc790", "\ubc18\ub3c4\uccb4 \uacf5\uc815\uc124\uacc4", "A. \ub370\uc774\ud130 \uc5d4\uc9c0\ub2c8\uc5b4, B. \ub370\uc774\ud130 \ubd84\uc11d\uac00, E. \uc18c\ud504\ud2b8\uc6e8\uc5b4 \uac1c\ubc1c\uc790, F. UI/UX \ub514\uc790\uc774\ub108, G. PM/\uc11c\ube44\uc2a4 \uae30\ud68d\uc790", "B. \ub370\uc774\ud130 \ubd84\uc11d\uac00, C. \ub370\uc774\ud130 \uc0ac\uc774\uc5b8\ud2f0\uc2a4\ud2b8, D. \uc778\uacf5\uc9c0\ub2a5 \uc804\ubb38\uac00, F. UI/UX \ub514\uc790\uc774\ub108, G. PM/\uc11c\ube44\uc2a4 \uae30\ud68d\uc790", "\ubc18\ub3c4\uccb4 \uc5d4\uc9c0\ub2c8\uc5b4", "A. \ub370\uc774\ud130 \uc5d4\uc9c0\ub2c8\uc5b4, B. \ub370\uc774\ud130 \ubd84\uc11d\uac00, C. \ub370\uc774\ud130 \uc0ac\uc774\uc5b8\ud2f0\uc2a4\ud2b8, D. \uc778\uacf5\uc9c0\ub2a5 \uc804\ubb38\uac00, F. UI/UX \ub514\uc790\uc774\ub108, G. PM/\uc11c\ube44\uc2a4 \uae30\ud68d\uc790", "A. \ub370\uc774\ud130 \uc5d4\uc9c0\ub2c8\uc5b4, D. \uc778\uacf5\uc9c0\ub2a5 \uc804\ubb38\uac00, E. \uc18c\ud504\ud2b8\uc6e8\uc5b4 \uac1c\ubc1c\uc790", "E. \uc18c\ud504\ud2b8\uc6e8\uc5b4 \uac1c\ubc1c\uc790", "A. \ub370\uc774\ud130 \uc5d4\uc9c0\ub2c8\uc5b4, C. \ub370\uc774\ud130 \uc0ac\uc774\uc5b8\ud2f0\uc2a4\ud2b8, E. \uc18c\ud504\ud2b8\uc6e8\uc5b4 \uac1c\ubc1c\uc790, G. PM/\uc11c\ube44\uc2a4 \uae30\ud68d\uc790", "D. \uc778\uacf5\uc9c0\ub2a5 \uc804\ubb38\uac00, E. \uc18c\ud504\ud2b8\uc6e8\uc5b4 \uac1c\ubc1c\uc790", "H. \uc790\uc5f0\uacfc\ud559\uacc4\uc5f4 \uc5f0\uad6c\uc790, \uc758\uacf5\uae30\uc0ac, \uc0dd\uccb4?\uc138\ud3ec\uacc4\uc5f4 \uc5f0\uad6c\uc790", "A. \ub370\uc774\ud130 \uc5d4\uc9c0\ub2c8\uc5b4, B. \ub370\uc774\ud130 \ubd84\uc11d\uac00, \uad6d\uc81c\ud68c\uc758\uae30\ud68d\uc790", "A. \ub370\uc774\ud130 \uc5d4\uc9c0\ub2c8\uc5b4, B. \ub370\uc774\ud130 \ubd84\uc11d\uac00, G. PM/\uc11c\ube44\uc2a4 \uae30\ud68d\uc790", "A. \ub370\uc774\ud130 \uc5d4\uc9c0\ub2c8\uc5b4, B. \ub370\uc774\ud130 \ubd84\uc11d\uac00, C. \ub370\uc774\ud130 \uc0ac\uc774\uc5b8\ud2f0\uc2a4\ud2b8, G. PM/\uc11c\ube44\uc2a4 \uae30\ud68d\uc790, I. \ub9c8\ucf00\ud130", "C. \ub370\uc774\ud130 \uc0ac\uc774\uc5b8\ud2f0\uc2a4\ud2b8, H. \uc790\uc5f0\uacfc\ud559\uacc4\uc5f4 \uc5f0\uad6c\uc790", "B. \ub370\uc774\ud130 \ubd84\uc11d\uac00, D. \uc778\uacf5\uc9c0\ub2a5 \uc804\ubb38\uac00, E. \uc18c\ud504\ud2b8\uc6e8\uc5b4 \uac1c\ubc1c\uc790", "C. \ub370\uc774\ud130 \uc0ac\uc774\uc5b8\ud2f0\uc2a4\ud2b8, I. \ub9c8\ucf00\ud130", "A. \ub370\uc774\ud130 \uc5d4\uc9c0\ub2c8\uc5b4, B. \ub370\uc774\ud130 \ubd84\uc11d\uac00, C. \ub370\uc774\ud130 \uc0ac\uc774\uc5b8\ud2f0\uc2a4\ud2b8, H. \uc790\uc5f0\uacfc\ud559\uacc4\uc5f4 \uc5f0\uad6c\uc790", "J. MD", "DX(\ub514\uc9c0\ud138 \ud2b8\ub79c\uc2a4\ud3ec\uba54\uc774\uc158)\uc9c1\ubb34 \ud76c\ub9dd", "B. \ub370\uc774\ud130 \ubd84\uc11d\uac00, D. \uc778\uacf5\uc9c0\ub2a5 \uc804\ubb38\uac00, E. \uc18c\ud504\ud2b8\uc6e8\uc5b4 \uac1c\ubc1c\uc790, G. PM/\uc11c\ube44\uc2a4 \uae30\ud68d\uc790", "C. \ub370\uc774\ud130 \uc0ac\uc774\uc5b8\ud2f0\uc2a4\ud2b8, D. \uc778\uacf5\uc9c0\ub2a5 \uc804\ubb38\uac00", "I. \ub9c8\ucf00\ud130, ", "B. \ub370\uc774\ud130 \ubd84\uc11d\uac00, C. \ub370\uc774\ud130 \uc0ac\uc774\uc5b8\ud2f0\uc2a4\ud2b8, D. \uc778\uacf5\uc9c0\ub2a5 \uc804\ubb38\uac00, H. \uc790\uc5f0\uacfc\ud559\uacc4\uc5f4 \uc5f0\uad6c\uc790", "E. \uc18c\ud504\ud2b8\uc6e8\uc5b4 \uac1c\ubc1c\uc790, F. UI/UX \ub514\uc790\uc774\ub108", "A. \ub370\uc774\ud130 \uc5d4\uc9c0\ub2c8\uc5b4, B. \ub370\uc774\ud130 \ubd84\uc11d\uac00, D. \uc778\uacf5\uc9c0\ub2a5 \uc804\ubb38\uac00, H. \uc790\uc5f0\uacfc\ud559\uacc4\uc5f4 \uc5f0\uad6c\uc790", "\uc5c6\uc74c", "\ud074\ub77c\uc6b0\ub4dc", "\uae08\uc735\uad00\ub9ac  ", "B. \ub370\uc774\ud130 \ubd84\uc11d\uac00, C. \ub370\uc774\ud130 \uc0ac\uc774\uc5b8\ud2f0\uc2a4\ud2b8, D. \uc778\uacf5\uc9c0\ub2a5 \uc804\ubb38\uac00, G. PM/\uc11c\ube44\uc2a4 \uae30\ud68d\uc790", "B. \ub370\uc774\ud130 \ubd84\uc11d\uac00, C. \ub370\uc774\ud130 \uc0ac\uc774\uc5b8\ud2f0\uc2a4\ud2b8, G. PM/\uc11c\ube44\uc2a4 \uae30\ud68d\uc790, I. \ub9c8\ucf00\ud130", "G. PM/\uc11c\ube44\uc2a4 \uae30\ud68d\uc790", "B. \ub370\uc774\ud130 \ubd84\uc11d\uac00, E. \uc18c\ud504\ud2b8\uc6e8\uc5b4 \uac1c\ubc1c\uc790, G. PM/\uc11c\ube44\uc2a4 \uae30\ud68d\uc790", "\ubbf8\uc815", "B. \ub370\uc774\ud130 \ubd84\uc11d\uac00, I. \ub9c8\ucf00\ud130, J. MD", "A. \ub370\uc774\ud130 \uc5d4\uc9c0\ub2c8\uc5b4, B. \ub370\uc774\ud130 \ubd84\uc11d\uac00, C. \ub370\uc774\ud130 \uc0ac\uc774\uc5b8\ud2f0\uc2a4\ud2b8, D. \uc778\uacf5\uc9c0\ub2a5 \uc804\ubb38\uac00, E. \uc18c\ud504\ud2b8\uc6e8\uc5b4 \uac1c\ubc1c\uc790, G. PM/\uc11c\ube44\uc2a4 \uae30\ud68d\uc790", "SCM\uad00\ub828 \uc9c1\ubb34", "I. \ub9c8\ucf00\ud130, \uc544\uc9c1 \uc81c\ub300\ub85c \uc54c\uc9c0 \ubabb\ud574 \ud559\ud68c \ud65c\ub3d9\uc744 \ud1b5\ud574 \uc9c4\ub85c \uc9c1\uc5c5\uc5d0 \uc790\uc138\ud788 \ub300\ud574 \ubc30\uc6b0\uace0 \uc2f6\ub2e4.", "A. \ub370\uc774\ud130 \uc5d4\uc9c0\ub2c8\uc5b4, B. \ub370\uc774\ud130 \ubd84\uc11d\uac00, C. \ub370\uc774\ud130 \uc0ac\uc774\uc5b8\ud2f0\uc2a4\ud2b8, ", "A. \ub370\uc774\ud130 \uc5d4\uc9c0\ub2c8\uc5b4, \ubc18\ub3c4\uccb4 \uc5d4\uc9c0\ub2c8\uc5b4", "\uc0dd\uc0b0 / \ud488\uc9c8 \uc5d4\uc9c0\ub2c8\uc5b4", "\ubc18\ub3c4\uccb4 \ud488\uc9c8 \uad00\ub9ac", "\uc678\uad50\uad00", "A. \ub370\uc774\ud130 \uc5d4\uc9c0\ub2c8\uc5b4, E. \uc18c\ud504\ud2b8\uc6e8\uc5b4 \uac1c\ubc1c\uc790", "\ud654\ud559\uacf5\uc7a5 \uc0dd\uc0b0\uad00\ub9ac \uc5d4\uc9c0\ub2c8\uc5b4", "A. \ub370\uc774\ud130 \uc5d4\uc9c0\ub2c8\uc5b4, B. \ub370\uc774\ud130 \ubd84\uc11d\uac00, E. \uc18c\ud504\ud2b8\uc6e8\uc5b4 \uac1c\ubc1c\uc790, F. UI/UX \ub514\uc790\uc774\ub108", "SCM", "B. \ub370\uc774\ud130 \ubd84\uc11d\uac00, C. \ub370\uc774\ud130 \uc0ac\uc774\uc5b8\ud2f0\uc2a4\ud2b8, \uacbd\uc601\uc9c1\ubb34", "B. \ub370\uc774\ud130 \ubd84\uc11d\uac00, E. \uc18c\ud504\ud2b8\uc6e8\uc5b4 \uac1c\ubc1c\uc790", "B. \ub370\uc774\ud130 \ubd84\uc11d\uac00, C. \ub370\uc774\ud130 \uc0ac\uc774\uc5b8\ud2f0\uc2a4\ud2b8, I. \ub9c8\ucf00\ud130, \uacbd\uc601\ucee8\uc124\ud134\ud2b8", "A. \ub370\uc774\ud130 \uc5d4\uc9c0\ub2c8\uc5b4, D. \uc778\uacf5\uc9c0\ub2a5 \uc804\ubb38\uac00, H. \uc790\uc5f0\uacfc\ud559\uacc4\uc5f4 \uc5f0\uad6c\uc790", "\ubc18\ub3c4\uccb4 \uacf5\uc815", "\ubcf4\ud5d8\uacc4\ub9ac\uc0ac", "A. \ub370\uc774\ud130 \uc5d4\uc9c0\ub2c8\uc5b4, B. \ub370\uc774\ud130 \ubd84\uc11d\uac00, J. MD", "F. UI/UX \ub514\uc790\uc774\ub108, G. PM/\uc11c\ube44\uc2a4 \uae30\ud68d\uc790", "\uc0dd\uc0b0\uad00\ub9ac/\uc0dd\uc0b0\uae30\uc220", "HRM HRD", "HR \ub9e4\ub2c8\uc800", "\uc544\uc9c1 \ubaa8\ub974\uaca0\uc74c", "B. \ub370\uc774\ud130 \ubd84\uc11d\uac00, D. \uc778\uacf5\uc9c0\ub2a5 \uc804\ubb38\uac00", "B. \ub370\uc774\ud130 \ubd84\uc11d\uac00, F. UI/UX \ub514\uc790\uc774\ub108, I. \ub9c8\ucf00\ud130", "\uc0dd\uc0b0\uad00\ub9ac", "C. \ub370\uc774\ud130 \uc0ac\uc774\uc5b8\ud2f0\uc2a4\ud2b8, I. \ub9c8\ucf00\ud130, J. MD", "B. \ub370\uc774\ud130 \ubd84\uc11d\uac00, C. \ub370\uc774\ud130 \uc0ac\uc774\uc5b8\ud2f0\uc2a4\ud2b8, G. PM/\uc11c\ube44\uc2a4 \uae30\ud68d\uc790, ", "\ud68c\uacc4 \uc9c1\ubb34", "B. \ub370\uc774\ud130 \ubd84\uc11d\uac00, C. \ub370\uc774\ud130 \uc0ac\uc774\uc5b8\ud2f0\uc2a4\ud2b8, D. \uc778\uacf5\uc9c0\ub2a5 \uc804\ubb38\uac00, \uc5f0\uad6c\uc6d0/\ubcf4\uc548\ubd84\uc57c\uc5f0\uad6c\uc6d0", "C. \ub370\uc774\ud130 \uc0ac\uc774\uc5b8\ud2f0\uc2a4\ud2b8, D. \uc778\uacf5\uc9c0\ub2a5 \uc804\ubb38\uac00, G. PM/\uc11c\ube44\uc2a4 \uae30\ud68d\uc790, I. \ub9c8\ucf00\ud130", "B. \ub370\uc774\ud130 \ubd84\uc11d\uac00, G. PM/\uc11c\ube44\uc2a4 \uae30\ud68d\uc790, J. MD", "\uc0b0\ub9bc\ube45\ub370\uc774\ud130 \uc804\ubb38\uac00", "C. \ub370\uc774\ud130 \uc0ac\uc774\uc5b8\ud2f0\uc2a4\ud2b8, G. PM/\uc11c\ube44\uc2a4 \uae30\ud68d\uc790", "\ubb3c\ub958/SCM", "\ubc18\ub3c4\uccb4", "B. \ub370\uc774\ud130 \ubd84\uc11d\uac00, F. UI/UX \ub514\uc790\uc774\ub108, G. PM/\uc11c\ube44\uc2a4 \uae30\ud68d\uc790, J. MD", "B. \ub370\uc774\ud130 \ubd84\uc11d\uac00, E. \uc18c\ud504\ud2b8\uc6e8\uc5b4 \uac1c\ubc1c\uc790, H. \uc790\uc5f0\uacfc\ud559\uacc4\uc5f4 \uc5f0\uad6c\uc790", "A. \ub370\uc774\ud130 \uc5d4\uc9c0\ub2c8\uc5b4, C. \ub370\uc774\ud130 \uc0ac\uc774\uc5b8\ud2f0\uc2a4\ud2b8, D. \uc778\uacf5\uc9c0\ub2a5 \uc804\ubb38\uac00, E. \uc18c\ud504\ud2b8\uc6e8\uc5b4 \uac1c\ubc1c\uc790", "I. \ub9c8\ucf00\ud130, \ucee8\uc124\ud134\ud2b8", "\ud488\uc9c8\uad00\ub9ac", "A. \ub370\uc774\ud130 \uc5d4\uc9c0\ub2c8\uc5b4, C. \ub370\uc774\ud130 \uc0ac\uc774\uc5b8\ud2f0\uc2a4\ud2b8, D. \uc778\uacf5\uc9c0\ub2a5 \uc804\ubb38\uac00", "\uc804\ub825 \ubd84\uc11d\uad00", "\uae00\ub85c\ubc8c \uc804\ub7b5", "B. \ub370\uc774\ud130 \ubd84\uc11d\uac00, \uc601\uc5c5", "A. \ub370\uc774\ud130 \uc5d4\uc9c0\ub2c8\uc5b4, B. \ub370\uc774\ud130 \ubd84\uc11d\uac00, C. \ub370\uc774\ud130 \uc0ac\uc774\uc5b8\ud2f0\uc2a4\ud2b8, D. \uc778\uacf5\uc9c0\ub2a5 \uc804\ubb38\uac00, G. PM/\uc11c\ube44\uc2a4 \uae30\ud68d\uc790", "\ud488\uc9c8,\uc0dd\uc0b0", "A. \ub370\uc774\ud130 \uc5d4\uc9c0\ub2c8\uc5b4, B. \ub370\uc774\ud130 \ubd84\uc11d\uac00, C. \ub370\uc774\ud130 \uc0ac\uc774\uc5b8\ud2f0\uc2a4\ud2b8, I. \ub9c8\ucf00\ud130", "\uc544\uc9c1 \uacb0\uc815\ud558\uc9c0 \ubabb\ud568", "B. \ub370\uc774\ud130 \ubd84\uc11d\uac00, J. MD, ", "F. UI/UX \ub514\uc790\uc774\ub108, G. PM/\uc11c\ube44\uc2a4 \uae30\ud68d\uc790, UX \ub9ac\uc11c\ucc98", "\uc774\ucc28\uc804\uc9c0 \uc5d4\uc9c0\ub2c8\uc5b4", "B. \ub370\uc774\ud130 \ubd84\uc11d\uac00, C. \ub370\uc774\ud130 \uc0ac\uc774\uc5b8\ud2f0\uc2a4\ud2b8, F. UI/UX \ub514\uc790\uc774\ub108, G. PM/\uc11c\ube44\uc2a4 \uae30\ud68d\uc790, I. \ub9c8\ucf00\ud130", "\uc0c1\ud488\uac1c\ubc1c/\uacc4\ub9ac", "\uc0dd\uc0b0\uae30\uc220 \uc5d4\uc9c0\ub2c8\uc5b4 /\uacf5\uc815 \uae30\uc220\uc5d4\uc9c0\ub2c8\uc5b4", "B. \ub370\uc774\ud130 \ubd84\uc11d\uac00, D. \uc778\uacf5\uc9c0\ub2a5 \uc804\ubb38\uac00, I. \ub9c8\ucf00\ud130", "\uae08\uc735", "F. UI/UX \ub514\uc790\uc774\ub108, G. PM/\uc11c\ube44\uc2a4 \uae30\ud68d\uc790, I. \ub9c8\ucf00\ud130", "\ubc18\ub3c4\uccb4(\ud3c9\uac00 \ubc0f \ubd84\uc11d, \uc218\uc728\ud5a5\uc0c1, \uc18c\uc790\uac1c\ubc1c \ubc0f \ubd88\ub7c9\ubd84\uc11d \ub4f1)", "A. \ub370\uc774\ud130 \uc5d4\uc9c0\ub2c8\uc5b4, C. \ub370\uc774\ud130 \uc0ac\uc774\uc5b8\ud2f0\uc2a4\ud2b8, E. \uc18c\ud504\ud2b8\uc6e8\uc5b4 \uac1c\ubc1c\uc790", "A. \ub370\uc774\ud130 \uc5d4\uc9c0\ub2c8\uc5b4, B. \ub370\uc774\ud130 \ubd84\uc11d\uac00, D. \uc778\uacf5\uc9c0\ub2a5 \uc804\ubb38\uac00", "Hr", "B. \ub370\uc774\ud130 \ubd84\uc11d\uac00, C. \ub370\uc774\ud130 \uc0ac\uc774\uc5b8\ud2f0\uc2a4\ud2b8, D. \uc778\uacf5\uc9c0\ub2a5 \uc804\ubb38\uac00, I. \ub9c8\ucf00\ud130", "A. \ub370\uc774\ud130 \uc5d4\uc9c0\ub2c8\uc5b4, B. \ub370\uc774\ud130 \ubd84\uc11d\uac00, C. \ub370\uc774\ud130 \uc0ac\uc774\uc5b8\ud2f0\uc2a4\ud2b8, E. \uc18c\ud504\ud2b8\uc6e8\uc5b4 \uac1c\ubc1c\uc790, F. UI/UX \ub514\uc790\uc774\ub108", "\ubc18\ub3c4\uccb4 \uacf5\uc815\uae30\uc220 \uc5d4\uc9c0\ub2c8\uc5b4", "\ud488\uc9c8", "B. \ub370\uc774\ud130 \ubd84\uc11d\uac00, \uacf5\uac04\uc815\ubcf4 \uad00\ub828 \uc9c1\ubb34 ", "A. \ub370\uc774\ud130 \uc5d4\uc9c0\ub2c8\uc5b4, B. \ub370\uc774\ud130 \ubd84\uc11d\uac00, C. \ub370\uc774\ud130 \uc0ac\uc774\uc5b8\ud2f0\uc2a4\ud2b8, E. \uc18c\ud504\ud2b8\uc6e8\uc5b4 \uac1c\ubc1c\uc790, G. PM/\uc11c\ube44\uc2a4 \uae30\ud68d\uc790", "\uc18c\uc7ac \uc5d4\uc9c0\ub2c8\uc5b4", "G. PM/\uc11c\ube44\uc2a4 \uae30\ud68d\uc790, H. \uc790\uc5f0\uacfc\ud559\uacc4\uc5f4 \uc5f0\uad6c\uc790", "E. \uc18c\ud504\ud2b8\uc6e8\uc5b4 \uac1c\ubc1c\uc790, \uc2a4\ub9c8\ud2b8\ub85c\uc9c0\uc2a4\ud2f1", "D. \uc778\uacf5\uc9c0\ub2a5 \uc804\ubb38\uac00, J. MD", "\uacc4\ub9ac\uc0ac", "I. \ub9c8\ucf00\ud130, \uc804\ub7b5\uae30\ud68d", "B. \ub370\uc774\ud130 \ubd84\uc11d\uac00, \ud514\uc9c8\uad00\ub9ac", "A. \ub370\uc774\ud130 \uc5d4\uc9c0\ub2c8\uc5b4, B. \ub370\uc774\ud130 \ubd84\uc11d\uac00, D. \uc778\uacf5\uc9c0\ub2a5 \uc804\ubb38\uac00, \ud1a0\ubaa9", "A. \ub370\uc774\ud130 \uc5d4\uc9c0\ub2c8\uc5b4, C. \ub370\uc774\ud130 \uc0ac\uc774\uc5b8\ud2f0\uc2a4\ud2b8, D. \uc778\uacf5\uc9c0\ub2a5 \uc804\ubb38\uac00, H. \uc790\uc5f0\uacfc\ud559\uacc4\uc5f4 \uc5f0\uad6c\uc790", "HR \uc560\ub110\ub9ac\ud2f1\uc2a4", "G. PM/\uc11c\ube44\uc2a4 \uae30\ud68d\uc790, I. \ub9c8\ucf00\ud130, J. MD", "__UNKNOWN__"], ["\ucef4\ud4e8\ud130\ud65c\uc6a9\ub2a5\ub825", "\uc5c6\uc74c", "ADsP", "SQLD, \uc815\ubcf4\ucc98\ub9ac\uae30\uc0ac", "\uad6c\uae00 \uc560\ub110\ub9ac\uc2a4\ud2b8", "SQLD, \uad6c\uae00 \uc560\ub110\ub9ac\uc2a4\ud2b8", "SQLD", "ADsP, SQLD", "\uc815\ubcf4\ucc98\ub9ac\uae30\uc0ac", "\uc900\ube44\uc911: SQLD", "\uae30\ud0c0", "\uc900\ube44\uc911: ADsP, SQLD", "ADsP, \uc815\ubcf4\ucc98\ub9ac\uae30\uc0ac, \uad6c\uae00 \uc560\ub110\ub9ac\uc2a4\ud2b8", "ADsP, SQLD, \uad6c\uae00 \uc560\ub110\ub9ac\uc2a4\ud2b8", "\ud0dc\ube14\ub85c, \uad6c\uae00 \uc560\ub110\ub9ac\uc2a4\ud2b8", "ADsP, \ube45\ub370\uc774\ud130 \ubd84\uc11d \uae30\uc0ac", "\ube45\ub370\uc774\ud130 \ubd84\uc11d \uae30\uc0ac", "\uc900\ube44\uc911", "ADsP, \uad6c\uae00 \uc560\ub110\ub9ac\uc2a4\ud2b8", "ADsP, \uc815\ubcf4\ucc98\ub9ac\uae30\uc0ac", "ADsP, SQLD, \ube45\ub370\uc774\ud130 \ubd84\uc11d \uae30\uc0ac", "ADsP, \uc815\ubcf4\ucc98\ub9ac\uae30\uc0ac, SQLD", "\ube45\ub370\uc774\ud130 \ubd84\uc11d \uae30\uc0ac, \uc815\ubcf4\ucc98\ub9ac\uae30\uc0ac", "\ud0dc\ube14\ub85c", "AWS", "ADsP, SQLD, \uc815\ubcf4\ucc98\ub9ac\uae30\uc0ac", "ADsP, SQLD, \ube45\ub370\uc774\ud130 \ubd84\uc11d \uae30\uc0ac, \uc815\ubcf4\ucc98\ub9ac\uae30\uc0ac", "__UNKNOWN__"], ["ADsP, SQLD, \ube45\ub370\uc774\ud130 \ubd84\uc11d \uae30\uc0ac, \ud0dc\ube14\ub85c \uad00\ub828 \uc790\uaca9\uc99d, \uad6c\uae00 \uc560\ub110\ub9ac\uc2a4\ud2b8", "ADsP, SQLD, \ube45\ub370\uc774\ud130 \ubd84\uc11d \uae30\uc0ac, \uc815\ubcf4\ucc98\ub9ac\uae30\uc0ac", "SQLD, \ube45\ub370\uc774\ud130 \ubd84\uc11d \uae30\uc0ac, \uc815\ubcf4\ucc98\ub9ac\uae30\uc0ac", "ADsP, \ube45\ub370\uc774\ud130 \ubd84\uc11d \uae30\uc0ac", "SQLD, \uc815\ubcf4\ucc98\ub9ac\uae30\uc0ac, \ud0dc\ube14\ub85c \uad00\ub828 \uc790\uaca9\uc99d, \uad6c\uae00 \uc560\ub110\ub9ac\uc2a4\ud2b8", "ADsP, SQLD, \ube45\ub370\uc774\ud130 \ubd84\uc11d \uae30\uc0ac", "ADsP, SQLD", "ADsP, SQLD, \ube45\ub370\uc774\ud130 \ubd84\uc11d \uae30\uc0ac, \uc815\ubcf4\ucc98\ub9ac\uae30\uc0ac, \ud074\ub77c\uc6b0\ub4dc \uad00\ub828 \uc790\uaca9\uc99d", "\ube45\ub370\uc774\ud130 \ubd84\uc11d \uae30\uc0ac, \uc815\ubcf4\ucc98\ub9ac\uae30\uc0ac", "\ube45\ub370\uc774\ud130 \ubd84\uc11d \uae30\uc0ac", "ADsP, \ube45\ub370\uc774\ud130 \ubd84\uc11d \uae30\uc0ac, \uc815\ubcf4\ucc98\ub9ac\uae30\uc0ac, \ud0dc\ube14\ub85c \uad00\ub828 \uc790\uaca9\uc99d", "ADsP, \ud0dc\ube14\ub85c \uad00\ub828 \uc790\uaca9\uc99d", "SQLD, \ube45\ub370\uc774\ud130 \ubd84\uc11d \uae30\uc0ac, \uc815\ubcf4\ucc98\ub9ac\uae30\uc0ac, \ud0dc\ube14\ub85c \uad00\ub828 \uc790\uaca9\uc99d, \uad6c\uae00 \uc560\ub110\ub9ac\uc2a4\ud2b8", "ADsP, \ube45\ub370\uc774\ud130 \ubd84\uc11d \uae30\uc0ac, \uc815\ubcf4\ucc98\ub9ac\uae30\uc0ac", "\uc815\ubcf4\ucc98\ub9ac\uae30\uc0ac", "SQLD, \uc815\ubcf4\ucc98\ub9ac\uae30\uc0ac", "ADsP", "SQLD, \ube45\ub370\uc774\ud130 \ubd84\uc11d \uae30\uc0ac, \uc815\ubcf4\ucc98\ub9ac\uae30\uc0ac, \uc0ac\ud68c\uc870\uc0ac\ubd84\uc11d\uc0ac, sqlp \ub4f1", "ADsP, \uc815\ubcf4\ucc98\ub9ac\uae30\uc0ac", "\ube45\ub370\uc774\ud130 \ubd84\uc11d \uae30\uc0ac, \uc815\ubcf4\ucc98\ub9ac\uae30\uc0ac, \uad6c\uae00 \uc560\ub110\ub9ac\uc2a4\ud2b8", "ADsP, \ube45\ub370\uc774\ud130 \ubd84\uc11d \uae30\uc0ac, \ud0dc\ube14\ub85c \uad00\ub828 \uc790\uaca9\uc99d, \uad6c\uae00 \uc560\ub110\ub9ac\uc2a4\ud2b8", "SQLD, \ube45\ub370\uc774\ud130 \ubd84\uc11d \uae30\uc0ac, \ud0dc\ube14\ub85c \uad00\ub828 \uc790\uaca9\uc99d", "\ud0dc\ube14\ub85c \uad00\ub828 \uc790\uaca9\uc99d", "SQLD", "\ube45\ub370\uc774\ud130 \ubd84\uc11d \uae30\uc0ac, \ud0dc\ube14\ub85c \uad00\ub828 \uc790\uaca9\uc99d", "SQLD, \ube45\ub370\uc774\ud130 \ubd84\uc11d \uae30\uc0ac", "\ub531\ud788 \uc5c6\uc74c", "SQLD, \ube45\ub370\uc774\ud130 \ubd84\uc11d \uae30\uc0ac, \uad6c\uae00 \uc560\ub110\ub9ac\uc2a4\ud2b8", "ADsP, SQLD, \ube45\ub370\uc774\ud130 \ubd84\uc11d \uae30\uc0ac, \uad6c\uae00 \uc560\ub110\ub9ac\uc2a4\ud2b8", "ADsP, SQLD, \uad6c\uae00 \uc560\ub110\ub9ac\uc2a4\ud2b8", "ADsP, SQLD, \ube45\ub370\uc774\ud130 \ubd84\uc11d \uae30\uc0ac, \uc815\ubcf4\ucc98\ub9ac\uae30\uc0ac, \ud0dc\ube14\ub85c \uad00\ub828 \uc790\uaca9\uc99d, \uad6c\uae00 \uc560\ub110\ub9ac\uc2a4\ud2b8", ".", "ADsP, SQLD, \ud0dc\ube14\ub85c \uad00\ub828 \uc790\uaca9\uc99d, \uad6c\uae00 \uc560\ub110\ub9ac\uc2a4\ud2b8", "ADsP, \uc0ac\ud68c\uc870\uc0ac\ubd84\uc11d\uc0ac2\uae09", "ADsP, \uad6c\uae00 \uc560\ub110\ub9ac\uc2a4\ud2b8, \uc0ac\ud68c\uc870\uc0ac\ubd84\uc11d\uc0ac 2\uae09", "ADsP, SQLD, \ube45\ub370\uc774\ud130 \ubd84\uc11d \uae30\uc0ac, \uc815\ubcf4\ucc98\ub9ac\uae30\uc0ac, \uad6c\uae00 \uc560\ub110\ub9ac\uc2a4\ud2b8", "\ube45\ub370\uc774\ud130 \ubd84\uc11d \uae30\uc0ac, \uc815\ubcf4\ucc98\ub9ac\uae30\uc0ac, \ud0dc\ube14\ub85c \uad00\ub828 \uc790\uaca9\uc99d, ADsP\ub294 8/30 \ubc1c\ud45c \uae30\ub2e4\ub9ac\ub294\uc911(\uc2dc\ud5d8 \uc751\uc2dc)", "\ube45\ub370\uc774\ud130 \ubd84\uc11d \uae30\uc0ac, ADP", "\ube45\ub370\uc774\ud130 \ubd84\uc11d \uae30\uc0ac, \uad6c\uae00 \uc560\ub110\ub9ac\uc2a4\ud2b8", "ADsP, SQLD, \ube45\ub370\uc774\ud130 \ubd84\uc11d \uae30\uc0ac, \ud0dc\ube14\ub85c \uad00\ub828 \uc790\uaca9\uc99d", "ADsP, \ube45\ub370\uc774\ud130 \ubd84\uc11d \uae30\uc0ac, \uc815\ubcf4\ucc98\ub9ac\uae30\uc0ac, SQLD\ub294 \ud569\uaca9\uc5ec\ubd80\ub97c \uae30\ub2e4\ub9ac\ub294\uc911", "\ud0dc\ube14\ub85c \uad00\ub828 \uc790\uaca9\uc99d, \uad6c\uae00 \uc560\ub110\ub9ac\uc2a4\ud2b8", "\ube45\ub370\uc774\ud130 \ubd84\uc11d \uae30\uc0ac, \ud0dc\ube14\ub85c \uad00\ub828 \uc790\uaca9\uc99d, \uad6c\uae00 \uc560\ub110\ub9ac\uc2a4\ud2b8", "SQLD, sqld \uc2dc\ud5d8 \uc751\uc2dc\ub294 \uc644\ub8cc. \ubc1c\ud45c\uc544\uc9c1\uc548\ub0a8", "SQLD, \uc815\ubcf4\ucc98\ub9ac\uae30\uc0ac, \uad6c\uae00 \uc560\ub110\ub9ac\uc2a4\ud2b8", "SQLD, \uad6c\uae00 \uc560\ub110\ub9ac\uc2a4\ud2b8", "ADsP, SQLD, \ud0dc\ube14\ub85c \uad00\ub828 \uc790\uaca9\uc99d", "ADsP, SQLD, \uc815\ubcf4\ucc98\ub9ac\uae30\uc0ac", "ADsP, \ud0dc\ube14\ub85c \uad00\ub828 \uc790\uaca9\uc99d, \uad6c\uae00 \uc560\ub110\ub9ac\uc2a4\ud2b8", "\ube45\ub370\uc774\ud130 \ubd84\uc11d \uae30\uc0ac, \uc815\ubcf4\ucc98\ub9ac\uae30\uc0ac, ADO, SQLP", "SQLD, \ud0dc\ube14\ub85c \uad00\ub828 \uc790\uaca9\uc99d, \uad6c\uae00 \uc560\ub110\ub9ac\uc2a4\ud2b8", "\ube45\ub370\uc774\ud130 \ubd84\uc11d \uae30\uc0ac, \uc815\ubcf4\ucc98\ub9ac\uae30\uc0ac, \ud0dc\ube14\ub85c \uad00\ub828 \uc790\uaca9\uc99d", "\uc790\uaca9\uc99d\uc5d0\ub294 \ud06c\uac8c \uad00\uc2ec \uc5c6\uc2b5\ub2c8\ub2e4", "\ube45\ub370\uc774\ud130 \ubd84\uc11d \uae30\uc0ac, \uc815\ubcf4\ucc98\ub9ac\uae30\uc0ac, \ud0dc\ube14\ub85c \uad00\ub828 \uc790\uaca9\uc99d, \uad6c\uae00 \uc560\ub110\ub9ac\uc2a4\ud2b8", "ADsP, \ube45\ub370\uc774\ud130 \ubd84\uc11d \uae30\uc0ac, \ud0dc\ube14\ub85c \uad00\ub828 \uc790\uaca9\uc99d", "SQLD, Adp", "SQLD, \ud0dc\ube14\ub85c \uad00\ub828 \uc790\uaca9\uc99d", "ADsP, \uc815\ubcf4\ucc98\ub9ac\uae30\uc0ac, \uad6c\uae00 \uc560\ub110\ub9ac\uc2a4\ud2b8", "\uc815\ubcf4\ucc98\ub9ac\uae30\uc0ac, \ud0dc\ube14\ub85c \uad00\ub828 \uc790\uaca9\uc99d, \uad6c\uae00 \uc560\ub110\ub9ac\uc2a4\ud2b8", "\ube45\ub370\uc774\ud130 \ubd84\uc11d \uae30\uc0ac, AWS CLF", "\uc815\ubcf4\ucc98\ub9ac\uae30\uc0ac, \uad6c\uae00 \uc560\ub110\ub9ac\uc2a4\ud2b8", "\uad6c\uae00 \uc560\ub110\ub9ac\uc2a4\ud2b8", "SQLD, \ube45\ub370\uc774\ud130 \ubd84\uc11d \uae30\uc0ac, \uc815\ubcf4\ucc98\ub9ac\uae30\uc0ac, \uad6c\uae00 \uc560\ub110\ub9ac\uc2a4\ud2b8", "x", "ADsP, 6sigma", "\uc544\uc9c1 \ub2e4 \ubb54\uc9c0 \uc798 \ubab0\ub77c\uc11c...", "\ud0dc\ube14\ub85c \uad00\ub828 \uc790\uaca9\uc99d, AICE", "\uc5c6\uc74c", "\uc624\ud53d", "\uc544\uc9c1\uc740 \uc5c6\uc74c", "\uc790\uaca9\uc99d\uc740 \uc544\uc9c1 \uc798 \ubaa8\ub974\uaca0\uc74c", "ADsP, \ube45\ub370\uc774\ud130 \ubd84\uc11d \uae30\uc0ac, \uad6c\uae00 \uc560\ub110\ub9ac\uc2a4\ud2b8", "ADsP, \ube45\ub370\uc774\ud130 \ubd84\uc11d \uae30\uc0ac, \uc815\ubcf4\ucc98\ub9ac\uae30\uc0ac, \uad6c\uae00 \uc560\ub110\ub9ac\uc2a4\ud2b8", "ADsP, \uad6c\uae00 \uc560\ub110\ub9ac\uc2a4\ud2b8", "ADsP, SQLD, \ube45\ub370\uc774\ud130 \ubd84\uc11d \uae30\uc0ac, \uc815\ubcf4\ucc98\ub9ac\uae30\uc0ac, \ud0dc\ube14\ub85c \uad00\ub828 \uc790\uaca9\uc99d, \uad6c\uae00 \uc560\ub110\ub9ac\uc2a4\ud2b8, \uc0ac\ud68c\uc870\uc0ac\ubd84\uc11d\uc0ac", "ADsP, \ube45\ub370\uc774\ud130 \ubd84\uc11d \uae30\uc0ac, \ud488\uc9c8\uacbd\uc601", "ADsP, SQLD, \ube45\ub370\uc774\ud130 \ubd84\uc11d \uae30\uc0ac, \uc815\ubcf4\ucc98\ub9ac\uae30\uc0ac, \ud0dc\ube14\ub85c \uad00\ub828 \uc790\uaca9\uc99d", "\ube45\ub370\uc774\ud130 \ubd84\uc11d \uae30\uc0ac, \ud488\uc9c8\uacbd\uc601\uae30\uc0ac", "SQLD, \uc815\ubcf4\ucc98\ub9ac\uae30\uc0ac, \ud0dc\ube14\ub85c \uad00\ub828 \uc790\uaca9\uc99d", "SQLD, \ube45\ub370\uc774\ud130 \ubd84\uc11d \uae30\uc0ac, \uc815\ubcf4\ucc98\ub9ac\uae30\uc0ac, \ud0dc\ube14\ub85c \uad00\ub828 \uc790\uaca9\uc99d", "SQLD, \ube45\ub370\uc774\ud130 \ubd84\uc11d \uae30\uc0ac, \ud0dc\ube14\ub85c \uad00\ub828 \uc790\uaca9\uc99d, \uad6c\uae00 \uc560\ub110\ub9ac\uc2a4\ud2b8", "\uc790\uaca9\uc99d\uc740 \ucde8\ub4dd \uc608\uc815 \uc5c6\uc74c", "\ube45\ub370\uc774\ud130 \ubd84\uc11d \uae30\uc0ac, \uc815\ubcf4\ucc98\ub9ac\uae30\uc0ac, SQLP", "AI \uc790\uaca9\uc99d(AICE)", "ADsP, ADP", "\uc544\uc9c1 \uacc4\ud68d\uc5c6\uc2b5\ub2c8\ub2e4.", "\ube45\ub370\uc774\ud130 \ubd84\uc11d \uae30\uc0ac, \ud0dc\ube14\ub85c \uad00\ub828 \uc790\uaca9\uc99d, \uacbd\uc601\uc815\ubcf4\uc2dc\uac01\ud654\ub2a5", "\ube45\ub370\uc774\ud130 \ubd84\uc11d \uae30\uc0ac, \uc815\ubcf4\ucc98\ub9ac\uae30\uc0ac, Pccp", "SQLD, \ube45\ub370\uc774\ud130 \ubd84\uc11d \uae30\uc0ac, \uc815\ubcf4\ucc98\ub9ac\uae30\uc0ac, \ud55c\ub2a5\uac80, \ub124\ud2b8\uc6cc\ud06c\uad00\ub9ac\uc0ac2\uae09, \ub9ac\ub205\uc2a4\ub9c8\uc2a4\ud130, SQL \uac1c\ubc1c\uc790", "ADsP, \ube45\ub370\uc774\ud130 \ubd84\uc11d \uae30\uc0ac, \uc815\ubcf4\ucc98\ub9ac\uae30\uc0ac, \ub9ac\ub205\uc2a4 \ub9c8\uc2a4\ud130 2\uae09", "\uc544\uc9c1 \uc5c6\uc74c", "__UNKNOWN__"], ["A. \uae08\uc735 / \ubcf4\ud5d8 \uc9c1\ubb34", "D. \uc18c\ud504\ud2b8\uc6e8\uc5b4 \uac1c\ubc1c\uc790, F. PM / \uc11c\ube44\uc2a4 \uae30\ud68d\uc790", "A. \uae08\uc735 / \ubcf4\ud5d8 \uc9c1\ubb34, B. \uae30\ud68d / \uc804\ub7b5 / \uacbd\uc601 \uc9c1\ubb34, H. \ub9c8\ucf00\ud130 / \uc601\uc5c5\uad00\ub9ac", "A. \uae08\uc735 / \ubcf4\ud5d8 \uc9c1\ubb34, B. \uae30\ud68d / \uc804\ub7b5 / \uacbd\uc601 \uc9c1\ubb34, F. PM / \uc11c\ube44\uc2a4 \uae30\ud68d\uc790", "B. \uae30\ud68d / \uc804\ub7b5 / \uacbd\uc601 \uc9c1\ubb34, E. UI/UX \ub514\uc790\uc774\ub108, F. PM / \uc11c\ube44\uc2a4 \uae30\ud68d\uc790, H. \ub9c8\ucf00\ud130 / \uc601\uc5c5\uad00\ub9ac", "B. \uae30\ud68d / \uc804\ub7b5 / \uacbd\uc601 \uc9c1\ubb34, H. \ub9c8\ucf00\ud130 / \uc601\uc5c5\uad00\ub9ac", "A. \uae08\uc735 / \ubcf4\ud5d8 \uc9c1\ubb34, B. \uae30\ud68d / \uc804\ub7b5 / \uacbd\uc601 \uc9c1\ubb34, C. MD, F. PM / \uc11c\ube44\uc2a4 \uae30\ud68d\uc790", "B. \uae30\ud68d / \uc804\ub7b5 / \uacbd\uc601 \uc9c1\ubb34, C. MD, F. PM / \uc11c\ube44\uc2a4 \uae30\ud68d\uc790, H. \ub9c8\ucf00\ud130 / \uc601\uc5c5\uad00\ub9ac", "D. \uc18c\ud504\ud2b8\uc6e8\uc5b4 \uac1c\ubc1c\uc790", "A. \uae08\uc735 / \ubcf4\ud5d8 \uc9c1\ubb34, B. \uae30\ud68d / \uc804\ub7b5 / \uacbd\uc601 \uc9c1\ubb34, F. PM / \uc11c\ube44\uc2a4 \uae30\ud68d\uc790, H. \ub9c8\ucf00\ud130 / \uc601\uc5c5\uad00\ub9ac", "B. \uae30\ud68d / \uc804\ub7b5 / \uacbd\uc601 \uc9c1\ubb34, D. \uc18c\ud504\ud2b8\uc6e8\uc5b4 \uac1c\ubc1c\uc790, H. \ub9c8\ucf00\ud130 / \uc601\uc5c5\uad00\ub9ac", "G. \uc790\uc5f0\uacfc\ud559\uacc4\uc5f4 \uc5f0\uad6c\uc790", "A. \uae08\uc735 / \ubcf4\ud5d8 \uc9c1\ubb34, B. \uae30\ud68d / \uc804\ub7b5 / \uacbd\uc601 \uc9c1\ubb34", "A. \uae08\uc735 / \ubcf4\ud5d8 \uc9c1\ubb34, B. \uae30\ud68d / \uc804\ub7b5 / \uacbd\uc601 \uc9c1\ubb34, C. MD", "F. PM / \uc11c\ube44\uc2a4 \uae30\ud68d\uc790", "B. \uae30\ud68d / \uc804\ub7b5 / \uacbd\uc601 \uc9c1\ubb34, C. MD, D. \uc18c\ud504\ud2b8\uc6e8\uc5b4 \uac1c\ubc1c\uc790, F. PM / \uc11c\ube44\uc2a4 \uae30\ud68d\uc790, H. \ub9c8\ucf00\ud130 / \uc601\uc5c5\uad00\ub9ac", "B. \uae30\ud68d / \uc804\ub7b5 / \uacbd\uc601 \uc9c1\ubb34, F. PM / \uc11c\ube44\uc2a4 \uae30\ud68d\uc790", "A. \uae08\uc735 / \ubcf4\ud5d8 \uc9c1\ubb34, F. PM / \uc11c\ube44\uc2a4 \uae30\ud68d\uc790, H. \ub9c8\ucf00\ud130 / \uc601\uc5c5\uad00\ub9ac", "A. \uae08\uc735 / \ubcf4\ud5d8 \uc9c1\ubb34, B. \uae30\ud68d / \uc804\ub7b5 / \uacbd\uc601 \uc9c1\ubb34, F. PM / \uc11c\ube44\uc2a4 \uae30\ud68d\uc790, G. \uc790\uc5f0\uacfc\ud559\uacc4\uc5f4 \uc5f0\uad6c\uc790", "H. \ub9c8\ucf00\ud130 / \uc601\uc5c5\uad00\ub9ac", "A. \uae08\uc735 / \ubcf4\ud5d8 \uc9c1\ubb34, B. \uae30\ud68d / \uc804\ub7b5 / \uacbd\uc601 \uc9c1\ubb34, D. \uc18c\ud504\ud2b8\uc6e8\uc5b4 \uac1c\ubc1c\uc790", "E. UI/UX \ub514\uc790\uc774\ub108", "A. \uae08\uc735 / \ubcf4\ud5d8 \uc9c1\ubb34, H. \ub9c8\ucf00\ud130 / \uc601\uc5c5\uad00\ub9ac", "D. \uc18c\ud504\ud2b8\uc6e8\uc5b4 \uac1c\ubc1c\uc790, E. UI/UX \ub514\uc790\uc774\ub108, F. PM / \uc11c\ube44\uc2a4 \uae30\ud68d\uc790", "B. \uae30\ud68d / \uc804\ub7b5 / \uacbd\uc601 \uc9c1\ubb34", "A. \uae08\uc735 / \ubcf4\ud5d8 \uc9c1\ubb34, G. \uc790\uc5f0\uacfc\ud559\uacc4\uc5f4 \uc5f0\uad6c\uc790", "A. \uae08\uc735 / \ubcf4\ud5d8 \uc9c1\ubb34, B. \uae30\ud68d / \uc804\ub7b5 / \uacbd\uc601 \uc9c1\ubb34, G. \uc790\uc5f0\uacfc\ud559\uacc4\uc5f4 \uc5f0\uad6c\uc790, H. \ub9c8\ucf00\ud130 / \uc601\uc5c5\uad00\ub9ac", "A. \uae08\uc735 / \ubcf4\ud5d8 \uc9c1\ubb34, D. \uc18c\ud504\ud2b8\uc6e8\uc5b4 \uac1c\ubc1c\uc790", "B. \uae30\ud68d / \uc804\ub7b5 / \uacbd\uc601 \uc9c1\ubb34, D. \uc18c\ud504\ud2b8\uc6e8\uc5b4 \uac1c\ubc1c\uc790, G. \uc790\uc5f0\uacfc\ud559\uacc4\uc5f4 \uc5f0\uad6c\uc790, H. \ub9c8\ucf00\ud130 / \uc601\uc5c5\uad00\ub9ac", "F. PM / \uc11c\ube44\uc2a4 \uae30\ud68d\uc790, H. \ub9c8\ucf00\ud130 / \uc601\uc5c5\uad00\ub9ac", "B. \uae30\ud68d / \uc804\ub7b5 / \uacbd\uc601 \uc9c1\ubb34, E. UI/UX \ub514\uc790\uc774\ub108", "C. MD, D. \uc18c\ud504\ud2b8\uc6e8\uc5b4 \uac1c\ubc1c\uc790", "C. MD, H. \ub9c8\ucf00\ud130 / \uc601\uc5c5\uad00\ub9ac", "B. \uae30\ud68d / \uc804\ub7b5 / \uacbd\uc601 \uc9c1\ubb34, G. \uc790\uc5f0\uacfc\ud559\uacc4\uc5f4 \uc5f0\uad6c\uc790", "B. \uae30\ud68d / \uc804\ub7b5 / \uacbd\uc601 \uc9c1\ubb34, F. PM / \uc11c\ube44\uc2a4 \uae30\ud68d\uc790, H. \ub9c8\ucf00\ud130 / \uc601\uc5c5\uad00\ub9ac", "A. \uae08\uc735 / \ubcf4\ud5d8 \uc9c1\ubb34, E. UI/UX \ub514\uc790\uc774\ub108", "B. \uae30\ud68d / \uc804\ub7b5 / \uacbd\uc601 \uc9c1\ubb34, C. MD, E. UI/UX \ub514\uc790\uc774\ub108, F. PM / \uc11c\ube44\uc2a4 \uae30\ud68d\uc790, H. \ub9c8\ucf00\ud130 / \uc601\uc5c5\uad00\ub9ac", "A. \uae08\uc735 / \ubcf4\ud5d8 \uc9c1\ubb34, D. \uc18c\ud504\ud2b8\uc6e8\uc5b4 \uac1c\ubc1c\uc790, E. UI/UX \ub514\uc790\uc774\ub108", "B. \uae30\ud68d / \uc804\ub7b5 / \uacbd\uc601 \uc9c1\ubb34, E. UI/UX \ub514\uc790\uc774\ub108, F. PM / \uc11c\ube44\uc2a4 \uae30\ud68d\uc790", "B. \uae30\ud68d / \uc804\ub7b5 / \uacbd\uc601 \uc9c1\ubb34, D. \uc18c\ud504\ud2b8\uc6e8\uc5b4 \uac1c\ubc1c\uc790, F. PM / \uc11c\ube44\uc2a4 \uae30\ud68d\uc790", "D. \uc18c\ud504\ud2b8\uc6e8\uc5b4 \uac1c\ubc1c\uc790, G. \uc790\uc5f0\uacfc\ud559\uacc4\uc5f4 \uc5f0\uad6c\uc790", "D. \uc18c\ud504\ud2b8\uc6e8\uc5b4 \uac1c\ubc1c\uc790, E. UI/UX \ub514\uc790\uc774\ub108", "B. \uae30\ud68d / \uc804\ub7b5 / \uacbd\uc601 \uc9c1\ubb34, D. \uc18c\ud504\ud2b8\uc6e8\uc5b4 \uac1c\ubc1c\uc790, G. \uc790\uc5f0\uacfc\ud559\uacc4\uc5f4 \uc5f0\uad6c\uc790", "A. \uae08\uc735 / \ubcf4\ud5d8 \uc9c1\ubb34, E. UI/UX \ub514\uc790\uc774\ub108, G. \uc790\uc5f0\uacfc\ud559\uacc4\uc5f4 \uc5f0\uad6c\uc790", "E. UI/UX \ub514\uc790\uc774\ub108, F. PM / \uc11c\ube44\uc2a4 \uae30\ud68d\uc790", "B. \uae30\ud68d / \uc804\ub7b5 / \uacbd\uc601 \uc9c1\ubb34, C. MD", "D. \uc18c\ud504\ud2b8\uc6e8\uc5b4 \uac1c\ubc1c\uc790, E. UI/UX \ub514\uc790\uc774\ub108, F. PM / \uc11c\ube44\uc2a4 \uae30\ud68d\uc790, G. \uc790\uc5f0\uacfc\ud559\uacc4\uc5f4 \uc5f0\uad6c\uc790", "A. \uae08\uc735 / \ubcf4\ud5d8 \uc9c1\ubb34, F. PM / \uc11c\ube44\uc2a4 \uae30\ud68d\uc790, G. \uc790\uc5f0\uacfc\ud559\uacc4\uc5f4 \uc5f0\uad6c\uc790", "D. \uc18c\ud504\ud2b8\uc6e8\uc5b4 \uac1c\ubc1c\uc790, E. UI/UX \ub514\uc790\uc774\ub108, G. \uc790\uc5f0\uacfc\ud559\uacc4\uc5f4 \uc5f0\uad6c\uc790", "B. \uae30\ud68d / \uc804\ub7b5 / \uacbd\uc601 \uc9c1\ubb34, C. MD, H. \ub9c8\ucf00\ud130 / \uc601\uc5c5\uad00\ub9ac", "G. \uc790\uc5f0\uacfc\ud559\uacc4\uc5f4 \uc5f0\uad6c\uc790, H. \ub9c8\ucf00\ud130 / \uc601\uc5c5\uad00\ub9ac", "A. \uae08\uc735 / \ubcf4\ud5d8 \uc9c1\ubb34, F. PM / \uc11c\ube44\uc2a4 \uae30\ud68d\uc790", "B. \uae30\ud68d / \uc804\ub7b5 / \uacbd\uc601 \uc9c1\ubb34, C. MD, F. PM / \uc11c\ube44\uc2a4 \uae30\ud68d\uc790", "F. PM / \uc11c\ube44\uc2a4 \uae30\ud68d\uc790, G. \uc790\uc5f0\uacfc\ud559\uacc4\uc5f4 \uc5f0\uad6c\uc790, H. \ub9c8\ucf00\ud130 / \uc601\uc5c5\uad00\ub9ac", "A. \uae08\uc735 / \ubcf4\ud5d8 \uc9c1\ubb34, D. \uc18c\ud504\ud2b8\uc6e8\uc5b4 \uac1c\ubc1c\uc790, F. PM / \uc11c\ube44\uc2a4 \uae30\ud68d\uc790", "E. UI/UX \ub514\uc790\uc774\ub108, F. PM / \uc11c\ube44\uc2a4 \uae30\ud68d\uc790, H. \ub9c8\ucf00\ud130 / \uc601\uc5c5\uad00\ub9ac", "A. \uae08\uc735 / \ubcf4\ud5d8 \uc9c1\ubb34, B. \uae30\ud68d / \uc804\ub7b5 / \uacbd\uc601 \uc9c1\ubb34, G. \uc790\uc5f0\uacfc\ud559\uacc4\uc5f4 \uc5f0\uad6c\uc790", "A. \uae08\uc735 / \ubcf4\ud5d8 \uc9c1\ubb34, E. UI/UX \ub514\uc790\uc774\ub108, F. PM / \uc11c\ube44\uc2a4 \uae30\ud68d\uc790", "B. \uae30\ud68d / \uc804\ub7b5 / \uacbd\uc601 \uc9c1\ubb34, D. \uc18c\ud504\ud2b8\uc6e8\uc5b4 \uac1c\ubc1c\uc790", "A. \uae08\uc735 / \ubcf4\ud5d8 \uc9c1\ubb34, D. \uc18c\ud504\ud2b8\uc6e8\uc5b4 \uac1c\ubc1c\uc790, G. \uc790\uc5f0\uacfc\ud559\uacc4\uc5f4 \uc5f0\uad6c\uc790", "F. PM / \uc11c\ube44\uc2a4 \uae30\ud68d\uc790, G. \uc790\uc5f0\uacfc\ud559\uacc4\uc5f4 \uc5f0\uad6c\uc790", "E. UI/UX \ub514\uc790\uc774\ub108, G. \uc790\uc5f0\uacfc\ud559\uacc4\uc5f4 \uc5f0\uad6c\uc790", "A. \uae08\uc735 / \ubcf4\ud5d8 \uc9c1\ubb34, B. \uae30\ud68d / \uc804\ub7b5 / \uacbd\uc601 \uc9c1\ubb34, D. \uc18c\ud504\ud2b8\uc6e8\uc5b4 \uac1c\ubc1c\uc790, F. PM / \uc11c\ube44\uc2a4 \uae30\ud68d\uc790, G. \uc790\uc5f0\uacfc\ud559\uacc4\uc5f4 \uc5f0\uad6c\uc790", "A. \uae08\uc735 / \ubcf4\ud5d8 \uc9c1\ubb34, C. MD, F. PM / \uc11c\ube44\uc2a4 \uae30\ud68d\uc790, H. \ub9c8\ucf00\ud130 / \uc601\uc5c5\uad00\ub9ac", "B. \uae30\ud68d / \uc804\ub7b5 / \uacbd\uc601 \uc9c1\ubb34, D. \uc18c\ud504\ud2b8\uc6e8\uc5b4 \uac1c\ubc1c\uc790, F. PM / \uc11c\ube44\uc2a4 \uae30\ud68d\uc790, G. \uc790\uc5f0\uacfc\ud559\uacc4\uc5f4 \uc5f0\uad6c\uc790, H. \ub9c8\ucf00\ud130 / \uc601\uc5c5\uad00\ub9ac", "A. \uae08\uc735 / \ubcf4\ud5d8 \uc9c1\ubb34, B. \uae30\ud68d / \uc804\ub7b5 / \uacbd\uc601 \uc9c1\ubb34, D. \uc18c\ud504\ud2b8\uc6e8\uc5b4 \uac1c\ubc1c\uc790, E. UI/UX \ub514\uc790\uc774\ub108, F. PM / \uc11c\ube44\uc2a4 \uae30\ud68d\uc790", "B. \uae30\ud68d / \uc804\ub7b5 / \uacbd\uc601 \uc9c1\ubb34, E. UI/UX \ub514\uc790\uc774\ub108, H. \ub9c8\ucf00\ud130 / \uc601\uc5c5\uad00\ub9ac", "A. \uae08\uc735 / \ubcf4\ud5d8 \uc9c1\ubb34, B. \uae30\ud68d / \uc804\ub7b5 / \uacbd\uc601 \uc9c1\ubb34, D. \uc18c\ud504\ud2b8\uc6e8\uc5b4 \uac1c\ubc1c\uc790, F. PM / \uc11c\ube44\uc2a4 \uae30\ud68d\uc790", "B. \uae30\ud68d / \uc804\ub7b5 / \uacbd\uc601 \uc9c1\ubb34, C. MD, D. \uc18c\ud504\ud2b8\uc6e8\uc5b4 \uac1c\ubc1c\uc790, F. PM / \uc11c\ube44\uc2a4 \uae30\ud68d\uc790", "A. \uae08\uc735 / \ubcf4\ud5d8 \uc9c1\ubb34, B. \uae30\ud68d / \uc804\ub7b5 / \uacbd\uc601 \uc9c1\ubb34, D. \uc18c\ud504\ud2b8\uc6e8\uc5b4 \uac1c\ubc1c\uc790, E. UI/UX \ub514\uc790\uc774\ub108, F. PM / \uc11c\ube44\uc2a4 \uae30\ud68d\uc790, H. \ub9c8\ucf00\ud130 / \uc601\uc5c5\uad00\ub9ac", "B. \uae30\ud68d / \uc804\ub7b5 / \uacbd\uc601 \uc9c1\ubb34, D. \uc18c\ud504\ud2b8\uc6e8\uc5b4 \uac1c\ubc1c\uc790, F. PM / \uc11c\ube44\uc2a4 \uae30\ud68d\uc790, G. \uc790\uc5f0\uacfc\ud559\uacc4\uc5f4 \uc5f0\uad6c\uc790", "A. \uae08\uc735 / \ubcf4\ud5d8 \uc9c1\ubb34, B. \uae30\ud68d / \uc804\ub7b5 / \uacbd\uc601 \uc9c1\ubb34, E. UI/UX \ub514\uc790\uc774\ub108", "A. \uae08\uc735 / \ubcf4\ud5d8 \uc9c1\ubb34, C. MD, E. UI/UX \ub514\uc790\uc774\ub108, H. \ub9c8\ucf00\ud130 / \uc601\uc5c5\uad00\ub9ac", "B. \uae30\ud68d / \uc804\ub7b5 / \uacbd\uc601 \uc9c1\ubb34, D. \uc18c\ud504\ud2b8\uc6e8\uc5b4 \uac1c\ubc1c\uc790, E. UI/UX \ub514\uc790\uc774\ub108, F. PM / \uc11c\ube44\uc2a4 \uae30\ud68d\uc790", "B. \uae30\ud68d / \uc804\ub7b5 / \uacbd\uc601 \uc9c1\ubb34, C. MD, E. UI/UX \ub514\uc790\uc774\ub108, F. PM / \uc11c\ube44\uc2a4 \uae30\ud68d\uc790", "E. UI/UX \ub514\uc790\uc774\ub108, H. \ub9c8\ucf00\ud130 / \uc601\uc5c5\uad00\ub9ac", "A. \uae08\uc735 / \ubcf4\ud5d8 \uc9c1\ubb34, B. \uae30\ud68d / \uc804\ub7b5 / \uacbd\uc601 \uc9c1\ubb34, C. MD, H. \ub9c8\ucf00\ud130 / \uc601\uc5c5\uad00\ub9ac", "D. \uc18c\ud504\ud2b8\uc6e8\uc5b4 \uac1c\ubc1c\uc790, F. PM / \uc11c\ube44\uc2a4 \uae30\ud68d\uc790, G. \uc790\uc5f0\uacfc\ud559\uacc4\uc5f4 \uc5f0\uad6c\uc790", "B. \uae30\ud68d / \uc804\ub7b5 / \uacbd\uc601 \uc9c1\ubb34, C. MD, D. \uc18c\ud504\ud2b8\uc6e8\uc5b4 \uac1c\ubc1c\uc790", "D. \uc18c\ud504\ud2b8\uc6e8\uc5b4 \uac1c\ubc1c\uc790, E. UI/UX \ub514\uc790\uc774\ub108, H. \ub9c8\ucf00\ud130 / \uc601\uc5c5\uad00\ub9ac", "A. \uae08\uc735 / \ubcf4\ud5d8 \uc9c1\ubb34, C. MD", "B. \uae30\ud68d / \uc804\ub7b5 / \uacbd\uc601 \uc9c1\ubb34, D. \uc18c\ud504\ud2b8\uc6e8\uc5b4 \uac1c\ubc1c\uc790, F. PM / \uc11c\ube44\uc2a4 \uae30\ud68d\uc790, H. \ub9c8\ucf00\ud130 / \uc601\uc5c5\uad00\ub9ac", "B. \uae30\ud68d / \uc804\ub7b5 / \uacbd\uc601 \uc9c1\ubb34, C. MD, E. UI/UX \ub514\uc790\uc774\ub108, H. \ub9c8\ucf00\ud130 / \uc601\uc5c5\uad00\ub9ac", "E. UI/UX \ub514\uc790\uc774\ub108, F. PM / \uc11c\ube44\uc2a4 \uae30\ud68d\uc790, G. \uc790\uc5f0\uacfc\ud559\uacc4\uc5f4 \uc5f0\uad6c\uc790", "C. MD, F. PM / \uc11c\ube44\uc2a4 \uae30\ud68d\uc790", "B. \uae30\ud68d / \uc804\ub7b5 / \uacbd\uc601 \uc9c1\ubb34, C. MD, D. \uc18c\ud504\ud2b8\uc6e8\uc5b4 \uac1c\ubc1c\uc790, E. UI/UX 