tree
version=v4
num_class=1
num_tree_per_iteration=1
label_index=0
max_feature_idx=32
objective=binary sigmoid:1
feature_names=school1 major_type major1_1 major1_2 major_data job class1 class2 re_registration nationality inflow_route whyBDA what_to_gain hope_for_group major_field desired_career_path completed_semester project_type time_input desired_job certificate_acquisition desired_certificate desired_job_except_data incumbents_level incumbents_lecture incumbents_company_level incumbents_lecture_type incumbents_lecture_scale incumbents_lecture_scale_reason interested_company expected_domain onedayclass_topic is_major_it
feature_infos=[0:91] -1:1:0:2 -1:4:5:1:3:9:0:6:8:2:7:10 -1:2:1:4:0:3:5:7:9:6 -1:0:1 -1:0:2:1:3 -1:3:0:4:7:5:1:2:6:8:9 -1:1:3:4:0:2:5:6:8:7:9 -1:0:1 -1:0:2 -1:0:3:2:1:4 -1:2:0:3:1:6:4:5 -1:1:0:2:3 -1:1:0:2 -1:9:8:5:11:1:12:16:13:20:2:21:32:19:23:24:18:25:17:4:22:6:7:14:33 -1:1:0:2:3 -1:1:2:0:3:6:4:7:8:9:5 -1:0:1 -1:0:1:3:6:4:5:9:11 -1:3:1:13:0:18:5:9:25:26:15:20:90:16:28:57:2:66:80:7:54:32:21:30:55:63:74:107:10:12:19:34:37:56:118:136:8:65:71:102:140:142 -1:1:2:7:6:4:15:8:25:10:19:0:5:13:18 -1:9:6:5:1:8:23:25:2:16:3:14:15:13:30:29:47:24:18:21:53:19:28:42:22:35:27:38:41:0:10:12:46:56:32:45:51:61:72:76:11:31:39:50:58:62:79 -1:0:8:24:11:12:14:5:16:27:2:3:34:1:41:19:22:21:40:25:58:39:7:29:44:9:33:51:38:59:6:32:45:49:56:67:76:10:17:20:23:35:36:54:66:73 -1:1:0 -1:1:2:0 -1:2:1:0:3 -1:0:2:1 -1:1:0:2 -1:19:72:128:225:12 -1:3:4:18:16:58:46:31:47:26:157:5:38:57:80:7:42:64:39:72:123:206:311:29:36:48:50:70:112:121:131:222:226:232:236:282:315 -1:0:5:8:3:11:23:12:16:26:76:56:85:15:29:47:60:82:13:38:62:71:35:103:130:1:22:63:64:67:87:111:119:123 -1:1:13:3:21:6:4:10:7:0:20:11:30:14:8:9:18:12:25:15:17:19:27:2:28:5:16:23:24:26 -1:0:1
tree_sizes=2735 2434 2979 2903 2693 2883 2834 2716 2953 2824 2862 3001 2778 2943 2795 2707 2978 2903

Tree=0
num_leaves=27
num_cat=17
split_feature=20 3 0 13 0 13 17 13 0 4 24 0 4 0 26 0 17 13 0 24 26 24 24 0 4 0
split_gain=11.5886 11.5912 6.81272 8.81495 7.78428 4.36991 3.84203 3.52662 5.12744 5.79275 3.42843 2.89638 6.42782 3.55885 2.87278 2.20287 2.15636 1.92309 4.2546 3.50046 1.78678 0.744047 0.651685 0.642513 0.394035 0.333867
threshold=0 1 22.500000000000004 2 36.500000000000007 3 4 5 25.500000000000004 6 7 45.500000000000007 8 15.500000000000002 9 26.500000000000004 10 11 11.500000000000002 12 13 14 15 50.500000000000007 16 16.500000000000004
decision_type=9 9 2 1 2 1 1 1 2 1 9 2 1 2 1 2 1 1 2 9 1 9 9 2 1 2
left_child=1 7 5 4 -4 -2 10 8 9 -1 -5 12 13 -3 -9 21 23 19 -19 -7 -10 -16 -14 -17 25 -23
right_child=2 11 3 6 -6 17 -8 14 20 -11 -12 -13 22 -15 15 16 -18 18 -20 -21 -22 24 -24 -25 -26 -27
leaf_value=-0.81160950850018665 -0.80798903729175808 -0.84383170225520021 -0.89012847783297955 -0.80798903729175808 -0.81501701081400157 -0.84781422058447153 -0.82413438186988519 -0.91521068461829425 -0.90163203584489515 -0.88401893266875653 -0.74825126235268791 -0.87315751904347105 -0.84781422058447153 -0.78759077267841704 -0.90574175991932748 -0.84144219125763742 -0.89488034629404201 -0.87967436721864223 -0.82685359779883283 -0.90834849918939597 -0.86229610541818547 -0.87350788722493178 -0.87315751904347094 -0.86772681223082826 -0.89759569970036335 -0.89162192220645631
leaf_weight=6.9051783084869403 4.1849565505981445 4.1849565505981454 6.6959304809570312 4.603452205657959 7.1144261360168457 4.3942043781280518 7.7421696186065683 8.1606652736663818 7.7421696186065656 4.603452205657959 5.0219478607177734 4.6034522056579581 5.6496913433074951 8.5791609287261945 6.9051783084869385 5.2311956882476789 4.6034522056579581 7.3236739635467565 7.9514174461364746 5.2311956882476807 4.603452205657959 6.4866826534271258 4.6034522056579625 4.1849565505981445 5.0219478607177725 4.1849565505981445
leaf_count=33 20 20 32 22 34 21 37 39 37 22 24 22 27 41 33 25 22 35 38 25 22 31 22 20 24 20
internal_value=-0.856226 -0.866644 -0.840472 -0.82162 -0.851435 -0.855264 -0.797913 -0.877074 -0.864583 -0.840573 -0.776822 -0.842076 -0.829712 -0.80603 -0.888384 -0.882405 -0.866835 -0.863209 -0.852179 -0.880713 -0.886964 -0.892064 -0.859193 -0.853124 -0.886046 -0.880611
internal_weight=156.517 96.254 60.2634 31.1779 13.8104 29.0854 17.3676 68.6333 23.8543 11.5086 9.6254 27.6207 23.0173 12.7641 44.779 36.6184 14.0196 24.9005 15.2751 9.6254 12.3456 22.5988 10.2531 9.41615 15.6936 10.6716
internal_count=748 460 288 149 66 139 83 328 114 55 46 132 110 61 214 175 67 119 73 46 59 108 49 45 75 51
cat_boundaries=0 1 2 3 4 5 6 7 8 9 10 11 12 13 14 15 16 17
cat_threshold=2 20 2 4 1 1 1 2 1 2 1 1 2 1 4 2 1
is_linear=0
shrinkage=1


Tree=1
num_leaves=24
num_cat=23
split_feature=19 8 13 32 23 32 4 1 24 1 23 1 24 13 4 13 13 32 23 4 24 24 24
split_gain=11.1159 9.51162 5.36826 7.78451 5.78346 3.99561 3.84508 4.63653 3.72863 2.22923 3.14526 1.88481 1.85083 1.74712 1.57407 1.31977 0.765372 0.73159 0.144414 0.141454 0.00845974 0.00701596 0.00680966
threshold=0 1 2 3 4 5 6 7 8 9 10 11 12 13 14 15 16 17 18 19 20 21 22
decision_type=9 1 1 1 1 1 1 9 9 9 1 9 9 1 1 1 1 1 1 1 9 9 9
left_child=5 2 3 4 -2 6 7 15 -3 17 -11 -10 -6 -9 -12 -1 -8 18 -4 22 -5 -19 -20
right_child=1 8 9 20 12 -7 16 13 11 10 14 -13 -14 -15 -16 -17 -18 21 19 -21 -22 -23 -24
leaf_value=0.060225386202153397 0.050629584361460048 -0.0039857455886866842 -0.034748095814878581 -0.038033640440916491 -0.025872202698100057 0.05082366580662017 -0.017706805607821847 -0.014412637231545445 0.019564934093859218 -0.050248986161727474 0.017156046302903231 0.060677257936694276 0.011482868404325861 0.020783135207245913 -0.015050120021039535 0.028057756621514482 0.0051479825789546296 -0.022232148548783484 -0.03812709363760608 -0.050052284814936211 -0.035106038445641467 -0.024956057177190516 -0.040798662753742165
leaf_weight=7.5840777158737183 7.7764727622270584 8.166788250207901 8.3053415715694427 6.0487839877605438 5.4688723981380463 9.0053244531154615 7.5001701861619949 6.2139153927564621 5.4803580045700073 4.7965105026960373 5.6530920118093491 5.674282044172287 8.4231958389282244 8.1513260304927808 11.535704419016843 5.5017159730196017 7.1604148447513563 5.1660296320915222 4.5735097378492355 4.7837641984224293 4.1678571403026599 4.3583435714244825 4.9851953387260455
leaf_count=36 37 39 40 29 26 43 36 30 26 23 27 27 40 39 55 26 34 25 22 23 20 21 24
internal_value=-1.79232e-05 -0.00914944 -0.0171367 -0.000860085 0.016104 0.0172246 0.0141298 0.025171 0.0216843 -0.0267196 -0.0144482 0.0404785 -0.00322265 0.00555864 -0.00445808 0.046701 -0.00654424 -0.0351054 -0.0399949 -0.0430332 -0.0368393 -0.0234786 -0.0395204
internal_weight=156.481 105.364 86.0427 31.8852 21.6685 51.1169 42.1116 27.451 19.3214 54.1575 21.9853 11.1546 13.8921 14.3652 17.1888 13.0858 14.6606 32.1722 22.6478 14.3425 10.2166 9.52437 9.55871
internal_count=748 504 412 152 103 244 201 131 92 260 105 53 66 69 82 62 70 155 109 69 49 46 46
cat_boundaries=0 3 4 5 6 7 8 9 10 11 12 13 14 15 16 17 18 19 20 21 22 23 24 25
cat_threshold=327721 0 67108864 1 1 1 1 1 1 1 4 2 1 1 4 2 2 2 2 1 1 1 2 4 2
is_linear=0
shrinkage=0.05


Tree=2
num_leaves=29
num_cat=18
split_feature=31 4 19 0 0 17 22 26 0 0 8 1 0 0 1 32 17 26 27 1 0 1 0 27 27 1 0 0
split_gain=11.6713 7.93286 7.81862 7.3272 5.06772 5.40087 4.86805 4.71327 8.58754 4.41142 3.53065 3.16024 2.75393 3.56144 3.34347 2.10945 1.98353 5.5145 1.38125 1.25655 2.36415 1.22488 0.954628 0.937366 0.823111 0.655573 0.430577 0.10871
threshold=0 1 2 36.500000000000007 13.500000000000002 3 4 5 36.500000000000007 38.500000000000007 6 7 24.500000000000004 21.500000000000004 8 9 10 11 12 13 19.500000000000004 14 54.500000000000007 15 16 17 22.500000000000004 33.500000000000007
decision_type=9 1 9 2 2 1 9 1 2 2 1 9 2 2 9 1 1 1 9 9 2 9 2 9 9 9 2 2
left_child=1 4 7 10 5 -1 16 -2 11 21 19 -9 13 14 -8 -5 -4 18 -18 -3 -21 26 24 -16 27 -11 -6 -14
right_child=2 3 6 15 9 -7 12 8 -10 25 -12 -13 22 -15 23 -17 17 -19 -20 20 -22 -23 -24 -25 -26 -27 -28 -29
leaf_value=0.032593244086396099 0.0610080927351258 -0.051671737426309296 0.024675590620613915 0.057557562303528764 0.053092745082063297 -0.038742101734771578 -0.058054395818815788 -0.04987647914303861 0.060315960249123585 0.026411289499167847 0.019076647899281096 0.0035536083451989443 -0.070554903774711367 0.015660727267290977 -0.028012712782995858 0.0091422555412263625 0.033297927569725709 -0.050458091824959889 -0.0029106075068281619 -0.04832287120301447 0.00024722292650224516 0.06925808888557726 -0.033329511799899354 0.00067158574619230482 -0.039674767323223566 -0.00085998705580757741 0.032168905251213603 -0.05950632170921915
leaf_weight=6.2631471008062345 4.8830326348543167 5.1947206854820243 7.3025762587785721 4.640480771660803 5.6327546089887619 4.6036683917045593 8.0304689556360245 4.7681635767221451 4.9011076539754859 4.6044756472110748 4.4130281955003765 6.5958034545183235 4.744775652885437 4.5989817678928366 6.9163947999477386 4.3670134991407394 4.7909395098686218 4.956886053085328 5.8498323559761047 4.5248787850141543 5.6136304885149002 9.1770050525665319 6.649411976337432 4.8420771211385762 4.7846019268035898 4.2264609038829786 4.3633192330598831 4.1945869624614716
leaf_count=30 23 25 35 22 27 22 39 23 23 22 21 31 23 22 33 21 23 24 28 22 27 43 32 23 23 20 21 20
internal_value=-2.87591e-05 0.0144835 -0.0114237 -0.00328592 0.0313541 0.00237241 -0.0194165 0.0121721 0.00499443 0.0426003 -0.0203331 -0.0188649 -0.0288616 -0.023974 -0.0331852 0.0340849 0.00220613 -0.00689932 0.0133921 -0.0316755 -0.0214299 0.0560684 -0.0488786 -0.0162007 -0.0564122 0.0133593 0.0439594 -0.0653706
internal_weight=156.434 67.6246 88.8096 28.7538 38.8708 10.8668 67.6615 21.1481 16.2651 28.004 19.7463 11.364 44.7613 24.3879 19.7889 9.00749 22.9002 15.5977 10.6408 15.3332 10.1385 19.1731 20.3734 11.7585 13.724 8.83094 9.99607 8.93936
internal_count=748 323 425 138 185 52 325 100 77 133 95 54 215 117 95 43 110 75 51 74 49 91 98 56 66 42 48 43
cat_boundaries=0 1 2 3 4 5 6 7 8 9 10 11 12 13 14 15 16 17 18
cat_threshold=35970129 1 9 1 16793861 4 1 2 2 1 2 1 2 1 2 2 2 2
is_linear=0
shrinkage=0.05


Tree=3
num_leaves=28
num_cat=16
split_feature=31 11 4 13 27 20 0 1 0 1 13 8 0 1 32 0 27 0 0 27 0 27 0 0 26 0 0
split_gain=10.1673 7.88477 6.55209 9.11346 6.20778 5.26013 7.25565 4.70309 4.41012 4.29463 2.35706 2.35065 2.19033 2.02822 1.91729 1.88296 1.74209 1.09251 1.96854 1.03375 1.02634 0.866339 1.06631 0.498847 0.472896 0.159229 0.109762
threshold=0 1 2 3 4 5 15.500000000000002 6 41.500000000000007 7 8 9 16.500000000000004 10 11 36.500000000000007 12 21.500000000000004 28.500000000000004 13 15.500000000000002 14 25.500000000000004 19.500000000000004 15 25.500000000000004 17.500000000000004
decision_type=9 1 1 1 9 9 2 9 2 9 1 1 2 9 1 2 9 2 2 9 2 9 2 2 1 2 2
left_child=9 5 3 4 -3 7 -7 8 23 14 20 -9 -5 15 17 -8 -14 -1 -19 -12 -11 22 -4 -2 -16 -23 -6
right_child=1 2 21 12 26 6 13 11 -10 10 19 -13 16 -15 24 -17 -18 18 -20 -21 -22 25 -24 -25 -26 -27 -28
leaf_value=-0.061091462747979677 -0.048386847524298351 0.089290809611529853 -0.052771451708476982 -0.035803708551965512 0.0099756251969231897 0.0099916441890026061 0.10359787117829584 0.0032790477971422882 0.022098199419061781 -0.0011039633362582618 0.028717446157545897 0.042346204258662173 0.01546659717453463 0.0469431566094912 -0.026129505750677726 0.061397597192732994 -0.022858339243403365 -0.010159858119668562 -0.050673782354802077 -0.0037857923008744266 -0.030488246191283909 -0.0091407935129548569 -0.022889088429767977 -0.026049833472530832 -0.0032023417359280091 -0.023028542113901606 0.021324489650268022
leaf_weight=5.6882137805223492 4.5219862759113294 4.3097698539495468 5.7289107888936996 7.205219820141795 4.2565273940563184 7.3562683463096645 5.3806138932704926 7.9976461082696915 4.8153927475214013 5.000153511762619 5.4755784273147583 7.4251647740602493 6.9079455137252808 6.2518363147974023 4.5146700143814105 5.1959351003170013 5.1951110512018186 4.9550467282533628 7.5926014184951782 4.4216878861188889 7.3251777440309525 4.0933799892663956 6.2338066846132278 5.5886422693729401 4.4817718863487244 4.1630045622587204 4.2656074464321136
leaf_count=28 22 20 28 35 20 35 25 38 23 24 26 35 33 29 22 24 25 24 37 21 35 20 30 27 22 20 20
internal_value=-4.53409e-05 0.00852205 -0.0052908 0.00772751 0.0403873 0.020549 0.0363736 0.00204903 -0.0172837 -0.0168742 -0.00397554 0.0220876 -0.0139776 0.0695206 -0.0335964 0.0828662 -0.000983983 -0.0429149 -0.0346749 0.0141963 -0.0185676 -0.0286014 -0.0371997 -0.0360401 -0.0147078 -0.0161432 0.0156561
internal_weight=156.348 106.893 52.3593 32.1402 12.8319 54.5335 24.1847 30.3488 14.926 49.4549 22.2226 15.4228 19.3083 16.8284 27.2323 10.5765 12.1031 18.2359 12.5476 9.89727 12.3253 20.2191 11.9627 10.1106 8.99644 8.25638 8.52213
internal_count=748 509 251 153 60 258 113 145 72 239 106 73 93 78 133 49 58 89 61 47 59 98 58 49 44 40 40
cat_boundaries=0 1 2 3 4 5 6 7 8 9 10 11 12 13 14 15 16
cat_threshold=134349706 11 1 1 1 2 2 2 2 1 2 1 2 2 2 1
is_linear=0
shrinkage=0.05


Tree=4
num_leaves=27
num_cat=26
split_feature=3 10 26 27 4 13 27 13 23 4 17 32 26 1 4 23 32 27 4 27 27 27 23 17 32 1
split_gain=9.75889 8.50745 7.82922 2.75077 2.56495 3.72617 3.63911 1.68904 2.62586 1.60195 7.11442 2.40438 2.32468 1.51885 1.29841 1.25715 1.2599 1.2352 1.10301 0.86037 0.78856 0.649797 0.573537 0.303095 0.126385 0.0342409
threshold=0 1 2 3 4 5 6 7 8 9 10 11 12 13 14 15 16 17 18 19 20 21 22 23 24 25
decision_type=9 9 1 9 1 1 9 1 1 1 1 1 1 9 1 1 1 9 1 9 9 9 1 1 1 9
left_child=1 7 3 18 5 6 -4 -1 14 11 24 12 19 15 -9 16 -6 -18 -3 -2 22 -17 -7 -22 -11 -24
right_child=9 2 4 -5 13 20 -8 8 -10 10 -12 -13 -14 -15 -16 21 17 -19 -20 -21 23 -23 25 -25 -26 -27
leaf_value=0.039146981944600756 0.059597388267146736 0.013434440215781038 -0.016174167365430672 0.041381343253242359 -0.054723661912349147 -0.032109719959109238 0.038189450715732695 0.034114510807698777 -0.018251617408455541 -0.0057117552983523626 0.064781325923464375 -0.00028764964104876074 0.0091414607522810366 -0.060077352222079917 0.0054852582464870302 -0.027502410799038257 -0.012314201729358371 -0.047013526733276655 -0.021187334707943373 0.035238095916843966 -0.029468533037102243 -0.00059602613553927136 -0.015459254270036258 -0.046234802144580034 -0.016435222412322745 -0.009774923180893855
leaf_weight=7.1145211458206177 8.2584566175937653 5.2762672752141961 7.1804919838905334 6.1535870879888526 6.6616748124360949 5.2786668837070465 5.3884432464838028 8.9136196821928024 5.6467564851045671 6.8740183115005484 4.4038127511739722 4.8663217723369625 4.8989216685295149 4.913681939244273 7.1268102526664743 4.6922018676996231 6.0870356410741806 4.4321192651987129 4.0789381563663474 6.4607104361057237 7.3572556376457232 4.3005340546369606 4.4358460903167707 4.2541759014129639 4.5773325115442267 6.5778228789567983
leaf_count=33 38 25 34 29 33 26 25 42 27 33 21 23 23 24 34 23 30 22 20 30 36 21 21 21 22 32
internal_value=-5.86405e-05 -0.00749328 -0.0150595 0.0154174 -0.0237691 -0.0154728 0.00713212 0.0133661 0.0110717 0.0185544 0.0107721 0.031172 0.0389757 -0.0345701 0.0213944 -0.0297815 -0.0377093 -0.0269343 -0.00166091 0.0489053 -0.0256549 -0.0146352 -0.018559 -0.0356113 -0.00999814 -0.0120643
internal_weight=156.21 115.87 87.0687 15.5088 71.56 40.4727 12.5689 28.8017 21.6872 40.3396 15.8552 24.4844 19.6181 31.0872 16.0404 26.1736 17.1808 10.5192 9.35521 14.7192 27.9038 8.99274 16.2923 11.6114 11.4514 11.0137
internal_count=748 558 422 74 348 195 59 136 103 190 76 114 91 153 76 129 85 52 45 68 136 44 79 57 55 53
cat_boundaries=0 1 2 3 4 5 6 7 8 9 10 11 12 13 14 15 16 17 18 19 20 21 22 23 24 25 26
cat_threshold=21 24 4 2 1 1 2 4 2 1 1 1 1 2 2 2 1 2 1 2 2 2 1 1 1 1
is_linear=0
shrinkage=0.05


Tree=5
num_leaves=28
num_cat=17
split_feature=16 19 23 8 0 17 4 0 1 0 17 1 0 1 27 26 17 4 0 27 23 0 0 0 4 0 0
split_gain=9.41088 8.62339 8.20119 8.40364 3.74539 4.18595 4.4889 3.54777 5.02293 3.09373 2.84566 3.60423 2.77637 2.57268 3.67234 2.30756 1.78946 1.58321 1.1889 1.19153 1.11416 0.636981 0.4083 0.689661 0.343745 0.214682 0.150531
threshold=0 1 2 3 35.500000000000007 4 5 20.500000000000004 6 52.500000000000007 7 8 5.5000000000000009 9 10 11 12 13 1.5000000000000002 14 15 21.500000000000004 30.500000000000004 16.500000000000004 16 36.500000000000007 24.500000000000004
decision_type=9 9 1 1 2 1 1 2 9 2 1 9 2 9 9 1 1 1 2 9 1 2 2 2 1 2 2
left_child=2 4 3 7 5 -2 -7 18 9 -9 12 -12 -3 14 -4 -14 -5 -13 -1 -20 22 -22 23 -17 -24 -10 -19
right_child=1 10 13 16 -6 6 -8 8 25 -11 11 17 15 -15 -16 20 -18 26 19 -21 21 -23 24 -25 -26 -27 -28
leaf_value=-0.0031544003680947647 -0.030417430564600376 -0.068803687180078468 -0.0035450619704834882 0.025479879119020134 0.045394123998438264 0.045996857319740021 -0.014518730184106014 0.0049356455356930453 0.043929254567941112 -0.04767385673221073 0.026125992111639931 -0.039552007769177278 0.0040516295787117931 0.063251920147786828 0.05631648426438083 -0.017348007166095313 0.066017101399502218 -0.00025462545263071982 -0.013177156629203074 -0.044383505193015198 -0.059315830447576247 -0.034913975482645312 -0.007306548234901452 -0.043391990158498643 -0.02655768158613056 0.028257784611832926 -0.013461433602255927
leaf_weight=5.1726750433445003 6.0661583840847015 4.3555191457271567 5.1873225718736649 6.6244295984506589 7.570215940475463 7.1840102970600128 5.3438678532838875 7.8799793124198914 4.2763621807098389 4.3299409151077271 5.5603351294994354 6.5136593133211136 5.2640347182750702 8.4777938425540924 5.0623786896467209 4.7070990055799502 4.6218451708555222 4.2888464927673358 5.1793813407421085 7.4712461680173883 4.329200819134714 6.9963869005441666 4.6397151648998243 5.5261065661907196 4.6354880183935165 4.4691978394985199 4.3418930172920227
leaf_count=25 29 22 25 31 35 34 26 38 20 21 26 32 25 40 24 23 21 21 25 36 21 34 22 27 23 21 21
internal_value=-6.71516e-05 -0.0104578 0.0127907 0.00408513 0.011392 0.00367531 0.0201834 -0.006951 0.00699649 -0.013721 -0.0200927 -0.00830241 -0.0310941 0.0428751 0.0260209 -0.0265441 0.0421393 -0.020943 -0.0233496 -0.0316071 -0.0317675 -0.0442416 -0.0245256 -0.0314122 -0.0169277 0.0359207 -0.00689862
internal_weight=156.075 87.3225 68.7526 50.0251 26.1643 18.594 12.5279 38.7788 20.9555 12.2099 61.1583 20.7047 40.4536 18.7275 10.2497 36.098 11.2463 15.1444 17.8233 12.6506 30.834 11.3256 19.5084 10.2332 9.2752 8.74556 8.63074
internal_count=748 421 327 238 124 89 60 186 100 59 297 100 197 89 49 175 52 74 86 61 150 55 95 50 45 41 42
cat_boundaries=0 1 2 3 4 5 6 7 8 9 10 11 12 13 14 15 16 17
cat_threshold=394 262186 2 1 2 1 2 1 1 2 2 4 1 2 1 2 1
is_linear=0
shrinkage=0.05


Tree=6
num_leaves=28
num_cat=21
split_feature=31 3 0 23 24 8 24 0 13 32 8 24 24 13 0 26 23 13 32 27 13 0 0 13 0 24 13
split_gain=9.6438 7.7098 5.33675 5.53006 4.59347 4.48495 3.98605 3.78016 5.25392 3.26519 2.82652 6.8705 2.39566 7.01315 1.13248 1.10895 1.97572 2.61074 2.54179 3.42426 1.2723 0.884239 0.796552 1.39465 0.617471 0.569451 0.103185
threshold=0 1 13.500000000000002 2 3 4 5 4.5000000000000009 6 7 8 9 10 11 17.500000000000004 12 13 14 15 16 17 21.500000000000004 24.500000000000004 18 11.500000000000002 19 20
decision_type=9 9 2 1 9 1 9 2 1 1 1 9 9 1 2 1 1 1 1 9 1 2 2 1 2 9 1
left_child=2 4 7 5 -2 9 -5 -1 -9 12 15 -12 13 -4 -6 20 18 -18 22 -20 -3 -19 23 24 -17 -24 -14
right_child=1 10 3 6 14 -7 -8 8 -10 -11 11 -13 26 -15 -16 16 17 21 19 -21 -22 -23 25 -25 -26 -27 -28
leaf_value=0.01809836895518447 -0.014187883899215298 -0.028106730702514817 0.01776063486310692 0.022468802259576041 0.05097794202556765 0.068213456574598361 -0.02919859812711147 -0.070327610972346896 0.0016606685365913199 -0.0034716524931734261 -0.048977754873289397 0.031364992922202059 0.0097235157469012564 0.09773719251582931 0.02225393155453578 -0.032152070983647724 0.018858222161128212 -0.04501748401208519 -0.045058117904418417 0.017529549522151033 0.009630307632200635 -0.012906424455472904 -0.039967934598694597 -0.011051438211294775 -0.058756470919166449 -0.062024658646068313 0.020736280398128998
leaf_weight=7.8497827202081707 6.9340879768133163 4.594614714384079 6.7050343751907349 7.87825807929039 6.4540572166442889 7.6245571821928015 7.0944887399673444 4.2887325882911682 6.1965881139039976 7.4169622957706478 4.239514634013176 7.1463718563318235 4.1542842239141464 4.6366513967514038 7.3271459341049194 4.1252506822347641 4.4081839174032194 4.1631645709276182 4.1636209636926633 4.5996493399143219 4.3464404344558716 4.420045331120491 5.0391968935728073 4.1591511219739923 4.6274457722902298 6.9789800643920881 4.3585876971483231
leaf_count=38 33 22 32 37 30 34 34 21 30 36 20 33 19 21 34 21 21 21 21 23 21 22 25 20 23 35 21
internal_value=-7.8043e-05 -0.0105412 0.0130171 0.0234064 0.0128175 0.0343128 -0.0020126 -0.00814054 -0.0277842 0.0248349 -0.0184888 0.00144951 0.0354092 0.0504563 0.0357061 -0.0258937 -0.0289833 -0.0124183 -0.0353703 -0.0122072 -0.00976194 -0.0284814 -0.0435125 -0.0348898 -0.0462175 -0.0527763 0.015362
internal_weight=155.931 87.7269 68.2039 49.8688 20.7153 34.8961 14.9727 18.3351 10.4853 27.2715 67.0116 11.3859 19.8546 11.3417 13.7812 55.6257 46.6847 12.9914 33.6933 8.76327 8.94106 8.58321 24.93 12.9118 8.7527 12.0182 8.51287
internal_count=748 425 323 234 97 163 71 89 51 129 328 53 93 53 64 275 232 64 168 44 43 43 124 64 44 60 40
cat_boundaries=0 1 2 3 4 5 6 7 8 9 10 11 12 13 14 15 16 17 18 19 20 21
cat_threshold=35970129 42 2 4 1 4 2 1 1 4 2 2 4 2 1 1 1 1 2 4 1
is_linear=0
shrinkage=0.05


Tree=7
num_leaves=27
num_cat=26
split_feature=6 31 4 14 1 26 24 1 32 32 26 17 17 23 4 24 24 24 32 17 23 1 32 24 1 23
split_gain=8.50138 9.17875 8.10435 5.07252 2.89224 3.59995 3.10774 2.68447 2.96419 1.72784 1.66924 1.64795 1.36826 1.05385 1.01713 1.35115 0.576304 0.523481 0.346625 0.421839 0.320315 0.326147 0.163515 0.159368 0.133903 0.00886198
threshold=0 1 2 3 4 5 6 7 8 9 10 11 12 13 14 15 16 17 18 19 20 21 22 23 24 25
decision_type=1 9 1 9 9 1 9 9 1 1 1 1 1 1 1 9 9 9 1 1 1 9 1 9 9 1
left_child=7 2 11 12 5 13 -7 -1 -9 10 -4 16 -3 18 22 -16 -2 -13 19 -5 -14 -22 25 -11 -18 -6
right_child=1 3 9 4 14 6 -8 8 -10 23 -12 17 20 -15 15 -17 24 -19 -20 -21 21 -23 -24 -25 -26 -27
leaf_value=0.056013481724809147 0.051827208355501357 0.025761327857705477 0.016633782768671401 -0.049217085781509164 0.00019534010256016689 -0.040790111166254632 0.010456116561072246 0.00069449084241452526 0.052255997471806093 -0.02095358277763305 -0.020921653895471168 0.025843485634262722 0.01066655653001616 -0.02920713362128129 -0.0087967376499401874 -0.046516672258422896 0.028563369827543528 0.0019929825094611906 -0.041084273302362535 -0.068514174002613934 -0.011260285210362377 0.0049906620956167817 -0.012490631565207971 -0.03480097830748885 0.039143472027599706 -0.0027088489749099382
leaf_weight=8.8665288388729095 6.3365829885005951 7.0699258595705032 7.3346817642450333 7.6547924727201417 6.8330720961093911 5.2130312770605087 6.8403729051351529 7.5555065125226974 4.4168181121349335 4.0681798607110977 4.9593975245952606 4.5221183598041534 4.8255939036607742 7.4260417968034771 5.6018553823232651 4.1203382462263107 6.7898814231157285 4.6831986755132693 5.3518728911876723 4.4951414465904245 7.3864566683769226 5.3047033399343544 4.2131046056747428 4.246873065829277 5.3445060998201406 4.2671279162168494
leaf_count=41 29 33 35 39 32 26 34 36 21 20 24 21 23 37 27 20 31 22 27 23 35 26 20 21 25 20
internal_value=-8.89109e-05 -0.00515253 0.0110312 -0.0143836 -0.0217506 -0.034142 -0.0117076 0.0237589 0.0197165 -0.0104223 0.00148402 0.0309923 0.00511479 -0.0449898 -0.0121344 -0.0247827 0.0396055 0.0137096 -0.0516864 -0.0563565 -0.000298409 -0.00446765 -0.00410418 -0.0280261 0.0332233 -0.000921085
internal_weight=155.728 134.889 48.2854 86.6034 62.0168 36.9813 12.0534 20.8389 11.9723 20.6091 12.2941 27.6763 24.5867 24.9278 25.0355 9.72219 18.471 9.20532 17.5018 12.1499 17.5168 12.6912 15.3133 8.31505 12.1344 11.1002
internal_count=748 650 228 422 305 186 60 98 57 100 59 128 117 126 119 47 85 43 89 62 84 61 72 41 56 52
cat_boundaries=0 1 2 3 4 5 6 7 8 9 10 11 12 13 14 15 16 17 18 19 20 21 22 23 24 25 26
cat_threshold=384 1109711888 1 71682 2 1 4 1 1 1 1 1 2 2 1 2 4 2 1 1 1 1 1 2 1 2
is_linear=0
shrinkage=0.05


Tree=8
num_leaves=29
num_cat=22
split_feature=19 31 4 11 13 13 23 0 0 6 13 24 24 0 26 17 32 13 32 4 0 17 0 1 0 4 1 1
split_gain=8.56859 8.4156 4.45325 4.00048 3.54244 3.52541 3.17594 4.36146 4.01206 2.88385 4.28557 3.92915 3.71631 3.98067 2.33692 2.70627 2.69324 2.21445 1.89565 1.52726 1.52459 1.63007 1.36398 1.2762 0.711362 0.55603 0.539028 0.202053
threshold=0 1 2 3 4 5 6 30.500000000000004 20.500000000000004 7 8 9 10 31.500000000000004 11 12 13 14 15 16 13.500000000000002 17 26.500000000000004 18 21.500000000000004 19 20 21
decision_type=9 9 1 1 1 1 1 2 2 1 1 9 9 2 1 1 1 1 1 1 2 1 2 9 2 1 9 9
left_child=9 2 5 18 6 -2 7 8 -5 12 19 -12 13 17 15 16 25 -1 20 -11 -3 -22 -4 -16 -25 -6 -23 -27
right_child=1 3 22 4 14 -7 -8 -9 -10 10 11 -13 -14 -15 23 -17 -18 -19 -20 -21 21 26 -24 24 -26 27 -28 -29
leaf_value=-0.02268134661957617 0.017516659581297802 -0.010996890246465024 -0.023780835337997783 -0.031534103904947909 -0.057741001822489306 0.070917841396878775 0.020638061710309671 -0.060132475040884516 0.03435778782271056 0.03480932657774264 0.0062807655498289677 -0.048514363357947926 0.06542056432163855 0.062485377671673496 0.0043604044926566958 -0.068001635835805208 -0.0018515041911088413 0.026908322610182923 -0.021844639179889207 0.0032991029174434931 0.045862462693631582 0.021528150650685252 0.015378941679000349 -0.043467175523973667 -0.014736104587216164 -0.044829103666769982 -0.0036132704331631642 -0.030052027195252157
leaf_weight=4.1220438927412033 6.6379096508026123 4.8703154325485256 4.3940510451793671 5.1105517297983152 4.8271705508232117 5.7834212630987167 6.4064727872610101 4.8685911446809778 4.2159335315227509 7.8890827000141144 6.9721893817186356 6.1637911349534988 8.5530172437429428 4.3686722815036783 4.6024948805570585 7.5283923000097301 5.1881911009550139 4.9603254348039609 5.0277023613452938 7.502497673034668 4.5704654604196548 4.2297344654798508 4.5018743276596069 4.0620886981487256 4.5874355286359787 4.2745953053236008 4.2985098361968976 5.0416842997074074
leaf_count=20 31 23 22 25 25 26 30 24 20 37 33 29 39 20 22 39 26 23 24 37 21 20 21 21 23 22 20 25
internal_value=-9.52913e-05 -0.00809761 0.0156834 -0.0151809 -0.0218397 0.0423805 -0.00858429 -0.0217728 -0.00174841 0.0151429 0.00114524 -0.0194307 0.0272622 0.0232665 -0.0340923 -0.0425693 -0.0326651 0.00440199 0.00368985 0.0194499 0.0128878 0.0217685 -0.00396363 -0.0169106 -0.0282291 -0.0439684 0.00885606 -0.0368322
internal_weight=155.559 105.028 21.3173 83.7103 60.7136 12.4213 20.6015 14.1951 9.32649 50.5316 28.5276 13.136 22.0041 13.451 40.1121 26.86 19.3316 9.08237 22.9967 15.3916 17.969 13.0987 8.89593 13.252 8.64952 14.1435 8.52824 9.31628
internal_count=748 510 100 410 302 57 99 69 45 238 136 62 102 63 203 137 98 43 108 74 84 61 43 66 44 72 40 47
cat_boundaries=0 3 4 5 6 7 8 9 10 11 12 13 14 15 16 17 18 19 20 21 22 23 24
cat_threshold=1114153 0 67108864 56321 1 56 1 2 2 432 2 2 2 1 1 1 2 1 1 2 1 2 2 2
is_linear=0
shrinkage=0.05


Tree=9
num_leaves=27
num_cat=13
split_feature=21 8 13 0 26 4 0 0 0 27 32 0 0 0 24 1 0 27 0 17 24 0 0 1 0 0
split_gain=8.52002 8.80084 6.50243 6.09097 5.44088 4.03825 4.8925 3.14579 3.12717 2.34759 1.8514 1.85383 1.85037 1.75002 1.61937 3.94514 2.11577 1.57095 1.46319 1.02727 0.816569 0.52544 1.5562 0.298445 0.22647 0.00813435
threshold=0 1 2 13.500000000000002 3 4 26.500000000000004 34.500000000000007 5.5000000000000009 5 6 1.5000000000000002 26.500000000000004 15.500000000000002 7 8 21.500000000000004 9 24.500000000000004 10 11 52.500000000000007 24.500000000000004 12 48.500000000000007 47.500000000000007
decision_type=9 1 1 2 1 1 2 2 2 9 1 2 2 2 9 9 2 9 2 1 9 2 2 9 2 2
left_child=3 2 5 8 7 6 13 18 -1 -6 11 -4 19 -2 16 -16 -3 -12 -5 -13 -14 22 -7 -21 -8 -22
right_child=1 14 10 4 9 21 24 -9 -10 -11 17 12 20 -15 15 -17 -18 -19 -20 23 25 -23 -24 -25 -26 -27
leaf_value=0.018560750498765658 0.019093636851431263 0.009240981529309902 -0.0019682924549677358 0.016448125626136442 0.039010092983746469 -0.028510123422006147 -0.01835895348938885 0.041328769022764229 -0.030892483432434111 0.084456026121269429 -0.028595219811315905 -0.029530714705722817 -0.0097487205136967629 0.061110421360210047 0.02967445772863497 -0.029894480565469297 0.05433617890302192 0.0065382152248875842 -0.014448558312102386 -0.046081669832912509 -0.03179635302730436 -0.033725547691799918 0.011041085412809437 -0.060965101348324238 -0.0022605395213227326 -0.034940762826387799
leaf_weight=5.4778609126806241 4.8100888431072253 4.7967280447483063 4.4252337217330924 8.480268597602846 7.103905662894249 6.154662683606146 4.5057533383369428 7.8617495149373999 7.6764059811830521 4.7362077385187131 6.1708690673112869 6.2249349504709244 6.5320163518190384 5.111911952495575 7.1889169663190842 4.5315080732107162 5.6822890043258667 6.5684304386377317 6.9908278137445441 6.2757677882909828 3.9803967624902707 4.0774541944265357 4.1735685765743256 7.2700313925743068 4.240914985537529 4.2558705508708954
leaf_count=26 22 22 22 41 33 31 21 37 38 22 31 31 32 23 33 21 25 33 34 31 20 20 20 38 20 21
internal_value=-0.000105585 -0.00787714 -0.0159521 0.0155167 0.0295829 0.00136123 0.0167085 0.0155743 -0.0102986 0.0571891 -0.0270273 -0.0324374 -0.0363411 0.0407411 0.0194122 0.00664312 0.033694 -0.0104803 0.00248703 -0.0463434 -0.0229508 -0.0185277 -0.0125277 -0.0540696 -0.0105535 -0.0334211
internal_weight=155.305 106.977 84.7779 48.3272 35.173 33.0744 18.6687 23.3328 13.1543 11.8401 51.7036 38.9643 34.539 9.922 22.1994 11.7204 10.479 12.7393 15.4711 19.7707 14.7683 14.4057 10.3282 13.5458 8.74667 8.23627
internal_count=748 517 416 231 167 157 86 112 64 55 259 195 173 45 101 54 47 64 75 100 73 71 51 69 41 41
cat_boundaries=0 2 3 4 5 6 7 8 9 10 11 12 13 14
cat_threshold=19169868 2097152 1 1 1 1 2 1 2 1 2 2 2 1
is_linear=0
shrinkage=0.05


Tree=10
num_leaves=28
num_cat=19
split_feature=16 19 23 11 24 17 17 13 13 0 0 26 27 23 1 27 24 24 0 0 0 4 17 27 0 0 0
split_gain=8.1531 7.16727 6.90037 6.70687 3.75392 9.24987 3.10899 4.72417 2.4304 4.71824 2.42701 2.37348 2.30194 2.10831 1.92166 6.01357 1.79443 1.7717 1.62874 1.00879 0.951366 0.900828 0.865317 0.752347 0.730309 0.394869 0.0537214
threshold=0 1 2 3 4 5 6 7 8 21.500000000000004 11.500000000000002 9 10 11 12 13 14 15 48.500000000000007 48.500000000000007 23.500000000000004 16 17 18 15.500000000000002 23.500000000000004 34.500000000000007
decision_type=9 9 1 1 9 1 1 1 1 2 2 1 9 1 9 9 9 9 2 2 2 1 1 9 2 2 2
left_child=2 6 3 8 18 10 7 16 9 -1 -6 24 -5 -12 -4 -16 -2 20 22 25 -14 -7 -3 -24 -10 -15 -26
right_child=1 4 14 12 5 21 -8 -9 11 -11 13 -13 17 19 15 -17 -18 -19 -20 -21 -22 -23 23 -25 26 -27 -28
leaf_value=-0.03629716904398738 -0.016918227408911104 -0.060673670153822148 0.058924709170877512 0.0029740801604977315 -0.059178242971661549 0.034694337393834873 -0.011694032768353024 0.05401760712443892 0.061930672005802261 0.037802753194888232 -0.049164035803849447 0.0065196595852612524 -0.032384927104859899 -0.011403592552942557 -0.009943869992741005 0.062051671992406014 0.02532869553193225 -0.049140734437180193 -0.012959922133685353 -0.029328455169481529 0.0018643443452679674 0.0078990446216394457 -0.047796537555719089 -0.023069205560477812 0.032940686642323386 0.010342133875348093 0.040865484191036028
leaf_weight=4.1948673278093338 5.4273244142532349 5.7218833416700363 7.455863818526268 7.2994847893714905 5.5767385810613659 6.9516780674457532 8.2097174078226107 8.0308947414159775 4.4504266381263742 4.4031789898872375 4.9721743166446686 5.5795463770627984 4.0169555097818375 4.1481583416461962 5.7469175904989243 5.8557863533496874 4.681630402803421 7.226754531264306 5.2495752424001685 4.7460447251796714 4.0942270457744598 5.7155264467000961 7.1895926594734192 5.3764965236187034 4.2187934368848783 4.2025628685951233 4.3368746042251587
leaf_count=20 26 29 34 35 29 33 39 36 21 20 25 26 20 20 28 27 23 36 26 23 20 28 37 27 20 20 20
internal_value=-0.000112367 -0.0098699 0.0118162 0.00374357 -0.0188123 -0.0118739 0.0100294 0.0253899 0.017276 0.00165043 -0.0303442 0.0337999 -0.0139678 -0.0214449 0.0391189 0.0263917 0.00264705 -0.0311374 -0.037509 -0.0109214 -0.0150972 0.0226041 -0.0445559 -0.0372168 0.045503 -0.000459893 0.0369578
internal_weight=155.08 86.2 68.8797 49.8211 59.8504 36.3129 26.3496 18.1398 27.1837 8.59805 23.6457 18.5856 22.6374 18.0689 19.0586 11.6027 10.109 15.3379 23.5375 13.0968 8.11118 12.6672 18.288 12.5661 13.0061 8.35072 8.55567
internal_count=748 421 327 238 297 178 124 85 127 40 117 87 111 88 89 55 49 76 119 63 40 61 93 64 61 40 40
cat_boundaries=0 1 2 3 4 5 6 7 8 9 10 11 12 13 14 15 16 17 18 19
cat_threshold=394 262186 2 11 4 1 1 2 1 1 1 1 1 2 2 2 1 2 2
is_linear=0
shrinkage=0.05


Tree=11
num_leaves=29
num_cat=18
split_feature=19 31 16 4 13 0 27 13 0 14 26 4 0 1 1 0 0 0 0 13 26 4 0 27 1 26 0 0
split_gain=7.43967 7.38328 4.38872 3.69483 2.9012 2.8128 2.74865 2.82125 2.96731 2.65109 3.55608 2.2714 3.57923 2.61525 1.41222 3.57634 1.31401 2.41846 2.80847 1.31036 2.47363 1.80223 1.17914 1.02663 1.25222 0.897747 1.28707 0.574434
threshold=0 1 2 3 4 54.500000000000007 5 6 13.500000000000002 7 8 9 21.500000000000004 10 11 19.500000000000004 10.500000000000002 21.500000000000004 30.500000000000004 12 13 14 26.500000000000004 15 16 17 36.500000000000007 21.500000000000004
decision_type=9 9 9 1 1 2 9 1 2 9 1 1 2 9 9 2 2 2 2 1 1 1 2 9 9 1 2 2
left_child=9 3 5 4 -2 19 16 -8 -9 14 -11 13 -13 -12 25 -16 -4 -18 -19 21 23 -3 -5 24 -21 26 -1 -22
right_child=1 2 6 22 -6 -7 7 8 -10 10 11 12 -14 -15 15 -17 17 18 -20 20 27 -23 -24 -25 -26 -27 -28 -29
leaf_value=-0.016304796734833111 0.01611222867672852 -0.0059438400867155598 0.010907830541247242 -0.022196668955451707 0.064126955558834658 0.0013832766800931982 0.04273832478407151 -0.033097714506842034 0.021081013995122039 -0.0080193719082305367 0.07027038547108326 -0.012636014111480881 0.050026734008604315 0.026043055836182952 0.013600784054110183 -0.050108466178121196 -0.048675849708558275 0.019991715026628915 -0.029361149445240632 -0.058582341550629649 -0.0077262242974641213 -0.046476524491979421 0.014362335896987044 -0.067336706187293358 -0.025057227455671689 0.026709344583055173 0.020274958635122978 -0.033110532879204804
leaf_weight=5.4990862458944321 6.6899877935647964 7.4318260550498962 4.8789747059345272 4.3063126802444458 5.9389599114656448 6.2434311062097541 5.9886604994535446 4.1615198254585284 6.4353087395429611 4.6236263811588287 8.4168033301830256 4.2892678081989324 4.8618548214435577 5.5442463308572796 4.547064408659935 4.2726432979106903 4.7574226856231716 5.4042197912931424 6.1778607219457626 5.7956832051277161 4.8046945184469241 4.3463064730167389 4.5211254358291626 6.6095895320177087 5.3625083565711975 4.4858770072460166 4.2734380662441254 4.156890481710434
leaf_count=27 31 35 24 22 26 31 28 21 31 22 37 21 23 26 21 20 24 26 31 31 24 22 21 35 26 21 20 21
internal_value=-0.000121253 -0.00764051 -0.01436 0.0145594 0.0386919 -0.0243148 4.53796e-05 0.0153068 -0.000195715 0.0140154 0.0235264 0.0400163 0.0206558 0.0527067 -0.00107185 -0.0172627 -0.0118624 -0.0186616 -0.00633301 -0.0347957 -0.0409183 -0.020901 -0.00347234 -0.0517207 -0.0424705 0.00819146 -0.000308795 -0.0195009
internal_weight=154.825 104.011 82.5549 21.4564 12.6289 44.7509 37.804 16.5855 10.5968 50.8139 27.7358 23.1122 9.15112 13.961 23.0781 8.81971 21.2185 16.3395 11.5821 38.5075 26.7294 11.7781 8.82744 17.7678 11.1582 14.2584 9.77252 8.96159
internal_count=748 510 410 100 57 225 185 80 52 238 129 107 44 63 109 41 105 81 57 194 137 57 43 92 57 68 47 45
cat_boundaries=0 3 4 5 6 7 8 9 10 11 12 13 14 15 16 17 18 19 20
cat_threshold=1114153 0 67108864 56321 13 1 2 2 1 2336 2 1 1 2 1 1 1 2 2 1
is_linear=0
shrinkage=0.05


Tree=12
num_leaves=27
num_cat=17
split_feature=20 3 6 0 13 13 0 0 13 0 4 26 32 0 0 26 32 17 27 4 0 0 24 1 0 24
split_gain=7.60046 7.09181 6.33861 4.17231 4.26176 2.66836 2.27709 5.41073 1.9785 4.34219 3.64406 2.62161 2.05784 1.78796 1.54797 1.32464 1.26716 1.25614 1.25435 0.741822 0.743229 2.741 0.733729 0.732099 0.662102 0.333327
threshold=0 1 2 24.500000000000004 3 4 29.500000000000004 11.500000000000002 5 25.500000000000004 6 7 8 17.500000000000004 39.500000000000007 9 10 11 12 13 33.500000000000007 23.500000000000004 14 15 15.500000000000002 16
decision_type=9 9 1 2 1 1 2 2 1 2 1 1 1 2 2 1 1 1 9 1 2 2 9 9 2 9
left_child=1 8 13 5 -5 -4 7 -3 9 10 -1 -10 19 -2 -6 -11 -8 25 24 20 21 23 -9 -13 -7 -15
right_child=2 6 3 4 14 18 16 22 11 15 -12 12 -14 17 -16 -17 -18 -19 -20 -21 -22 -23 -24 -25 -26 -27
leaf_value=0.035070164841900973 0.020267365390896672 -0.0093698788442415481 -0.042806265380620399 -0.011937866914011218 0.05828416739686948 -0.0068245681756893273 0.012333091290509133 0.057508883372033914 -0.053641598014859841 -0.042630676728453332 -0.02287404394946263 -0.039219533880181991 0.0038022398950983676 0.071440459785859625 0.017875469220170012 -0.0085547724101861129 -0.022880483927433241 0.032297655745768705 -0.026245732739787128 -0.040454754650178254 -0.039238472658193857 0.019346624995943678 0.031330661824645216 -0.013140490417350962 0.020484690270759113 0.053408740037069885
leaf_weight=7.2626711577177065 6.9384952932596233 7.1445599496364656 6.9823850393295288 7.6939841210842133 4.7561803311109561 4.6569036990404129 5.1882573366165143 6.3785177022218704 7.3434943705797195 7.3785010129213315 4.3316601514816284 6.8891900628805161 6.8452567756175986 4.3835754990577698 4.7240398526191711 4.6488151550292969 5.0331403017044067 6.0341047644615218 4.481856808066369 7.3354394584894207 4.703029364347457 3.9509169459342948 4.6120807826518995 4.4161176681518572 4.2403936088085175 6.1707363128662074
leaf_count=33 33 34 34 38 21 23 24 29 39 37 22 36 35 20 21 22 24 28 22 39 23 20 21 22 20 28
internal_value=-0.000128437 -0.00876133 0.0124765 -0.00192766 0.0157099 -0.017751 0.0102513 0.0245036 -0.0173046 -0.00841176 0.0134221 -0.0265399 -0.0207103 0.029178 0.0381483 -0.0294596 -0.0050065 0.0504945 -0.00467502 -0.0268579 -0.0218607 -0.0165037 0.0465235 -0.0290324 0.00619085 0.0608979
internal_weight=154.524 93.4616 61.0627 37.5357 17.1742 20.3615 28.3566 18.1352 65.1051 23.6216 11.5943 41.4834 34.14 23.5269 9.48022 12.0273 10.2214 16.5884 13.3792 27.2947 19.9593 15.2562 10.9906 11.3053 8.8973 10.5543
internal_count=748 460 288 179 80 99 132 84 328 114 55 214 175 109 42 59 48 76 65 140 101 78 50 58 43 48
cat_boundaries=0 1 2 3 4 5 6 7 8 9 10 11 12 13 14 15 16 17
cat_threshold=2 20 432 2 1 1 1 2 1 1 1 1 2 1 2 2 4
is_linear=0
shrinkage=0.05


Tree=13
num_leaves=28
num_cat=13
split_feature=21 11 0 13 4 13 27 0 0 0 0 0 13 0 0 1 24 13 23 0 0 0 1 24 0 0 0
split_gain=7.22061 8.37211 4.89723 4.09767 4.62417 3.42783 3.348 3.2242 2.51054 2.06459 3.9868 2.30475 1.98998 1.40744 1.37368 1.31921 2.14566 1.48509 1.22187 1.13483 0.828986 0.771335 0.603058 0.561563 0.169245 0.159505 0.0406886
threshold=0 1 34.500000000000007 2 3 4 5 52.500000000000007 11.500000000000002 5.5000000000000009 13.500000000000002 27.500000000000004 6 25.500000000000004 42.500000000000007 7 8 9 10 17.500000000000004 26.500000000000004 5.5000000000000009 11 12 17.500000000000004 19.500000000000004 42.500000000000007
decision_type=9 1 2 1 1 1 9 2 2 2 2 2 1 2 2 9 9 1 1 2 2 2 9 9 2 2 2
left_child=2 3 5 4 6 -1 -2 -4 21 -3 -11 18 -13 23 -14 17 24 -5 -12 -19 -21 -7 -6 -10 -17 -18 -22
right_child=1 9 7 15 22 8 -8 -9 13 10 11 12 14 -15 -16 16 25 19 -20 20 26 -23 -24 -25 -26 -27 -28
leaf_value=0.047454477503616865 -0.0078728256078885884 0.038565503396860101 0.08006003001612666 -0.05822158382490375 -0.019866760174623063 -0.0029256113827927002 0.038581760363422861 0.025021159019016338 0.010835671840067448 -0.029721533954053161 0.045939541230962805 -0.016785488929311074 -0.0016992119359929905 -0.0042943365601522598 0.035296146933456368 0.0033409763290868297 -0.044898649275259765 -0.052828135740564032 0.012311057779439045 -0.0084434829100540811 -0.029067995685218118 -0.031371474487660797 -0.04426433551241514 0.033350311160564743 -0.0095045504679008991 -0.03083025947268625 -0.036032424594025801
leaf_weight=4.8935027718544006 8.3563212603330612 6.288704738020896 4.4627240598201734 5.9289992153644562 7.0269065350294113 4.3255359530448931 7.2380483150482169 6.5902313888072968 4.7920885533094406 5.9741753041744223 6.8675694167614001 7.0305609554052353 4.7414763718843478 7.2987738847732535 5.3295675665140152 4.7253649681806564 4.1350852996110916 4.0477454066276612 4.4523448795080185 5.8875415325164786 3.8363985866308195 5.3069065660238266 3.9603118747472763 6.5619871020317095 5.6066092252731323 3.9292606264352798 4.6261357069015503
leaf_count=23 39 30 20 32 36 21 32 31 23 29 31 33 22 35 24 23 21 23 20 31 20 27 20 31 27 20 24
internal_value=-0.000134103 -0.00696202 0.0150223 -0.0168046 -0.00381594 0.00881601 0.0136888 0.0472436 0.00213136 0.00981202 0.0074076 0.0152121 0.00362802 0.0128359 0.0178786 -0.0288193 -0.0187157 -0.0364597 0.0327128 -0.0294466 -0.0228514 -0.0185976 -0.0286608 0.0238478 -0.0036296 -0.038044 -0.0328752
internal_weight=154.221 109.989 44.2318 69.3047 26.5816 33.1788 15.5944 11.053 28.2853 40.6844 34.3957 28.4215 17.1016 18.6528 10.071 42.7231 18.3963 24.3268 11.3199 18.3978 14.3501 9.63244 10.9872 11.3541 10.332 8.06435 8.46253
internal_count=748 537 211 348 127 160 71 51 137 189 159 130 79 89 46 221 91 130 51 98 75 48 56 54 50 41 44
cat_boundaries=0 2 3 4 5 6 7 8 9 10 11 12 13 14
cat_threshold=19137100 2097152 69 1 1 4 2 2 2 2 4 2 2 4
is_linear=0
shrinkage=0.05


Tree=14
num_leaves=27
num_cat=17
split_feature=31 3 16 23 14 0 0 0 8 32 27 23 8 13 0 27 13 0 13 27 0 0 26 1 0 0
split_gain=6.9683 5.76872 4.04071 5.15276 2.86657 2.51587 2.38287 3.01308 2.07951 2.05696 1.86032 1.71534 1.64289 1.28812 1.27901 2.73327 1.20031 1.48501 1.09212 2.4855 0.99544 0.56377 0.820433 0.532015 0.0871762 0.0241425
threshold=0 1 2 3 4 15.500000000000002 4.5000000000000009 24.500000000000004 5 6 7 8 9 10 22.500000000000004 11 12 23.500000000000004 13 14 30.500000000000004 50.500000000000007 15 16 23.500000000000004 23.500000000000004
decision_type=9 9 9 1 9 2 2 2 1 1 9 1 1 1 2 9 1 2 1 9 2 2 1 9 2 2
left_child=2 14 3 5 11 -1 -4 13 -7 -9 -10 -3 18 -8 15 -2 -13 -18 19 -6 -12 22 -20 24 -24 -5
right_child=1 4 6 25 12 8 7 9 10 -11 20 16 -14 -15 -16 -17 17 -19 21 -21 -22 -23 23 -25 -26 -27
leaf_value=0.0031450146692203356 0.043902681029139606 0.025342527327560285 0.025352946401370775 -0.0081915438739517867 -0.044228825121984131 0.071611226088044086 -0.044021499497575618 0.023038901229555965 0.057882789340198693 -0.018980871767301996 0.038364051298560714 -0.023722052325966386 -0.0088500881729247482 -0.012511265916766918 0.0012069145882797516 -0.0050704489150123766 -0.014602757380460886 0.022195142669981485 -0.066115069814264724 0.0032343240327019247 0.0095821044685463208 -0.025239341123499903 -0.052624867174271985 -0.028246493497938979 -0.042544577592043074 -0.003144627567272957
leaf_weight=4.5799329727888134 7.9358164370059967 5.5975759327411652 5.6072718799114254 4.6041889339685422 5.817757710814476 5.1835628151893616 6.1705431640148163 7.6420135647058469 6.2375924885272971 4.7059098780155182 6.1173359006643349 6.3858695924282074 7.5561523586511603 6.8370130360126513 8.5857004672288877 4.4448913037776965 5.5594446361064964 5.4095191061496735 3.6196777671575546 5.2450566589832306 5.9028955101966858 4.6151715964078894 4.271053820848465 6.0984905213117644 4.3084114491939545 4.8822393119335175
leaf_count=22 36 27 27 22 29 22 32 35 28 23 28 32 35 34 40 21 29 27 20 25 27 24 25 31 24 23
internal_value=-0.000138404 -0.00919705 0.0109157 0.02073 -0.0163 0.0370397 -0.00313148 -0.0106657 0.043662 0.00702477 0.035727 0.000887723 -0.0241277 -0.0274591 0.0108578 0.0263205 -0.00648834 0.00354471 -0.0346269 -0.0217258 0.0242298 -0.0408559 -0.0447948 -0.0395371 -0.0475628 -0.00559412
internal_weight=153.921 85.4506 68.4705 37.5077 64.4842 28.0213 30.9628 25.3555 23.4414 12.3479 18.2578 22.9524 41.5318 13.0076 20.9664 12.3807 17.3548 10.969 33.9756 11.0628 12.0202 22.9128 18.2976 14.678 8.57947 9.48643
internal_count=748 425 323 172 328 127 151 124 105 58 83 115 213 66 97 57 88 56 178 54 55 124 100 80 49 45
cat_boundaries=0 1 2 3 4 5 6 7 8 9 10 11 12 13 14 15 16 17
cat_threshold=35970129 42 6 2 6656 2 1 1 1 1 2 2 1 1 2 2 2
is_linear=0
shrinkage=0.05


Tree=15
num_leaves=27
num_cat=26
split_feature=31 24 22 6 8 24 24 24 8 17 23 23 1 27 24 1 27 27 23 1 8 24 17 1 27 27
split_gain=6.60439 5.08305 4.69293 3.79484 3.561 3.53635 3.25068 3.02426 3.9432 2.87012 2.2582 2.23617 1.75768 1.61163 1.33915 1.22335 1.12454 1.05736 0.965991 0.800338 0.625825 0.543167 0.497478 0.368373 0.116135 0.0962626
threshold=0 1 2 3 4 5 6 7 8 9 10 11 12 13 14 15 16 17 18 19 20 21 22 23 24 25
decision_type=9 9 9 1 1 9 9 9 1 1 1 1 9 9 9 9 9 9 1 9 1 9 1 9 9 9
left_child=5 24 4 7 6 -1 15 8 -4 -9 20 12 17 -13 -14 -3 -10 -7 -11 -18 -5 -19 23 -22 -2 -16
right_child=1 2 3 10 -6 11 -8 9 16 18 -12 13 14 -15 25 -17 19 21 -20 -21 22 -23 -24 -25 -26 -27
leaf_value=0.024333486139252979 -0.021084826271875148 -0.023168861634544236 0.051745874073979209 -0.0084280149367216041 0.024308234931969246 -0.017511204050446899 -0.045256026700312785 0.014920037480522438 0.026732070511514418 0.046915448979167385 -0.021630335470222764 -0.018730619488965729 -0.037561566366667083 0.018989594791826693 -0.00056881021714098488 0.012373802422380615 0.01396551783638391 -0.03677532837610336 0.075240094812857608 -0.010243534146862871 0.0088119945203403403 -0.057633359321114325 -0.00014919102326302488 0.027214418242068744 -0.031884539400127962 -0.010720054537486208
leaf_weight=4.6503539234399796 4.8161144852638245 4.2174456119537354 7.1731046587228775 4.2821450084447861 5.3570887893438366 4.0400132536888123 8.2537759244441986 4.9675357937812805 5.8909781277179718 6.48830246925354 8.9542598128318804 6.7574561238288879 4.7147489637136459 4.8744539618492109 5.3855766654014587 5.6835442185401917 6.200493186712265 6.4065066874027252 5.6151779890060443 7.5965931266546303 4.909138947725296 6.0866416245698947 4.8979628086090115 6.0967185944318754 5.1525098085403442 4.1234894394874591
leaf_count=23 23 21 31 19 24 22 42 23 28 30 44 34 24 23 25 26 29 34 26 39 24 34 24 30 26 20
internal_value=-0.000141729 0.00669722 0.0108342 0.015855 -0.00807768 -0.0140666 -0.0220834 0.024817 0.0200078 0.0469219 -0.000544872 -0.0215978 -0.0286602 -0.00292363 -0.0157736 -0.00276602 0.00844447 -0.0397468 0.0600561 0.000636159 0.00853847 -0.0469373 0.0131067 0.0190061 -0.0266669 -0.00497077
internal_weight=153.592 106.553 96.5843 73.0724 23.5119 47.0392 18.1548 43.9322 26.8612 17.071 29.1402 42.3889 30.757 11.6319 14.2238 9.90099 19.6881 16.5332 12.1035 13.7971 20.186 12.4931 15.9038 11.0059 9.96862 9.50907
internal_count=748 509 460 347 113 239 89 206 127 79 141 216 159 57 69 47 96 90 56 68 97 68 78 54 49 45
cat_boundaries=0 1 2 3 4 5 6 7 8 9 10 11 12 13 14 15 16 17 18 19 20 21 22 23 24 25 26
cat_threshold=134349706 1 151064584 440 1 1 2 2 2 2 2 2 2 2 4 2 1 1 2 1 2 2 1 2 2 2
is_linear=0
shrinkage=0.05


Tree=16
num_leaves=29
num_cat=18
split_feature=20 21 0 13 4 24 0 13 0 13 1 0 24 24 4 0 0 4 27 0 8 0 4 0 27 0 24 1
split_gain=6.38709 7.14695 4.40033 7.69154 7.93239 4.03584 3.74012 3.70105 5.92309 3.56902 2.70346 2.30345 2.26513 1.91152 4.04631 2.67913 2.02406 2.31734 1.86217 1.45329 1.30703 1.0877 3.71239 0.847013 0.826953 0.705579 1.59575 0.319821
threshold=0 1 24.500000000000004 2 3 4 22.500000000000004 5 36.500000000000007 6 7 29.500000000000004 8 9 10 38.500000000000007 36.500000000000007 11 12 11.500000000000002 13 15.500000000000002 14 16.500000000000004 15 13.500000000000002 16 17
decision_type=9 9 2 1 1 9 2 1 2 1 9 2 9 9 1 2 2 1 9 2 1 2 1 2 9 2 9 9
left_child=1 5 3 4 -3 21 9 8 -8 12 25 -9 -2 14 15 -4 -15 -18 20 -12 23 -1 -23 -11 -13 -5 -27 -6
right_child=6 2 13 10 27 -7 7 11 -10 18 19 24 -14 16 -16 -17 17 -19 -20 -21 -22 22 -24 -25 -26 26 -28 -29
leaf_value=-0.014203587394360237 0.00015600957896114522 -0.029166960500608408 0.03162631045216785 -0.054224610681836455 0.039312409477882754 0.048307992470257015 -0.030395540474449281 0.065568781702790818 0.035790448858231315 -0.0063755192408961707 -0.02454793289529485 0.014896020324011248 -0.048786671082590188 -0.067323236055748623 -0.051232264895140205 -0.024908368459278497 -0.053308113579515495 -0.0077166371929383503 -0.011103081030243997 0.011256013067832811 0.041722953972405399 -0.01716694994917177 0.048709167027524994 0.026148023443969083 0.040042561997330729 -0.0092343635587508952 -0.052988934358278561 0.057405211762048096
leaf_weight=5.3714795410633096 4.591262549161911 5.0712865591049194 4.2379687428474426 4.9412105828523645 5.1659106761217117 7.8235468566417703 6.3240359574556351 5.7587976753711727 7.261952131986618 4.0011216104030609 5.4774124622344971 6.462273120880127 4.8733759820461273 5.7728426605463055 5.5958308130502692 4.1453738212585449 5.6580257415771458 5.4930485188961038 5.8430850207805642 5.8731577843427658 5.4024368971586219 4.4496012628078452 4.1178038120269767 4.0063303112983704 6.6170409619808179 4.3110277205705643 4.0334612578153592 4.6330837458372098
leaf_count=27 21 26 20 29 23 38 32 25 34 21 27 29 25 31 29 20 28 27 29 28 24 21 20 19 29 23 23 20
internal_value=-0.000144624 -0.00813745 -0.0156356 -0.00680117 0.0215957 0.0134069 0.0113751 0.0248737 0.00498205 9.53513e-05 -0.0239413 0.0392196 -0.0250448 -0.0319891 -0.0183065 0.00367119 -0.043291 -0.0308496 0.0124541 -0.0060218 0.0227186 0.00343603 0.0144955 0.00989683 0.0276181 -0.0392507 -0.0303839 0.0478669
internal_weight=153.314 92.1721 70.4096 39.5066 14.8703 21.7624 61.1417 32.4241 13.586 28.7176 24.6363 18.8381 9.46464 30.9031 13.9792 8.38334 16.9239 11.1511 19.253 11.3506 13.4099 13.9389 8.56741 8.00745 13.0793 13.2857 8.34449 9.79899
internal_count=748 460 354 199 69 106 288 149 66 139 130 83 46 155 69 40 86 55 93 55 64 68 41 40 58 75 46 43
cat_boundaries=0 1 2 3 4 5 6 7 8 9 10 11 12 13 14 15 16 17 18
cat_threshold=2 1073750092 1 2 2 2 1 2 2 2 1 1 2 1 1 2 2 2
is_linear=0
shrinkage=0.05


Tree=17
num_leaves=28
num_cat=18
split_feature=19 31 8 4 13 32 13 0 26 17 32 32 0 27 0 0 26 4 0 0 24 17 27 0 0 0 13
split_gain=6.33294 5.92851 4.62643 2.86147 2.75471 2.4755 2.24884 2.06485 2.02596 2.78178 1.99442 1.9035 2.11976 1.71732 1.30715 2.6293 2.60166 1.52207 0.994534 1.80479 0.961833 0.916179 0.984502 0.877468 0.855113 0.658669 0.649586
threshold=0 1 2 3 4 5 6 5.5000000000000009 7 8 9 10 30.500000000000004 11 27.500000000000004 36.500000000000007 12 13 13.500000000000002 21.500000000000004 14 15 16 32.500000000000007 26.500000000000004 26.500000000000004 17
decision_type=9 9 1 1 1 1 1 2 1 1 1 1 2 9 2 2 1 1 2 2 9 1 9 2 2 2 1
left_child=11 3 4 6 5 -3 -2 -6 9 -9 25 14 -13 -7 16 -16 -1 18 -18 -20 -10 -4 -23 -15 -5 -11 -17
right_child=1 2 21 24 7 13 -8 8 20 10 -12 12 -14 23 15 26 17 -19 19 -21 -22 22 -24 -25 -26 -27 -28
leaf_value=0.053125169644935938 0.013790789791297385 -0.035121345543536589 0.024641521360063944 -0.019852643723052468 -0.056602137963263022 0.027557418466011674 0.055712761967091774 -0.059184905705173631 0.0071978728523045118 -0.045841072837727037 0.0061915578268225387 0.016322378509494331 0.061291418478413844 0.0018633199017976901 -0.035790009329679746 -0.0010747838693791238 0.0020513284654028389 -0.013275539041134467 0.04820389399775727 0.0041943051545692877 -0.021926811583188002 0.012948295172937427 -0.017894132376130838 -0.025581658975532384 0.011501096641438776 -0.021897068816170151 0.023470519505649767
leaf_weight=4.2118008136749268 6.7559754699468613 6.0518502742052078 5.8227564096450806 4.1654641628265381 5.7919257879257193 4.7719603031873703 6.0760945677757263 6.9867540299892426 5.8056048899888992 5.169492170214653 4.6540684700012251 6.7511031031608564 4.2832334190607071 8.5018989443779045 4.0506036579608908 5.2800654470920554 6.0153695791959771 5.2389922142028853 5.0979190170764905 4.2898512035608292 5.5396927744150144 6.144220769405365 4.469523102045061 4.4298164248466483 4.5500089228153229 6.4631387889385223 5.5067154318094245
leaf_count=19 31 32 26 22 33 22 26 39 29 30 24 33 19 40 20 24 29 26 23 20 30 28 21 22 21 34 25
internal_value=-0.000152153 -0.00717657 -0.0133128 0.0127211 -0.0210272 -0.00751516 0.0336412 -0.0289703 -0.0243473 -0.0327924 -0.0214705 0.0128709 0.0337782 0.00192178 0.0103013 -0.00144234 0.0173121 0.0100049 0.0179231 0.0280932 -0.00702316 0.00870383 -3.96706e-05 -0.00753808 -0.00348408 -0.0325377 0.0114557
internal_weight=152.876 102.15 80.6027 21.5475 64.1662 23.7555 12.8321 40.4107 34.6188 23.2735 16.2867 50.7257 11.0343 17.7037 39.6913 14.8374 24.8539 20.6421 15.4031 9.38777 11.3453 16.4365 10.6137 12.9317 8.71547 11.6326 10.7868
internal_count=748 510 410 100 335 116 57 219 186 127 88 238 52 84 186 69 117 98 72 43 59 75 49 62 43 64 49
cat_boundaries=0 3 4 5 6 7 8 9 10 11 12 13 14 15 16 17 18 19 20
cat_threshold=1114153 0 67108864 56321 1 1 1 2 2 1 2 1 1 1 4 1 2 2 2 1
is_linear=0
shrinkage=0.05


end of trees

feature_importances:
school1=134
hope_for_group=44
incumbents_lecture=41
major_type=39
incumbents_lecture_scale=37
major_data=34
project_type=23
is_major_it=23
incumbents_level=22
incumbents_lecture_type=22
re_registration=14
onedayclass_topic=9
desired_job=7
major1_2=5
class1=4
whyBDA=4
completed_semester=4
certificate_acquisition=4
major_field=3
desired_certificate=3
desired_job_except_data=2
inflow_route=1

parameters:
[boosting: gbdt]
[objective: binary]
[metric: binary_logloss]
[tree_learner: serial]
[device_type: cpu]
[data_sample_strategy: bagging]
[data: ]
[valid: ]
[num_iterations: 18]
[learning_rate: 0.05]
[num_leaves: 63]
[num_threads: 16]
[seed: 42]
[deterministic: 0]
[force_col_wise: 0]
[force_row_wise: 0]
[histogram_pool_size: -1]
[max_depth: -1]
[min_data_in_leaf: 20]
[min_sum_hessian_in_leaf: 0.001]
[bagging_fraction: 0.8]
[pos_bagging_fraction: 1]
[neg_bagging_fraction: 1]
[bagging_freq: 0]
[bagging_seed: 400]
[bagging_by_query: 0]
[feature_fraction: 0.8]
[feature_fraction_bynode: 1]
[feature_fraction_seed: 30056]
[extra_trees: 0]
[extra_seed: 12879]
[early_stopping_round: 0]
[early_stopping_min_delta: 0]
[first_metric_only: 0]
[max_delta_step: 0]
[lambda_l1: 0]
[lambda_l2: 0]
[linear_lambda: 0]
[min_gain_to_split: 0]
[drop_rate: 0.1]
[max_drop: 50]
[skip_drop: 0.5]
[xgboost_dart_mode: 0]
[uniform_drop: 0]
[drop_seed: 17869]
[top_rate: 0.2]
[other_rate: 0.1]
[min_data_per_group: 100]
[max_cat_threshold: 32]
[cat_l2: 10]
[cat_smooth: 10]
[max_cat_to_onehot: 4]
[top_k: 20]
[monotone_constraints: ]
[monotone_constraints_method: basic]
[monotone_penalty: 0]
[feature_contri: ]
[forcedsplits_filename: ]
[refit_decay_rate: 0.9]
[cegb_tradeoff: 1]
[cegb_penalty_split: 0]
[cegb_penalty_feature_lazy: ]
[cegb_penalty_feature_coupled: ]
[path_smooth: 0]
[interaction_constraints: ]
[verbosity: -1]
[saved_feature_importance_type: 0]
[use_quantized_grad: 0]
[num_grad_quant_bins: 4]
[quant_train_renew_leaf: 0]
[stochastic_rounding: 1]
[linear_tree: 0]
[max_bin: 255]
[max_bin_by_feature: ]
[min_data_in_bin: 3]
[bin_construct_sample_cnt: 200000]
[data_random_seed: 175]
[is_enable_sparse: 1]
[enable_bundle: 1]
[use_missing: 1]
[zero_as_missing: 0]
[feature_pre_filter: 1]
[pre_partition: 0]
[two_round: 0]
[header: 0]
[label_column: ]
[weight_column: ]
[group_column: ]
[ignore_column: ]
[categorical_feature: 1,2,3,4,5,6,7,8,9,10,11,12,13,14,15,16,17,18,19,20,21,22,23,24,25,26,27,28,29,30,31,32]
[forcedbins_filename: ]
[precise_float_parser: 0]
[parser_config_file: ]
[objective_seed: 16083]
[num_class: 1]
[is_unbalance: 0]
[scale_pos_weight: 1]
[sigmoid: 1]
[boost_from_average: 1]
[reg_sqrt: 0]
[alpha: 0.9]
[fair_c: 1]
[poisson_max_delta_step: 0.7]
[tweedie_variance_power: 1.5]
[lambdarank_truncation_level: 30]
[lambdarank_norm: 1]
[label_gain: ]
[lambdarank_position_bias_regularization: 0]
[eval_at: ]
[multi_error_top_k: 1]
[auc_mu_weights: ]
[num_machines: 1]
[local_listen_port: 12400]
[time_out: 120]
[machine_list_filename: ]
[machines: ]
[gpu_platform_id: -1]
[gpu_device_id: -1]
[gpu_use_dp: 0]
[num_gpu: 1]

end of parameters

pandas_categorical:[["\ubcf5\uc218 \uc804\uacf5 ( \ub2e4\uc911\uc804\uacf5, \uc774\uc911\uc804\uacf5 \ud3ec\ud568 )", "\ub2e8\uc77c \uc804\uacf5", "__MISSING__", "\ub2e8\uc77c \uc804\uacf5\uacf5\ud559 (\ucef4\ud4e8\ud130 \uacf5\ud559 \uc81c\uc678)", "__UNKNOWN__"], ["\uacbd\uc81c\ud1b5\uc0c1\ud559", "\uc790\uc5f0\uacfc\ud559", "\uc608\uccb4\ub2a5", "\uc0ac\ud68c\uacfc\ud559", "IT(\ucef4\ud4e8\ud130 \uacf5\ud559 \ud3ec\ud568)", "\uacbd\uc601\ud559", "\uc758\uc57d\ud559", "\uad50\uc721\ud559", "__MISSING__", "\uc778\ubb38\ud559", "\ubc95\ud559", "\uae30\ud0c0", "__UNKNOWN__"], ["\uc790\uc5f0\uacfc\ud559", "IT(\ucef4\ud4e8\ud130 \uacf5\ud559 \ud3ec\ud568)", "__MISSING__", "\uc0ac\ud68c\uacfc\ud559", "\uacbd\uc601\ud559", "\uacbd\uc81c\ud1b5\uc0c1\ud559", "\uc758\uc57d\ud559", "\uae30\ud0c0", "\uc778\ubb38\ud559", "\uc608\uccb4\ub2a5", "\uad50\uc721\ud559", "__UNKNOWN__"], ["False", "True", "__UNKNOWN__"], ["\ub300\ud559\uc0dd", "\uc9c1\uc7a5\uc778", "\ucde8\uc900\uc0dd", "\ub300\ud559\uc6d0\uc0dd", "__UNKNOWN__"], ["1", "8", "7", "4", "2", "5", "13", "6", "12", "11", "__UNKNOWN__"], ["4.0", "__MISSING__", "6.0", "5.0", "2.0", "8.0", "13.0", "11.0", "12.0", "7.0", "__UNKNOWN__"], ["\uc544\ub2c8\uc694", "\uc608", "__UNKNOWN__"], ["\ub0b4\uad6d\uc778", "__MISSING__", "\uc678\uad6d\uc778", "__UNKNOWN__"], ["\uc5d0\ube0c\ub9ac\ud0c0\uc784", "\uc9c0\uc778 \ucd94\ucc9c", "\uc778\uc2a4\ud0c0\uadf8\ub7a8", "\uae30\uc874 \ud559\ud68c\uc6d0 \ub610\ub294 \uc6b4\uc601\uc9c4", "\ub300\uc678\ud65c\ub3d9 \uc0ac\uc774\ud2b8(\ub9c1\ucee4\ub9ac\uc5b4, \ucea0\ud37c\uc2a4\ud53d, \ucea0\ud37c\uc988, \uc704\ube44\ud2f0 \ub4f1)", "\uae30\ud0c0", "\uad50\ub0b4 \ud50c\ub7ab\ud3fc (\uc5d0\ube0c\ub9ac\ud0c0\uc784 X)", "\uc778\ud130\ub137 \uac80\uc0c9", "__UNKNOWN__"], ["\ud070 \uaddc\ubaa8\uc778 \ub9cc\ud07c, \ucee4\ub9ac\ud058\ub7fc\uc774\ub098 \uc6b4\uc601 \ub4f1 \uad00\ub9ac\uac00 \uc798 \ub420\uac83 \uac19\uc544\uc11c", "BDA \ud559\ud68c\uc6d0\ub9cc\uc758 \ud61c\ud0dd\uc744 \ub204\ub9ac\uace0 \uc2f6\uc5b4\uc11c(\ud604\uc9c1\uc790 \uac15\uc5f0, \uc7a1 \ud398\uc2a4\ud2f0\ubc8c, \uae30\uc5c5\uc5f0\uacc4 \uacf5\ubaa8\uc804 \ub4f1)", "\ud63c\uc790 \uacf5\ubd80\ud558\uae30 \uc5b4\ub824\uc6cc\uc11c", "\uc774\uc804 \uae30\uc218\uc5d0 \ub9e4\uc6b0 \ub9cc\uc871\ud574\uc11c", "\uc2dc\uac04\uc801\uc73c\ub85c \ubd80\ub2f4\uc774 \uc5c6\uc5b4\uc11c", "\ud559\ud68c \uac00\uc785 \uc2dc \ucf54\ub529 \ud14c\uc2a4\ud2b8, \uba74\uc811 \ub4f1\uc744 \ubcf4\uc9c0 \uc54a\uc544\uc11c", "\ud604\uc9c1\uc790\uc758 \uac15\uc758\ub97c \ub4e3\uace0 \uc2f6\uc5b4\uc11c", "__UNKNOWN__"], ["\ud504\ub85c\uc81d\ud2b8 \uacbd\ud5d8", "\ub370\uc774\ud130 \ubd84\uc11d \uc5ed\ub7c9", "\uacf5\ubaa8\uc804 \uacbd\ud5d8", "\uc778\uc801 \ub124\ud2b8\uc6cc\ud06c", "\uae30\ucd08\uc801\uc778 python, sql \uc9c0\uc2dd \uc219\uc9c0", "\uc704 \ud56d\ubaa9 \uc804\uccb4", "\uacf5\ubaa8\uc804\uacfc \ud504\ub85c\uc81d\ud2b8", "\uc0ac\uc2e4 \ud55c\uac00\uc9c0\ub97c \uace0\ub974\uae30 \uc5b4\ub835\uc2b5\ub2c8\ub2e4..\u3160\u3160 \ud559\ud68c\ub97c \ud1b5\ud574 \uc704\uc758 4\uac00\uc9c0\uc640 \ud611\uc5c5\uc5d0 \uacc4\uc2e0 \uc804\ubb38\uac00\ub2d8\ub4e4\uc5d0\uac8c \uc720\uc775\ud55c \uc815\ubcf4\ub97c \uc5bb\uace0 \uc18c\uc911\ud55c \uacbd\ud5d8\uc744 \ud558\uace0 \uc2f6\uc2b5\ub2c8\ub2e4.", "\ubd84\uc11d \uc5ed\ub7c9, \uacf5\ubaa8\uc804 \uacbd\ud5d8, \uc778\uc801 \ub124\ud2b8\uc6cc\ud06c", "__UNKNOWN__"], ["\ub124. \uc628\ub77c\uc778\uc73c\ub85c \ucc38\uc5ec\ud558\uace0 \uc2f6\uc5b4\uc694", "\ub124. \uc624\ud504\ub77c\uc778\uc73c\ub85c \ucc38\uc5ec\ud558\uace0 \uc2f6\uc5b4\uc694", "\uc544\ub2c8\uc694. \uac1c\uc778\uc801\uc73c\ub85c \ud559\ud68c \ud65c\ub3d9\uc744 \ud558\uace0 \uc2f6\uc5b4\uc694", "__UNKNOWN__"], ["\uc790\uc5f0\uacfc\ud559, \uc0ac\ud68c\uacfc\ud559", "\uc0ac\ud68c\uacfc\ud559", "\uc608\uccb4\ub2a5", "\ubc95\ud559", "IT (\ucef4\ud4e8\ud130 \uacf5\ud559 \ud3ec\ud568), \uc778\ubb38\ud559", "\uacbd\uc601\ud559", "IT (\ucef4\ud4e8\ud130 \uacf5\ud559 \ud3ec\ud568), \uc0ac\ud68c\uacfc\ud559", "\uacbd\uc601\ud559, \uacbd\uc81c\ud1b5\uc0c1\ud559", "\uacf5\ud559 (\ucef4\ud4e8\ud130 \uacf5\ud559 \uc81c\uc678)", "IT (\ucef4\ud4e8\ud130 \uacf5\ud559 \ud3ec\ud568)", "\uc0ac\ud68c\uacfc\ud559, \uc778\ubb38\ud559", "\uc790\uc5f0\uacfc\ud559", "\uc778\ubb38\ud559", "\uacbd\uc81c\ud1b5\uc0c1\ud559", "\uacf5\ud559 (\ucef4\ud4e8\ud130 \uacf5\ud559 \uc81c\uc678), \uacbd\uc601\ud559", "\uacbd\uc81c\ud1b5\uc0c1\ud559, \uc608\uccb4\ub2a5", "__MISSING__", "\uacbd\uc81c\ud1b5\uc0c1\ud559, \uc0ac\ud68c\uacfc\ud559", "\uc790\uc5f0\uacfc\ud559, \uacbd\uc601\ud559", "\uc758\uc57d\ud559", "IT (\ucef4\ud4e8\ud130 \uacf5\ud559 \ud3ec\ud568), \uacf5\ud559 (\ucef4\ud4e8\ud130 \uacf5\ud559 \uc81c\uc678)", "\uacbd\uc601\ud559, \uc778\ubb38\ud559", "\uacf5\ud559 (\ucef4\ud4e8\ud130 \uacf5\ud559 \uc81c\uc678), \uc790\uc5f0\uacfc\ud559", "\uacbd\uc601\ud559, \uc0ac\ud68c\uacfc\ud559", "IT (\ucef4\ud4e8\ud130 \uacf5\ud559 \ud3ec\ud568), \uacbd\uc601\ud559", "\uad50\uc721\ud559", "\uc790\uc5f0\uace0\ud559", "\uacbd\uc601\ud559, \uad50\uc721\ud559", "IT (\ucef4\ud4e8\ud130 \uacf5\ud559 \ud3ec\ud568), \uc608\uccb4\ub2a5", "IT (\ucef4\ud4e8\ud130 \uacf5\ud559 \ud3ec\ud568), \uacbd\uc81c\ud1b5\uc0c1\ud559", "\uacbd\uc601\ud559, \uc608\uccb4\ub2a5", "IT (\ucef4\ud4e8\ud130 \uacf5\ud559 \ud3ec\ud568), \uc0ac\ud68c\uacfc\ud559, \uc608\uccb4\ub2a5", "IT (\ucef4\ud4e8\ud130 \uacf5\ud559 \ud3ec\ud568), \uc790\uc5f0\uacfc\ud559", "\uacbd\uc81c\ud1b5\uc0c1\ud559, \uc778\ubb38\ud559", "\ubc95\ud559, \uc0ac\ud68c\uacfc\ud559", "\uacf5\ud559 (\ucef4\ud4e8\ud130 \uacf5\ud559 \uc81c\uc678), \uc0ac\ud68c\uacfc\ud559", "\uacf5\ud559 (\ucef4\ud4e8\ud130 \uacf5\ud559 \uc81c\uc678), \uc778\ubb38\ud559", "\uc790\uc5f0\uacfc\ud559, \uad50\uc721\ud559", "\uacf5\ud559 (\ucef4\ud4e8\ud130 \uacf5\ud559 \uc81c\uc678), \uc790\uc5f0\uacfc\ud559, \uacbd\uc601\ud559", "\uc790\uc5f0\uacfc\ud559, \uc778\ubb38\ud559", "\uc790\uc5f0\uacfc\ud559, \uacbd\uc81c\ud1b5\uc0c1\ud559", "\uacf5\ud559 (\ucef4\ud4e8\ud130 \uacf5\ud559 \uc81c\uc678), \uc0ac\ud68c\uacfc\ud559, \uc778\ubb38\ud559", "IT (\ucef4\ud4e8\ud130 \uacf5\ud559 \ud3ec\ud568), \uacf5\ud559 (\ucef4\ud4e8\ud130 \uacf5\ud559 \uc81c\uc678), \uc790\uc5f0\uacfc\ud559, \uc758\uc57d\ud559", "\uc0ac\ud68c\uacfc\ud559, \uc608\uccb4\ub2a5", "__UNKNOWN__"], ["\ub300\ud559\uc6d0 \uc9c4\ud559", "\ucde8\uc5c5", "\uc774\uc9c1", "\ucc3d\uc5c5", "__UNKNOWN__"], ["4.0", "6.0", "8.0", "7.0", "2.0", "10.0", "5.0", "__MISSING__", "9.0", "3.0", "2020.02", "20241.0", "1.0", "0.0", "__UNKNOWN__"], ["\ud300", "\uac1c\uc778", "__UNKNOWN__"], ["2.0", "3.0", "10.0", "1.0", "5.0", "1.5", "4.0", "0.7", "2.5", "6.0", "24.0", "0.0", "7.0", "8.0", "__UNKNOWN__"], ["C. \ub370\uc774\ud130 \uc0ac\uc774\uc5b8\ud2f0\uc2a4\ud2b8", "B. \ub370\uc774\ud130 \ubd84\uc11d\uac00, C. \ub370\uc774\ud130 \uc0ac\uc774\uc5b8\ud2f0\uc2a4\ud2b8", "B. \ub370\uc774\ud130 \ubd84\uc11d\uac00, C. \ub370\uc774\ud130 \uc0ac\uc774\uc5b8\ud2f0\uc2a4\ud2b8, I. \ub9c8\ucf00\ud130", "B. \ub370\uc774\ud130 \ubd84\uc11d\uac00", "B. \ub370\uc774\ud130 \ubd84\uc11d\uac00, F. UI/UX \ub514\uc790\uc774\ub108, G. PM/\uc11c\ube44\uc2a4 \uae30\ud68d\uc790, I. \ub9c8\ucf00\ud130, J. MD", "A. \ub370\uc774\ud130 \uc5d4\uc9c0\ub2c8\uc5b4, B. \ub370\uc774\ud130 \ubd84\uc11d\uac00", "B. \ub370\uc774\ud130 \ubd84\uc11d\uac00, C. \ub370\uc774\ud130 \uc0ac\uc774\uc5b8\ud2f0\uc2a4\ud2b8, I. \ub9c8\ucf00\ud130, J. MD", "G. PM/\uc11c\ube44\uc2a4 \uae30\ud68d\uc790, I. \ub9c8\ucf00\ud130", "A. \ub370\uc774\ud130 \uc5d4\uc9c0\ub2c8\uc5b4, B. \ub370\uc774\ud130 \ubd84\uc11d\uac00, E. \uc18c\ud504\ud2b8\uc6e8\uc5b4 \uac1c\ubc1c\uc790", "A. \ub370\uc774\ud130 \uc5d4\uc9c0\ub2c8\uc5b4, B. \ub370\uc774\ud130 \ubd84\uc11d\uac00, C. \ub370\uc774\ud130 \uc0ac\uc774\uc5b8\ud2f0\uc2a4\ud2b8, D. \uc778\uacf5\uc9c0\ub2a5 \uc804\ubb38\uac00", "B. \ub370\uc774\ud130 \ubd84\uc11d\uac00, G. PM/\uc11c\ube44\uc2a4 \uae30\ud68d\uc790, I. \ub9c8\ucf00\ud130, J. MD", "A. \ub370\uc774\ud130 \uc5d4\uc9c0\ub2c8\uc5b4, B. \ub370\uc774\ud130 \ubd84\uc11d\uac00, C. \ub370\uc774\ud130 \uc0ac\uc774\uc5b8\ud2f0\uc2a4\ud2b8, D. \uc778\uacf5\uc9c0\ub2a5 \uc804\ubb38\uac00, E. \uc18c\ud504\ud2b8\uc6e8\uc5b4 \uac1c\ubc1c\uc790, H. \uc790\uc5f0\uacfc\ud559\uacc4\uc5f4 \uc5f0\uad6c\uc790", "I. \ub9c8\ucf00\ud130, J. MD", "A. \ub370\uc774\ud130 \uc5d4\uc9c0\ub2c8\uc5b4, B. \ub370\uc774\ud130 \ubd84\uc11d\uac00, C. \ub370\uc774\ud130 \uc0ac\uc774\uc5b8\ud2f0\uc2a4\ud2b8", "D. \uc778\uacf5\uc9c0\ub2a5 \uc804\ubb38\uac00, G. PM/\uc11c\ube44\uc2a4 \uae30\ud68d\uc790", "A. \ub370\uc774\ud130 \uc5d4\uc9c0\ub2c8\uc5b4", "B. \ub370\uc774\ud130 \ubd84\uc11d\uac00, G. PM/\uc11c\ube44\uc2a4 \uae30\ud68d\uc790, I. \ub9c8\ucf00\ud130", "B. \ub370\uc774\ud130 \ubd84\uc11d\uac00, G. PM/\uc11c\ube44\uc2a4 \uae30\ud68d\uc790, PO", "B. \ub370\uc774\ud130 \ubd84\uc11d\uac00, I. \ub9c8\ucf00\ud130", "C. \ub370\uc774\ud130 \uc0ac\uc774\uc5b8\ud2f0\uc2a4\ud2b8, E. \uc18c\ud504\ud2b8\uc6e8\uc5b4 \uac1c\ubc1c\uc790", "B. \ub370\uc774\ud130 \ubd84\uc11d\uac00, C. \ub370\uc774\ud130 \uc0ac\uc774\uc5b8\ud2f0\uc2a4\ud2b8, D. \uc778\uacf5\uc9c0\ub2a5 \uc804\ubb38\uac00", "A. \ub370\uc774\ud130 \uc5d4\uc9c0\ub2c8\uc5b4, C. \ub370\uc774\ud130 \uc0ac\uc774\uc5b8\ud2f0\uc2a4\ud2b8", "A. \ub370\uc774\ud130 \uc5d4\uc9c0\ub2c8\uc5b4, B. \ub370\uc774\ud130 \ubd84\uc11d\uac00, C. \ub370\uc774\ud130 \uc0ac\uc774\uc5b8\ud2f0\uc2a4\ud2b8, H. \uc790\uc5f0\uacfc\ud559\uacc4\uc5f4 \uc5f0\uad6c\uc790, I. \ub9c8\ucf00\ud130", "\uae08\uc735\uacf5\uae30\uc5c5", "E. \uc18c\ud504\ud2b8\uc6e8\uc5b4 \uac1c\ubc1c\uc790, ", "B. \ub370\uc774\ud130 \ubd84\uc11d\uac00, G. PM/\uc11c\ube44\uc2a4 \uae30\ud68d\uc790", "I. \ub9c8\ucf00\ud130", "ESG \uacbd\uc601/\uacf5\uc2dc \uc9c1\ubb34", "D. \uc778\uacf5\uc9c0\ub2a5 \uc804\ubb38\uac00", "A. \ub370\uc774\ud130 \uc5d4\uc9c0\ub2c8\uc5b4, B. \ub370\uc774\ud130 \ubd84\uc11d\uac00, C. \ub370\uc774\ud130 \uc0ac\uc774\uc5b8\ud2f0\uc2a4\ud2b8, G. PM/\uc11c\ube44\uc2a4 \uae30\ud68d\uc790", "A. \ub370\uc774\ud130 \uc5d4\uc9c0\ub2c8\uc5b4, B. \ub370\uc774\ud130 \ubd84\uc11d\uac00, C. \ub370\uc774\ud130 \uc0ac\uc774\uc5b8\ud2f0\uc2a4\ud2b8, D. \uc778\uacf5\uc9c0\ub2a5 \uc804\ubb38\uac00, E. \uc18c\ud504\ud2b8\uc6e8\uc5b4 \uac1c\ubc1c\uc790", "D. \uc778\uacf5\uc9c0\ub2a5 \uc804\ubb38\uac00, E. \uc18c\ud504\ud2b8\uc6e8\uc5b4 \uac1c\ubc1c\uc790, G. PM/\uc11c\ube44\uc2a4 \uae30\ud68d\uc790", "A. \ub370\uc774\ud130 \uc5d4\uc9c0\ub2c8\uc5b4, B. \ub370\uc774\ud130 \ubd84\uc11d\uac00, C. \ub370\uc774\ud130 \uc0ac\uc774\uc5b8\ud2f0\uc2a4\ud2b8, E. \uc18c\ud504\ud2b8\uc6e8\uc5b4 \uac1c\ubc1c\uc790", "B. \ub370\uc774\ud130 \ubd84\uc11d\uac00, F. UI/UX \ub514\uc790\uc774\ub108", "B. \ub370\uc774\ud130 \ubd84\uc11d\uac00, H. \uc790\uc5f0\uacfc\ud559\uacc4\uc5f4 \uc5f0\uad6c\uc790", "A. \ub370\uc774\ud130 \uc5d4\uc9c0\ub2c8\uc5b4, B. \ub370\uc774\ud130 \ubd84\uc11d\uac00, C. \ub370\uc774\ud130 \uc0ac\uc774\uc5b8\ud2f0\uc2a4\ud2b8, E. \uc18c\ud504\ud2b8\uc6e8\uc5b4 \uac1c\ubc1c\uc790, \uc544\uc9c1 \ub69c\ub837\ud55c \ud76c\ub9dd \uc9c1\ubb34\ub97c \uc815\ud558\uc9c0 \ubabb\ud588\uc2b5\ub2c8\ub2e4", "B. \ub370\uc774\ud130 \ubd84\uc11d\uac00, F. UI/UX \ub514\uc790\uc774\ub108, G. PM/\uc11c\ube44\uc2a4 \uae30\ud68d\uc790, I. \ub9c8\ucf00\ud130, J. MD, RA", "C. \ub370\uc774\ud130 \uc0ac\uc774\uc5b8\ud2f0\uc2a4\ud2b8, D. \uc778\uacf5\uc9c0\ub2a5 \uc804\ubb38\uac00, E. \uc18c\ud504\ud2b8\uc6e8\uc5b4 \uac1c\ubc1c\uc790", "\uc815\ubcf4\ubcf4\uc548", "B. \ub370\uc774\ud130 \ubd84\uc11d\uac00,  \ub3c4\uc2dc\uacc4\ud68d", "H. \uc790\uc5f0\uacfc\ud559\uacc4\uc5f4 \uc5f0\uad6c\uc790, I. \ub9c8\ucf00\ud130, J. MD", "A. \ub370\uc774\ud130 \uc5d4\uc9c0\ub2c8\uc5b4, B. \ub370\uc774\ud130 \ubd84\uc11d\uac00, C. \ub370\uc774\ud130 \uc0ac\uc774\uc5b8\ud2f0\uc2a4\ud2b8, D. \uc778\uacf5\uc9c0\ub2a5 \uc804\ubb38\uac00, H. \uc790\uc5f0\uacfc\ud559\uacc4\uc5f4 \uc5f0\uad6c\uc790", "G. PM/\uc11c\ube44\uc2a4 \uae30\ud68d\uc790, ", "A. \ub370\uc774\ud130 \uc5d4\uc9c0\ub2c8\uc5b4, B. \ub370\uc774\ud130 \ubd84\uc11d\uac00, C. \ub370\uc774\ud130 \uc0ac\uc774\uc5b8\ud2f0\uc2a4\ud2b8, F. UI/UX \ub514\uc790\uc774\ub108", "B. \ub370\uc774\ud130 \ubd84\uc11d\uac00, C. \ub370\uc774\ud130 \uc0ac\uc774\uc5b8\ud2f0\uc2a4\ud2b8, E. \uc18c\ud504\ud2b8\uc6e8\uc5b4 \uac1c\ubc1c\uc790", "\uc0dd\uc0b0/\uacf5\uc815\uae30\uc220", "B. \ub370\uc774\ud130 \ubd84\uc11d\uac00, C. \ub370\uc774\ud130 \uc0ac\uc774\uc5b8\ud2f0\uc2a4\ud2b8, D. \uc778\uacf5\uc9c0\ub2a5 \uc804\ubb38\uac00, E. \uc18c\ud504\ud2b8\uc6e8\uc5b4 \uac1c\ubc1c\uc790", "\uc544\uc9c1 \uc5c6\uc2b5\ub2c8\ub2e4..", "E. \uc18c\ud504\ud2b8\uc6e8\uc5b4 \uac1c\ubc1c\uc790, \ubc18\ub3c4\uccb4 \uc5d4\uc9c0\ub2c8\uc5b4", "A. \ub370\uc774\ud130 \uc5d4\uc9c0\ub2c8\uc5b4, B. \ub370\uc774\ud130 \ubd84\uc11d\uac00, C. \ub370\uc774\ud130 \uc0ac\uc774\uc5b8\ud2f0\uc2a4\ud2b8, D. \uc778\uacf5\uc9c0\ub2a5 \uc804\ubb38\uac00, E. \uc18c\ud504\ud2b8\uc6e8\uc5b4 \uac1c\ubc1c\uc790, F. UI/UX \ub514\uc790\uc774\ub108, H. \uc790\uc5f0\uacfc\ud559\uacc4\uc5f4 \uc5f0\uad6c\uc790", "\uc778\uc0ac\ud300", "B. \ub370\uc774\ud130 \ubd84\uc11d\uac00, \ucc44\uc6a9 \ub370\uc774\ud130 \ubd84\uc11d \ubc0f HR \uc804\ubb38\uac00", "B. \ub370\uc774\ud130 \ubd84\uc11d\uac00, E. \uc18c\ud504\ud2b8\uc6e8\uc5b4 \uac1c\ubc1c\uc790, F. UI/UX \ub514\uc790\uc774\ub108", "\ub85c\ubd07\uc124\uacc4", "B. \ub370\uc774\ud130 \ubd84\uc11d\uac00, C. \ub370\uc774\ud130 \uc0ac\uc774\uc5b8\ud2f0\uc2a4\ud2b8, G. PM/\uc11c\ube44\uc2a4 \uae30\ud68d\uc790", "B. \ub370\uc774\ud130 \ubd84\uc11d\uac00, C. \ub370\uc774\ud130 \uc0ac\uc774\uc5b8\ud2f0\uc2a4\ud2b8, H. \uc790\uc5f0\uacfc\ud559\uacc4\uc5f4 \uc5f0\uad6c\uc790", "A. \ub370\uc774\ud130 \uc5d4\uc9c0\ub2c8\uc5b4, D. \uc778\uacf5\uc9c0\ub2a5 \uc804\ubb38\uac00", "H. \uc790\uc5f0\uacfc\ud559\uacc4\uc5f4 \uc5f0\uad6c\uc790", "B. \ub370\uc774\ud130 \ubd84\uc11d\uac00, G. PM/\uc11c\ube44\uc2a4 \uae30\ud68d\uc790, \ucee8\uc124\ud134\ud2b8", "B. \ub370\uc774\ud130 \ubd84\uc11d\uac00, F. UI/UX \ub514\uc790\uc774\ub108, G. PM/\uc11c\ube44\uc2a4 \uae30\ud68d\uc790", "\ubc18\ub3c4\uccb4 \uacf5\uc815\uc124\uacc4", "A. \ub370\uc774\ud130 \uc5d4\uc9c0\ub2c8\uc5b4, B. \ub370\uc774\ud130 \ubd84\uc11d\uac00, E. \uc18c\ud504\ud2b8\uc6e8\uc5b4 \uac1c\ubc1c\uc790, F. UI/UX \ub514\uc790\uc774\ub108, G. PM/\uc11c\ube44\uc2a4 \uae30\ud68d\uc790", "B. \ub370\uc774\ud130 \ubd84\uc11d\uac00, C. \ub370\uc774\ud130 \uc0ac\uc774\uc5b8\ud2f0\uc2a4\ud2b8, D. \uc778\uacf5\uc9c0\ub2a5 \uc804\ubb38\uac00, F. UI/UX \ub514\uc790\uc774\ub108, G. PM/\uc11c\ube44\uc2a4 \uae30\ud68d\uc790", "\ubc18\ub3c4\uccb4 \uc5d4\uc9c0\ub2c8\uc5b4", "A. \ub370\uc774\ud130 \uc5d4\uc9c0\ub2c8\uc5b4, B. \ub370\uc774\ud130 \ubd84\uc11d\uac00, C. \ub370\uc774\ud130 \uc0ac\uc774\uc5b8\ud2f0\uc2a4\ud2b8, D. \uc778\uacf5\uc9c0\ub2a5 \uc804\ubb38\uac00, F. UI/UX \ub514\uc790\uc774\ub108, G. PM/\uc11c\ube44\uc2a4 \uae30\ud68d\uc790", "A. \ub370\uc774\ud130 \uc5d4\uc9c0\ub2c8\uc5b4, D. \uc778\uacf5\uc9c0\ub2a5 \uc804\ubb38\uac00, E. \uc18c\ud504\ud2b8\uc6e8\uc5b4 \uac1c\ubc1c\uc790", "E. \uc18c\ud504\ud2b8\uc6e8\uc5b4 \uac1c\ubc1c\uc790", "A. \ub370\uc774\ud130 \uc5d4\uc9c0\ub2c8\uc5b4, C. \ub370\uc774\ud130 \uc0ac\uc774\uc5b8\ud2f0\uc2a4\ud2b8, E. \uc18c\ud504\ud2b8\uc6e8\uc5b4 \uac1c\ubc1c\uc790, G. PM/\uc11c\ube44\uc2a4 \uae30\ud68d\uc790", "D. \uc778\uacf5\uc9c0\ub2a5 \uc804\ubb38\uac00, E. \uc18c\ud504\ud2b8\uc6e8\uc5b4 \uac1c\ubc1c\uc790", "H. \uc790\uc5f0\uacfc\ud559\uacc4\uc5f4 \uc5f0\uad6c\uc790, \uc758\uacf5\uae30\uc0ac, \uc0dd\uccb4?\uc138\ud3ec\uacc4\uc5f4 \uc5f0\uad6c\uc790", "A. \ub370\uc774\ud130 \uc5d4\uc9c0\ub2c8\uc5b4, B. \ub370\uc774\ud130 \ubd84\uc11d\uac00, \uad6d\uc81c\ud68c\uc758\uae30\ud68d\uc790", "A. \ub370\uc774\ud130 \uc5d4\uc9c0\ub2c8\uc5b4, B. \ub370\uc774\ud130 \ubd84\uc11d\uac00, G. PM/\uc11c\ube44\uc2a4 \uae30\ud68d\uc790", "A. \ub370\uc774\ud130 \uc5d4\uc9c0\ub2c8\uc5b4, B. \ub370\uc774\ud130 \ubd84\uc11d\uac00, C. \ub370\uc774\ud130 \uc0ac\uc774\uc5b8\ud2f0\uc2a4\ud2b8, G. PM/\uc11c\ube44\uc2a4 \uae30\ud68d\uc790, I. \ub9c8\ucf00\ud130", "C. \ub370\uc774\ud130 \uc0ac\uc774\uc5b8\ud2f0\uc2a4\ud2b8, H. \uc790\uc5f0\uacfc\ud559\uacc4\uc5f4 \uc5f0\uad6c\uc790", "B. \ub370\uc774\ud130 \ubd84\uc11d\uac00, D. \uc778\uacf5\uc9c0\ub2a5 \uc804\ubb38\uac00, E. \uc18c\ud504\ud2b8\uc6e8\uc5b4 \uac1c\ubc1c\uc790", "C. \ub370\uc774\ud130 \uc0ac\uc774\uc5b8\ud2f0\uc2a4\ud2b8, I. \ub9c8\ucf00\ud130", "A. \ub370\uc774\ud130 \uc5d4\uc9c0\ub2c8\uc5b4, B. \ub370\uc774\ud130 \ubd84\uc11d\uac00, C. \ub370\uc774\ud130 \uc0ac\uc774\uc5b8\ud2f0\uc2a4\ud2b8, H. \uc790\uc5f0\uacfc\ud559\uacc4\uc5f4 \uc5f0\uad6c\uc790", "J. MD", "DX(\ub514\uc9c0\ud138 \ud2b8\ub79c\uc2a4\ud3ec\uba54\uc774\uc158)\uc9c1\ubb34 \ud76c\ub9dd", "B. \ub370\uc774\ud130 \ubd84\uc11d\uac00, D. \uc778\uacf5\uc9c0\ub2a5 \uc804\ubb38\uac00, E. \uc18c\ud504\ud2b8\uc6e8\uc5b4 \uac1c\ubc1c\uc790, G. PM/\uc11c\ube44\uc2a4 \uae30\ud68d\uc790", "C. \ub370\uc774\ud130 \uc0ac\uc774\uc5b8\ud2f0\uc2a4\ud2b8, D. \uc778\uacf5\uc9c0\ub2a5 \uc804\ubb38\uac00", "I. \ub9c8\ucf00\ud130, ", "B. \ub370\uc774\ud130 \ubd84\uc11d\uac00, C. \ub370\uc774\ud130 \uc0ac\uc774\uc5b8\ud2f0\uc2a4\ud2b8, D. \uc778\uacf5\uc9c0\ub2a5 \uc804\ubb38\uac00, H. \uc790\uc5f0\uacfc\ud559\uacc4\uc5f4 \uc5f0\uad6c\uc790", "E. \uc18c\ud504\ud2b8\uc6e8\uc5b4 \uac1c\ubc1c\uc790, F. UI/UX \ub514\uc790\uc774\ub108", "A. \ub370\uc774\ud130 \uc5d4\uc9c0\ub2c8\uc5b4, B. \ub370\uc774\ud130 \ubd84\uc11d\uac00, D. \uc778\uacf5\uc9c0\ub2a5 \uc804\ubb38\uac00, H. \uc790\uc5f0\uacfc\ud559\uacc4\uc5f4 \uc5f0\uad6c\uc790", "\uc5c6\uc74c", "\ud074\ub77c\uc6b0\ub4dc", "\uae08\uc735\uad00\ub9ac  ", "B. \ub370\uc774\ud130 \ubd84\uc11d\uac00, C. \ub370\uc774\ud130 \uc0ac\uc774\uc5b8\ud2f0\uc2a4\ud2b8, D. \uc778\uacf5\uc9c0\ub2a5 \uc804\ubb38\uac00, G. PM/\uc11c\ube44\uc2a4 \uae30\ud68d\uc790", "B. \ub370\uc774\ud130 \ubd84\uc11d\uac00, C. \ub370\uc774\ud130 \uc0ac\uc774\uc5b8\ud2f0\uc2a4\ud2b8, G. PM/\uc11c\ube44\uc2a4 \uae30\ud68d\uc790, I. \ub9c8\ucf00\ud130", "G. PM/\uc11c\ube44\uc2a4 \uae30\ud68d\uc790", "B. \ub370\uc774\ud130 \ubd84\uc11d\uac00, E. \uc18c\ud504\ud2b8\uc6e8\uc5b4 \uac1c\ubc1c\uc790, G. PM/\uc11c\ube44\uc2a4 \uae30\ud68d\uc790", "\ubbf8\uc815", "B. \ub370\uc774\ud130 \ubd84\uc11d\uac00, I. \ub9c8\ucf00\ud130, J. MD", "A. \ub370\uc774\ud130 \uc5d4\uc9c0\ub2c8\uc5b4, B. \ub370\uc774\ud130 \ubd84\uc11d\uac00, C. \ub370\uc774\ud130 \uc0ac\uc774\uc5b8\ud2f0\uc2a4\ud2b8, D. \uc778\uacf5\uc9c0\ub2a5 \uc804\ubb38\uac00, E. \uc18c\ud504\ud2b8\uc6e8\uc5b4 \uac1c\ubc1c\uc790, G. PM/\uc11c\ube44\uc2a4 \uae30\ud68d\uc790", "SCM\uad00\ub828 \uc9c1\ubb34", "I. \ub9c8\ucf00\ud130, \uc544\uc9c1 \uc81c\ub300\ub85c \uc54c\uc9c0 \ubabb\ud574 \ud559\ud68c \ud65c\ub3d9\uc744 \ud1b5\ud574 \uc9c4\ub85c \uc9c1\uc5c5\uc5d0 \uc790\uc138\ud788 \ub300\ud574 \ubc30\uc6b0\uace0 \uc2f6\ub2e4.", "A. \ub370\uc774\ud130 \uc5d4\uc9c0\ub2c8\uc5b4, B. \ub370\uc774\ud130 \ubd84\uc11d\uac00, C. \ub370\uc774\ud130 \uc0ac\uc774\uc5b8\ud2f0\uc2a4\ud2b8, ", "A. \ub370\uc774\ud130 \uc5d4\uc9c0\ub2c8\uc5b4, \ubc18\ub3c4\uccb4 \uc5d4\uc9c0\ub2c8\uc5b4", "\uc0dd\uc0b0 / \ud488\uc9c8 \uc5d4\uc9c0\ub2c8\uc5b4", "\ubc18\ub3c4\uccb4 \ud488\uc9c8 \uad00\ub9ac", "\uc678\uad50\uad00", "A. \ub370\uc774\ud130 \uc5d4\uc9c0\ub2c8\uc5b4, E. \uc18c\ud504\ud2b8\uc6e8\uc5b4 \uac1c\ubc1c\uc790", "\ud654\ud559\uacf5\uc7a5 \uc0dd\uc0b0\uad00\ub9ac \uc5d4\uc9c0\ub2c8\uc5b4", "A. \ub370\uc774\ud130 \uc5d4\uc9c0\ub2c8\uc5b4, B. \ub370\uc774\ud130 \ubd84\uc11d\uac00, E. \uc18c\ud504\ud2b8\uc6e8\uc5b4 \uac1c\ubc1c\uc790, F. UI/UX \ub514\uc790\uc774\ub108", "SCM", "B. \ub370\uc774\ud130 \ubd84\uc11d\uac00, C. \ub370\uc774\ud130 \uc0ac\uc774\uc5b8\ud2f0\uc2a4\ud2b8, \uacbd\uc601\uc9c1\ubb34", "B. \ub370\uc774\ud130 \ubd84\uc11d\uac00, E. \uc18c\ud504\ud2b8\uc6e8\uc5b4 \uac1c\ubc1c\uc790", "B. \ub370\uc774\ud130 \ubd84\uc11d\uac00, C. \ub370\uc774\ud130 \uc0ac\uc774\uc5b8\ud2f0\uc2a4\ud2b8, I. \ub9c8\ucf00\ud130, \uacbd\uc601\ucee8\uc124\ud134\ud2b8", "A. \ub370\uc774\ud130 \uc5d4\uc9c0\ub2c8\uc5b4, D. \uc778\uacf5\uc9c0\ub2a5 \uc804\ubb38\uac00, H. \uc790\uc5f0\uacfc\ud559\uacc4\uc5f4 \uc5f0\uad6c\uc790", "\ubc18\ub3c4\uccb4 \uacf5\uc815", "\ubcf4\ud5d8\uacc4\ub9ac\uc0ac", "A. \ub370\uc774\ud130 \uc5d4\uc9c0\ub2c8\uc5b4, B. \ub370\uc774\ud130 \ubd84\uc11d\uac00, J. MD", "F. UI/UX \ub514\uc790\uc774\ub108, G. PM/\uc11c\ube44\uc2a4 \uae30\ud68d\uc790", "\uc0dd\uc0b0\uad00\ub9ac/\uc0dd\uc0b0\uae30\uc220", "HRM HRD", "HR \ub9e4\ub2c8\uc800", "\uc544\uc9c1 \ubaa8\ub974\uaca0\uc74c", "B. \ub370\uc774\ud130 \ubd84\uc11d\uac00, D. \uc778\uacf5\uc9c0\ub2a5 \uc804\ubb38\uac00", "B. \ub370\uc774\ud130 \ubd84\uc11d\uac00, F. UI/UX \ub514\uc790\uc774\ub108, I. \ub9c8\ucf00\ud130", "\uc0dd\uc0b0\uad00\ub9ac", "C. \ub370\uc774\ud130 \uc0ac\uc774\uc5b8\ud2f0\uc2a4\ud2b8, I. \ub9c8\ucf00\ud130, J. MD", "B. \ub370\uc774\ud130 \ubd84\uc11d\uac00, C. \ub370\uc774\ud130 \uc0ac\uc774\uc5b8\ud2f0\uc2a4\ud2b8, G. PM/\uc11c\ube44\uc2a4 \uae30\ud68d\uc790, ", "\ud68c\uacc4 \uc9c1\ubb34", "B. \ub370\uc774\ud130 \ubd84\uc11d\uac00, C. \ub370\uc774\ud130 \uc0ac\uc774\uc5b8\ud2f0\uc2a4\ud2b8, D. \uc778\uacf5\uc9c0\ub2a5 \uc804\ubb38\uac00, \uc5f0\uad6c\uc6d0/\ubcf4\uc548\ubd84\uc57c\uc5f0\uad6c\uc6d0", "C. \ub370\uc774\ud130 \uc0ac\uc774\uc5b8\ud2f0\uc2a4\ud2b8, D. \uc778\uacf5\uc9c0\ub2a5 \uc804\ubb38\uac00, G. PM/\uc11c\ube44\uc2a4 \uae30\ud68d\uc790, I. \ub9c8\ucf00\ud130", "B. \ub370\uc774\ud130 \ubd84\uc11d\uac00, G. PM/\uc11c\ube44\uc2a4 \uae30\ud68d\uc790, J. MD", "\uc0b0\ub9bc\ube45\ub370\uc774\ud130 \uc804\ubb38\uac00", "C. \ub370\uc774\ud130 \uc0ac\uc774\uc5b8\ud2f0\uc2a4\ud2b8, G. PM/\uc11c\ube44\uc2a4 \uae30\ud68d\uc790", "\ubb3c\ub958/SCM", "\ubc18\ub3c4\uccb4", "B. \ub370\uc774\ud130 \ubd84\uc11d\uac00, F. UI/UX \ub514\uc790\uc774\ub108, G. PM/\uc11c\ube44\uc2a4 \uae30\ud68d\uc790, J. MD", "B. \ub370\uc774\ud130 \ubd84\uc11d\uac00, E. \uc18c\ud504\ud2b8\uc6e8\uc5b4 \uac1c\ubc1c\uc790, H. \uc790\uc5f0\uacfc\ud559\uacc4\uc5f4 \uc5f0\uad6c\uc790", "A. \ub370\uc774\ud130 \uc5d4\uc9c0\ub2c8\uc5b4, C. \ub370\uc774\ud130 \uc0ac\uc774\uc5b8\ud2f0\uc2a4\ud2b8, D. \uc778\uacf5\uc9c0\ub2a5 \uc804\ubb38\uac00, E. \uc18c\ud504\ud2b8\uc6e8\uc5b4 \uac1c\ubc1c\uc790", "I. \ub9c8\ucf00\ud130, \ucee8\uc124\ud134\ud2b8", "\ud488\uc9c8\uad00\ub9ac", "A. \ub370\uc774\ud130 \uc5d4\uc9c0\ub2c8\uc5b4, C. \ub370\uc774\ud130 \uc0ac\uc774\uc5b8\ud2f0\uc2a4\ud2b8, D. \uc778\uacf5\uc9c0\ub2a5 \uc804\ubb38\uac00", "\uc804\ub825 \ubd84\uc11d\uad00", "\uae00\ub85c\ubc8c \uc804\ub7b5", "B. \ub370\uc774\ud130 \ubd84\uc11d\uac00, \uc601\uc5c5", "A. \ub370\uc774\ud130 \uc5d4\uc9c0\ub2c8\uc5b4, B. \ub370\uc774\ud130 \ubd84\uc11d\uac00, C. \ub370\uc774\ud130 \uc0ac\uc774\uc5b8\ud2f0\uc2a4\ud2b8, D. \uc778\uacf5\uc9c0\ub2a5 \uc804\ubb38\uac00, G. PM/\uc11c\ube44\uc2a4 \uae30\ud68d\uc790", "\ud488\uc9c8,\uc0dd\uc0b0", "A. \ub370\uc774\ud130 \uc5d4\uc9c0\ub2c8\uc5b4, B. \ub370\uc774\ud130 \ubd84\uc11d\uac00, C. \ub370\uc774\ud130 \uc0ac\uc774\uc5b8\ud2f0\uc2a4\ud2b8, I. \ub9c8\ucf00\ud130", "\uc544\uc9c1 \uacb0\uc815\ud558\uc9c0 \ubabb\ud568", "B. \ub370\uc774\ud130 \ubd84\uc11d\uac00, J. MD, ", "F. UI/UX \ub514\uc790\uc774\ub108, G. PM/\uc11c\ube44\uc2a4 \uae30\ud68d\uc790, UX \ub9ac\uc11c\ucc98", "\uc774\ucc28\uc804\uc9c0 \uc5d4\uc9c0\ub2c8\uc5b4", "B. \ub370\uc774\ud130 \ubd84\uc11d\uac00, C. \ub370\uc774\ud130 \uc0ac\uc774\uc5b8\ud2f0\uc2a4\ud2b8, F. UI/UX \ub514\uc790\uc774\ub108, G. PM/\uc11c\ube44\uc2a4 \uae30\ud68d\uc790, I. \ub9c8\ucf00\ud130", "\uc0c1\ud488\uac1c\ubc1c/\uacc4\ub9ac", "\uc0dd\uc0b0\uae30\uc220 \uc5d4\uc9c0\ub2c8\uc5b4 /\uacf5\uc815 \uae30\uc220\uc5d4\uc9c0\ub2c8\uc5b4", "B. \ub370\uc774\ud130 \ubd84\uc11d\uac00, D. \uc778\uacf5\uc9c0\ub2a5 \uc804\ubb38\uac00, I. \ub9c8\ucf00\ud130", "\uae08\uc735", "F. UI/UX \ub514\uc790\uc774\ub108, G. PM/\uc11c\ube44\uc2a4 \uae30\ud68d\uc790, I. \ub9c8\ucf00\ud130", "\ubc18\ub3c4\uccb4(\ud3c9\uac00 \ubc0f \ubd84\uc11d, \uc218\uc728\ud5a5\uc0c1, \uc18c\uc790\uac1c\ubc1c \ubc0f \ubd88\ub7c9\ubd84\uc11d \ub4f1)", "A. \ub370\uc774\ud130 \uc5d4\uc9c0\ub2c8\uc5b4, C. \ub370\uc774\ud130 \uc0ac\uc774\uc5b8\ud2f0\uc2a4\ud2b8, E. \uc18c\ud504\ud2b8\uc6e8\uc5b4 \uac1c\ubc1c\uc790", "A. \ub370\uc774\ud130 \uc5d4\uc9c0\ub2c8\uc5b4, B. \ub370\uc774\ud130 \ubd84\uc11d\uac00, D. \uc778\uacf5\uc9c0\ub2a5 \uc804\ubb38\uac00", "Hr", "B. \ub370\uc774\ud130 \ubd84\uc11d\uac00, C. \ub370\uc774\ud130 \uc0ac\uc774\uc5b8\ud2f0\uc2a4\ud2b8, D. \uc778\uacf5\uc9c0\ub2a5 \uc804\ubb38\uac00, I. \ub9c8\ucf00\ud130", "A. \ub370\uc774\ud130 \uc5d4\uc9c0\ub2c8\uc5b4, B. \ub370\uc774\ud130 \ubd84\uc11d\uac00, C. \ub370\uc774\ud130 \uc0ac\uc774\uc5b8\ud2f0\uc2a4\ud2b8, E. \uc18c\ud504\ud2b8\uc6e8\uc5b4 \uac1c\ubc1c\uc790, F. UI/UX \ub514\uc790\uc774\ub108", "\ubc18\ub3c4\uccb4 \uacf5\uc815\uae30\uc220 \uc5d4\uc9c0\ub2c8\uc5b4", "\ud488\uc9c8", "B. \ub370\uc774\ud130 \ubd84\uc11d\uac00, \uacf5\uac04\uc815\ubcf4 \uad00\ub828 \uc9c1\ubb34 ", "A. \ub370\uc774\ud130 \uc5d4\uc9c0\ub2c8\uc5b4, B. \ub370\uc774\ud130 \ubd84\uc11d\uac00, C. \ub370\uc774\ud130 \uc0ac\uc774\uc5b8\ud2f0\uc2a4\ud2b8, E. \uc18c\ud504\ud2b8\uc6e8\uc5b4 \uac1c\ubc1c\uc790, G. PM/\uc11c\ube44\uc2a4 \uae30\ud68d\uc790", "\uc18c\uc7ac \uc5d4\uc9c0\ub2c8\uc5b4", "G. PM/\uc11c\ube44\uc2a4 \uae30\ud68d\uc790, H. \uc790\uc5f0\uacfc\ud559\uacc4\uc5f4 \uc5f0\uad6c\uc790", "E. \uc18c\ud504\ud2b8\uc6e8\uc5b4 \uac1c\ubc1c\uc790, \uc2a4\ub9c8\ud2b8\ub85c\uc9c0\uc2a4\ud2f1", "D. \uc778\uacf5\uc9c0\ub2a5 \uc804\ubb38\uac00, J. MD", "\uacc4\ub9ac\uc0ac", "I. \ub9c8\ucf00\ud130, \uc804\ub7b5\uae30\ud68d", "B. \ub370\uc774\ud130 \ubd84\uc11d\uac00, \ud514\uc9c8\uad00\ub9ac", "A. \ub370\uc774\ud130 \uc5d4\uc9c0\ub2c8\uc5b4, B. \ub370\uc774\ud130 \ubd84\uc11d\uac00, D. \uc778\uacf5\uc9c0\ub2a5 \uc804\ubb38\uac00, \ud1a0\ubaa9", "A. \ub370\uc774\ud130 \uc5d4\uc9c0\ub2c8\uc5b4, C. \ub370\uc774\ud130 \uc0ac\uc774\uc5b8\ud2f0\uc2a4\ud2b8, D. \uc778\uacf5\uc9c0\ub2a5 \uc804\ubb38\uac00, H. \uc790\uc5f0\uacfc\ud559\uacc4\uc5f4 \uc5f0\uad6c\uc790", "HR \uc560\ub110\ub9ac\ud2f1\uc2a4", "G. PM/\uc11c\ube44\uc2a4 \uae30\ud68d\uc790, I. \ub9c8\ucf00\ud130, J. MD", "__UNKNOWN__"], ["\ucef4\ud4e8\ud130\ud65c\uc6a9\ub2a5\ub825", "\uc5c6\uc74c", "ADsP", "SQLD, \uc815\ubcf4\ucc98\ub9ac\uae30\uc0ac", "\uad6c\uae00 \uc560\ub110\ub9ac\uc2a4\ud2b8", "SQLD, \uad6c\uae00 \uc560\ub110\ub9ac\uc2a4\ud2b8", "SQLD", "ADsP, SQLD", "\uc815\ubcf4\ucc98\ub9ac\uae30\uc0ac", "\uc900\ube44\uc911: SQLD", "\uae30\ud0c0", "\uc900\ube44\uc911: ADsP, SQLD", "ADsP, \uc815\ubcf4\ucc98\ub9ac\uae30\uc0ac, \uad6c\uae00 \uc560\ub110\ub9ac\uc2a4\ud2b8", "ADsP, SQLD, \uad6c\uae00 \uc560\ub110\ub9ac\uc2a4\ud2b8", "\ud0dc\ube14\ub85c, \uad6c\uae00 \uc560\ub110\ub9ac\uc2a4\ud2b8", "ADsP, \ube45\ub370\uc774\ud130 \ubd84\uc11d \uae30\uc0ac", "\ube45\ub370\uc774\ud130 \ubd84\uc11d \uae30\uc0ac", "\uc900\ube44\uc911", "ADsP, \uad6c\uae00 \uc560\ub110\ub9ac\uc2a4\ud2b8", "ADsP, \uc815\ubcf4\ucc98\ub9ac\uae30\uc0ac", "ADsP, SQLD, \ube45\ub370\uc774\ud130 \ubd84\uc11d \uae30\uc0ac", "ADsP, \uc815\ubcf4\ucc98\ub9ac\uae30\uc0ac, SQLD", "\ube45\ub370\uc774\ud130 \ubd84\uc11d \uae30\uc0ac, \uc815\ubcf4\ucc98\ub9ac\uae30\uc0ac", "\ud0dc\ube14\ub85c", "AWS", "ADsP, SQLD, \uc815\ubcf4\ucc98\ub9ac\uae30\uc0ac", "ADsP, SQLD, \ube45\ub370\uc774\ud130 \ubd84\uc11d \uae30\uc0ac, \uc815\ubcf4\ucc98\ub9ac\uae30\uc0ac", "__UNKNOWN__"], ["ADsP, SQLD, \ube45\ub370\uc774\ud130 \ubd84\uc11d \uae30\uc0ac, \ud0dc\ube14\ub85c \uad00\ub828 \uc790\uaca9\uc99d, \uad6c\uae00 \uc560\ub110\ub9ac\uc2a4\ud2b8", "ADsP, SQLD, \ube45\ub370\uc774\ud130 \ubd84\uc11d \uae30\uc0ac, \uc815\ubcf4\ucc98\ub9ac\uae30\uc0ac", "SQLD, \ube45\ub370\uc774\ud130 \ubd84\uc11d \uae30\uc0ac, \uc815\ubcf4\ucc98\ub9ac\uae30\uc0ac", "ADsP, \ube45\ub370\uc774\ud130 \ubd84\uc11d \uae30\uc0ac", "SQLD, \uc815\ubcf4\ucc98\ub9ac\uae30\uc0ac, \ud0dc\ube14\ub85c \uad00\ub828 \uc790\uaca9\uc99d, \uad6c\uae00 \uc560\ub110\ub9ac\uc2a4\ud2b8", "ADsP, SQLD, \ube45\ub370\uc774\ud130 \ubd84\uc11d \uae30\uc0ac", "ADsP, SQLD", "ADsP, SQLD, \ube45\ub370\uc774\ud130 \ubd84\uc11d \uae30\uc0ac, \uc815\ubcf4\ucc98\ub9ac\uae30\uc0ac, \ud074\ub77c\uc6b0\ub4dc \uad00\ub828 \uc790\uaca9\uc99d", "\ube45\ub370\uc774\ud130 \ubd84\uc11d \uae30\uc0ac, \uc815\ubcf4\ucc98\ub9ac\uae30\uc0ac", "\ube45\ub370\uc774\ud130 \ubd84\uc11d \uae30\uc0ac", "ADsP, \ube45\ub370\uc774\ud130 \ubd84\uc11d \uae30\uc0ac, \uc815\ubcf4\ucc98\ub9ac\uae30\uc0ac, \ud0dc\ube14\ub85c \uad00\ub828 \uc790\uaca9\uc99d", "ADsP, \ud0dc\ube14\ub85c \uad00\ub828 \uc790\uaca9\uc99d", "SQLD, \ube45\ub370\uc774\ud130 \ubd84\uc11d \uae30\uc0ac, \uc815\ubcf4\ucc98\ub9ac\uae30\uc0ac, \ud0dc\ube14\ub85c \uad00\ub828 \uc790\uaca9\uc99d, \uad6c\uae00 \uc560\ub110\ub9ac\uc2a4\ud2b8", "ADsP, \ube45\ub370\uc774\ud130 \ubd84\uc11d \uae30\uc0ac, \uc815\ubcf4\ucc98\ub9ac\uae30\uc0ac", "\uc815\ubcf4\ucc98\ub9ac\uae30\uc0ac", "SQLD, \uc815\ubcf4\ucc98\ub9ac\uae30\uc0ac", "ADsP", "SQLD, \ube45\ub370\uc774\ud130 \ubd84\uc11d \uae30\uc0ac, \uc815\ubcf4\ucc98\ub9ac\uae30\uc0ac, \uc0ac\ud68c\uc870\uc0ac\ubd84\uc11d\uc0ac, sqlp \ub4f1", "ADsP, \uc815\ubcf4\ucc98\ub9ac\uae30\uc0ac", "\ube45\ub370\uc774\ud130 \ubd84\uc11d \uae30\uc0ac, \uc815\ubcf4\ucc98\ub9ac\uae30\uc0ac, \uad6c\uae00 \uc560\ub110\ub9ac\uc2a4\ud2b8", "ADsP, \ube45\ub370\uc774\ud130 \ubd84\uc11d \uae30\uc0ac, \ud0dc\ube14\ub85c \uad00\ub828 \uc790\uaca9\uc99d, \uad6c\uae00 \uc560\ub110\ub9ac\uc2a4\ud2b8", "SQLD, \ube45\ub370\uc774\ud130 \ubd84\uc11d \uae30\uc0ac, \ud0dc\ube14\ub85c \uad00\ub828 \uc790\uaca9\uc99d", "\ud0dc\ube14\ub85c \uad00\ub828 \uc790\uaca9\uc99d", "SQLD", "\ube45\ub370\uc774\ud130 \ubd84\uc11d \uae30\uc0ac, \ud0dc\ube14\ub85c \uad00\ub828 \uc790\uaca9\uc99d", "SQLD, \ube45\ub370\uc774\ud130 \ubd84\uc11d \uae30\uc0ac", "\ub531\ud788 \uc5c6\uc74c", "SQLD, \ube45\ub370\uc774\ud130 \ubd84\uc11d \uae30\uc0ac, \uad6c\uae00 \uc560\ub110\ub9ac\uc2a4\ud2b8", "ADsP, SQLD, \ube45\ub370\uc774\ud130 \ubd84\uc11d \uae30\uc0ac, \uad6c\uae00 \uc560\ub110\ub9ac\uc2a4\ud2b8", "ADsP, SQLD, \uad6c\uae00 \uc560\ub110\ub9ac\uc2a4\ud2b8", "ADsP, SQLD, \ube45\ub370\uc774\ud130 \ubd84\uc11d \uae30\uc0ac, \uc815\ubcf4\ucc98\ub9ac\uae30\uc0ac, \ud0dc\ube14\ub85c \uad00\ub828 \uc790\uaca9\uc99d, \uad6c\uae00 \uc560\ub110\ub9ac\uc2a4\ud2b8", ".", "ADsP, SQLD, \ud0dc\ube14\ub85c \uad00\ub828 \uc790\uaca9\uc99d, \uad6c\uae00 \uc560\ub110\ub9ac\uc2a4\ud2b8", "ADsP, \uc0ac\ud68c\uc870\uc0ac\ubd84\uc11d\uc0ac2\uae09", "ADsP, \uad6c\uae00 \uc560\ub110\ub9ac\uc2a4\ud2b8, \uc0ac\ud68c\uc870\uc0ac\ubd84\uc11d\uc0ac 2\uae09", "ADsP, SQLD, \ube45\ub370\uc774\ud130 \ubd84\uc11d \uae30\uc0ac, \uc815\ubcf4\ucc98\ub9ac\uae30\uc0ac, \uad6c\uae00 \uc560\ub110\ub9ac\uc2a4\ud2b8", "\ube45\ub370\uc774\ud130 \ubd84\uc11d \uae30\uc0ac, \uc815\ubcf4\ucc98\ub9ac\uae30\uc0ac, \ud0dc\ube14\ub85c \uad00\ub828 \uc790\uaca9\uc99d, ADsP\ub294 8/30 \ubc1c\ud45c \uae30\ub2e4\ub9ac\ub294\uc911(\uc2dc\ud5d8 \uc751\uc2dc)", "\ube45\ub370\uc774\ud130 \ubd84\uc11d \uae30\uc0ac, ADP", "\ube45\ub370\uc774\ud130 \ubd84\uc11d \uae30\uc0ac, \uad6c\uae00 \uc560\ub110\ub9ac\uc2a4\ud2b8", "ADsP, SQLD, \ube45\ub370\uc774\ud130 \ubd84\uc11d \uae30\uc0ac, \ud0dc\ube14\ub85c \uad00\ub828 \uc790\uaca9\uc99d", "ADsP, \ube45\ub370\uc774\ud130 \ubd84\uc11d \uae30\uc0ac, \uc815\ubcf4\ucc98\ub9ac\uae30\uc0ac, SQLD\ub294 \ud569\uaca9\uc5ec\ubd80\ub97c \uae30\ub2e4\ub9ac\ub294\uc911", "\ud0dc\ube14\ub85c \uad00\ub828 \uc790\uaca9\uc99d, \uad6c\uae00 \uc560\ub110\ub9ac\uc2a4\ud2b8", "\ube45\ub370\uc774\ud130 \ubd84\uc11d \uae30\uc0ac, \ud0dc\ube14\ub85c \uad00\ub828 \uc790\uaca9\uc99d, \uad6c\uae00 \uc560\ub110\ub9ac\uc2a4\ud2b8", "SQLD, sqld \uc2dc\ud5d8 \uc751\uc2dc\ub294 \uc644\ub8cc. \ubc1c\ud45c\uc544\uc9c1\uc548\ub0a8", "SQLD, \uc815\ubcf4\ucc98\ub9ac\uae30\uc0ac, \uad6c\uae00 \uc560\ub110\ub9ac\uc2a4\ud2b8", "SQLD, \uad6c\uae00 \uc560\ub110\ub9ac\uc2a4\ud2b8", "ADsP, SQLD, \ud0dc\ube14\ub85c \uad00\ub828 \uc790\uaca9\uc99d", "ADsP, SQLD, \uc815\ubcf4\ucc98\ub9ac\uae30\uc0ac", "ADsP, \ud0dc\ube14\ub85c \uad00\ub828 \uc790\uaca9\uc99d, \uad6c\uae00 \uc560\ub110\ub9ac\uc2a4\ud2b8", "\ube45\ub370\uc774\ud130 \ubd84\uc11d \uae30\uc0ac, \uc815\ubcf4\ucc98\ub9ac\uae30\uc0ac, ADO, SQLP", "SQLD, \ud0dc\ube14\ub85c \uad00\ub828 \uc790\uaca9\uc99d, \uad6c\uae00 \uc560\ub110\ub9ac\uc2a4\ud2b8", "\ube45\ub370\uc774\ud130 \ubd84\uc11d \uae30\uc0ac, \uc815\ubcf4\ucc98\ub9ac\uae30\uc0ac, \ud0dc\ube14\ub85c \uad00\ub828 \uc790\uaca9\uc99d", "\uc790\uaca9\uc99d\uc5d0\ub294 \ud06c\uac8c \uad00\uc2ec \uc5c6\uc2b5\ub2c8\ub2e4", "\ube45\ub370\uc774\ud130 \ubd84\uc11d \uae30\uc0ac, \uc815\ubcf4\ucc98\ub9ac\uae30\uc0ac, \ud0dc\ube14\ub85c \uad00\ub828 \uc790\uaca9\uc99d, \uad6c\uae00 \uc560\ub110\ub9ac\uc2a4\ud2b8", "ADsP, \ube45\ub370\uc774\ud130 \ubd84\uc11d \uae30\uc0ac, \ud0dc\ube14\ub85c \uad00\ub828 \uc790\uaca9\uc99d", "SQLD, Adp", "SQLD, \ud0dc\ube14\ub85c \uad00\ub828 \uc790\uaca9\uc99d", "ADsP, \uc815\ubcf4\ucc98\ub9ac\uae30\uc0ac, \uad6c\uae00 \uc560\ub110\ub9ac\uc2a4\ud2b8", "\uc815\ubcf4\ucc98\ub9ac\uae30\uc0ac, \ud0dc\ube14\ub85c \uad00\ub828 \uc790\uaca9\uc99d, \uad6c\uae00 \uc560\ub110\ub9ac\uc2a4\ud2b8", "\ube45\ub370\uc774\ud130 \ubd84\uc11d \uae30\uc0ac, AWS CLF", "\uc815\ubcf4\ucc98\ub9ac\uae30\uc0ac, \uad6c\uae00 \uc560\ub110\ub9ac\uc2a4\ud2b8", "\uad6c\uae00 \uc560\ub110\ub9ac\uc2a4\ud2b8", "SQLD, \ube45\ub370\uc774\ud130 \ubd84\uc11d \uae30\uc0ac, \uc815\ubcf4\ucc98\ub9ac\uae30\uc0ac, \uad6c\uae00 \uc560\ub110\ub9ac\uc2a4\ud2b8", "x", "ADsP, 6sigma", "\uc544\uc9c1 \ub2e4 \ubb54\uc9c0 \uc798 \ubab0\ub77c\uc11c...", "\ud0dc\ube14\ub85c \uad00\ub828 \uc790\uaca9\uc99d, AICE", "\uc5c6\uc74c", "\uc624\ud53d", "\uc544\uc9c1\uc740 \uc5c6\uc74c", "\uc790\uaca9\uc99d\uc740 \uc544\uc9c1 \uc798 \ubaa8\ub974\uaca0\uc74c", "ADsP, \ube45\ub370\uc774\ud130 \ubd84\uc11d \uae30\uc0ac, \uad6c\uae00 \uc560\ub110\ub9ac\uc2a4\ud2b8", "ADsP, \ube45\ub370\uc774\ud130 \ubd84\uc11d \uae30\uc0ac, \uc815\ubcf4\ucc98\ub9ac\uae30\uc0ac, \uad6c\uae00 \uc560\ub110\ub9ac\uc2a4\ud2b8", "ADsP, \uad6c\uae00 \uc560\ub110\ub9ac\uc2a4\ud2b8", "ADsP, SQLD, \ube45\ub370\uc774\ud130 \ubd84\uc11d \uae30\uc0ac, \uc815\ubcf4\ucc98\ub9ac\uae30\uc0ac, \ud0dc\ube14\ub85c \uad00\ub828 \uc790\uaca9\uc99d, \uad6c\uae00 \uc560\ub110\ub9ac\uc2a4\ud2b8, \uc0ac\ud68c\uc870\uc0ac\ubd84\uc11d\uc0ac", "ADsP, \ube45\ub370\uc774\ud130 \ubd84\uc11d \uae30\uc0ac, \ud488\uc9c8\uacbd\uc601", "ADsP, SQLD, \ube45\ub370\uc774\ud130 \ubd84\uc11d \uae30\uc0ac, \uc815\ubcf4\ucc98\ub9ac\uae30\uc0ac, \ud0dc\ube14\ub85c \uad00\ub828 \uc790\uaca9\uc99d", "\ube45\ub370\uc774\ud130 \ubd84\uc11d \uae30\uc0ac, \ud488\uc9c8\uacbd\uc601\uae30\uc0ac", "SQLD, \uc815\ubcf4\ucc98\ub9ac\uae30\uc0ac, \ud0dc\ube14\ub85c \uad00\ub828 \uc790\uaca9\uc99d", "SQLD, \ube45\ub370\uc774\ud130 \ubd84\uc11d \uae30\uc0ac, \uc815\ubcf4\ucc98\ub9ac\uae30\uc0ac, \ud0dc\ube14\ub85c \uad00\ub828 \uc790\uaca9\uc99d", "SQLD, \ube45\ub370\uc774\ud130 \ubd84\uc11d \uae30\uc0ac, \ud0dc\ube14\ub85c \uad00\ub828 \uc790\uaca9\uc99d, \uad6c\uae00 \uc560\ub110\ub9ac\uc2a4\ud2b8", "\uc790\uaca9\uc99d\uc740 \ucde8\ub4dd \uc608\uc815 \uc5c6\uc74c", "\ube45\ub370\uc774\ud130 \ubd84\uc11d \uae30\uc0ac, \uc815\ubcf4\ucc98\ub9ac\uae30\uc0ac, SQLP", "AI \uc790\uaca9\uc99d(AICE)", "ADsP, ADP", "\uc544\uc9c1 \uacc4\ud68d\uc5c6\uc2b5\ub2c8\ub2e4.", "\ube45\ub370\uc774\ud130 \ubd84\uc11d \uae30\uc0ac, \ud0dc\ube14\ub85c \uad00\ub828 \uc790\uaca9\uc99d, \uacbd\uc601\uc815\ubcf4\uc2dc\uac01\ud654\ub2a5", "\ube45\ub370\uc774\ud130 \ubd84\uc11d \uae30\uc0ac, \uc815\ubcf4\ucc98\ub9ac\uae30\uc0ac, Pccp", "SQLD, \ube45\ub370\uc774\ud130 \ubd84\uc11d \uae30\uc0ac, \uc815\ubcf4\ucc98\ub9ac\uae30\uc0ac, \ud55c\ub2a5\uac80, \ub124\ud2b8\uc6cc\ud06c\uad00\ub9ac\uc0ac2\uae09, \ub9ac\ub205\uc2a4\ub9c8\uc2a4\ud130, SQL \uac1c\ubc1c\uc790", "ADsP, \ube45\ub370\uc774\ud130 \ubd84\uc11d \uae30\uc0ac, \uc815\ubcf4\ucc98\ub9ac\uae30\uc0ac, \ub9ac\ub205\uc2a4 \ub9c8\uc2a4\ud130 2\uae09", "\uc544\uc9c1 \uc5c6\uc74c", "__UNKNOWN__"], ["A. \uae08\uc735 / \ubcf4\ud5d8 \uc9c1\ubb34", "D. \uc18c\ud504\ud2b8\uc6e8\uc5b4 \uac1c\ubc1c\uc790, F. PM / \uc11c\ube44\uc2a4 \uae30\ud68d\uc790", "A. \uae08\uc735 / \ubcf4\ud5d8 \uc9c1\ubb34, B. \uae30\ud68d / \uc804\ub7b5 / \uacbd\uc601 \uc9c1\ubb34, H. \ub9c8\ucf00\ud130 / \uc601\uc5c5\uad00\ub9ac", "A. \uae08\uc735 / \ubcf4\ud5d8 \uc9c1\ubb34, B. \uae30\ud68d / \uc804\ub7b5 / \uacbd\uc601 \uc9c1\ubb34, F. PM / \uc11c\ube44\uc2a4 \uae30\ud68d\uc790", "B. \uae30\ud68d / \uc804\ub7b5 / \uacbd\uc601 \uc9c1\ubb34, E. UI/UX \ub514\uc790\uc774\ub108, F. PM / \uc11c\ube44\uc2a4 \uae30\ud68d\uc790, H. \ub9c8\ucf00\ud130 / \uc601\uc5c5\uad00\ub9ac", "B. \uae30\ud68d / \uc804\ub7b5 / \uacbd\uc601 \uc9c1\ubb34, H. \ub9c8\ucf00\ud130 / \uc601\uc5c5\uad00\ub9ac", "A. \uae08\uc735 / \ubcf4\ud5d8 \uc9c1\ubb34, B. \uae30\ud68d / \uc804\ub7b5 / \uacbd\uc601 \uc9c1\ubb34, C. MD, F. PM / \uc11c\ube44\uc2a4 \uae30\ud68d\uc790", "B. \uae30\ud68d / \uc804\ub7b5 / \uacbd\uc601 \uc9c1\ubb34, C. MD, F. PM / \uc11c\ube44\uc2a4 \uae30\ud68d\uc790, H. \ub9c8\ucf00\ud130 / \uc601\uc5c5\uad00\ub9ac", "D. \uc18c\ud504\ud2b8\uc6e8\uc5b4 \uac1c\ubc1c\uc790", "A. \uae08\uc735 / \ubcf4\ud5d8 \uc9c1\ubb34, B. \uae30\ud68d / \uc804\ub7b5 / \uacbd\uc601 \uc9c1\ubb34, F. PM / \uc11c\ube44\uc2a4 \uae30\ud68d\uc790, H. \ub9c8\ucf00\ud130 / \uc601\uc5c5\uad00\ub9ac", "B. \uae30\ud68d / \uc804\ub7b5 / \uacbd\uc601 \uc9c1\ubb34, D. \uc18c\ud504\ud2b8\uc6e8\uc5b4 \uac1c\ubc1c\uc790, H. \ub9c8\ucf00\ud130 / \uc601\uc5c5\uad00\ub9ac", "G. \uc790\uc5f0\uacfc\ud559\uacc4\uc5f4 \uc5f0\uad6c\uc790", "A. \uae08\uc735 / \ubcf4\ud5d8 \uc9c1\ubb34, B. \uae30\ud68d / \uc804\ub7b5 / \uacbd\uc601 \uc9c1\ubb34", "A. \uae08\uc735 / \ubcf4\ud5d8 \uc9c1\ubb34, B. \uae30\ud68d / \uc804\ub7b5 / \uacbd\uc601 \uc9c1\ubb34, C. MD", "F. PM / \uc11c\ube44\uc2a4 \uae30\ud68d\uc790", "B. \uae30\ud68d / \uc804\ub7b5 / \uacbd\uc601 \uc9c1\ubb34, C. MD, D. \uc18c\ud504\ud2b8\uc6e8\uc5b4 \uac1c\ubc1c\uc790, F. PM / \uc11c\ube44\uc2a4 \uae30\ud68d\uc790, H. \ub9c8\ucf00\ud130 / \uc601\uc5c5\uad00\ub9ac", "B. \uae30\ud68d / \uc804\ub7b5 / \uacbd\uc601 \uc9c1\ubb34, F. PM / \uc11c\ube44\uc2a4 \uae30\ud68d\uc790", "A. \uae08\uc735 / \ubcf4\ud5d8 \uc9c1\ubb34, F. PM / \uc11c\ube44\uc2a4 \uae30\ud68d\uc790, H. \ub9c8\ucf00\ud130 / \uc601\uc5c5\uad00\ub9ac", "A. \uae08\uc735 / \ubcf4\ud5d8 \uc9c1\ubb34, B. \uae30\ud68d / \uc804\ub7b5 / \uacbd\uc601 \uc9c1\ubb34, F. PM / \uc11c\ube44\uc2a4 \uae30\ud68d\uc790, G. \uc790\uc5f0\uacfc\ud559\uacc4\uc5f4 \uc5f0\uad6c\uc790", "H. \ub9c8\ucf00\ud130 / \uc601\uc5c5\uad00\ub9ac", "A. \uae08\uc735 / \ubcf4\ud5d8 \uc9c1\ubb34, B. \uae30\ud68d / \uc804\ub7b5 / \uacbd\uc601 \uc9c1\ubb34, D. \uc18c\ud504\ud2b8\uc6e8\uc5b4 \uac1c\ubc1c\uc790", "E. UI/UX \ub514\uc790\uc774\ub108", "A. \uae08\uc735 / \ubcf4\ud5d8 \uc9c1\ubb34, H. \ub9c8\ucf00\ud130 / \uc601\uc5c5\uad00\ub9ac", "D. \uc18c\ud504\ud2b8\uc6e8\uc5b4 \uac1c\ubc1c\uc790, E. UI/UX \ub514\uc790\uc774\ub108, F. PM / \uc11c\ube44\uc2a4 \uae30\ud68d\uc790", "B. \uae30\ud68d / \uc804\ub7b5 / \uacbd\uc601 \uc9c1\ubb34", "A. \uae08\uc735 / \ubcf4\ud5d8 \uc9c1\ubb34, G. \uc790\uc5f0\uacfc\ud559\uacc4\uc5f4 \uc5f0\uad6c\uc790", "A. \uae08\uc735 / \ubcf4\ud5d8 \uc9c1\ubb34, B. \uae30\ud68d / \uc804\ub7b5 / \uacbd\uc601 \uc9c1\ubb34, G. \uc790\uc5f0\uacfc\ud559\uacc4\uc5f4 \uc5f0\uad6c\uc790, H. \ub9c8\ucf00\ud130 / \uc601\uc5c5\uad00\ub9ac", "A. \uae08\uc735 / \ubcf4\ud5d8 \uc9c1\ubb34, D. \uc18c\ud504\ud2b8\uc6e8\uc5b4 \uac1c\ubc1c\uc790", "B. \uae30\ud68d / \uc804\ub7b5 / \uacbd\uc601 \uc9c1\ubb34, D. \uc18c\ud504\ud2b8\uc6e8\uc5b4 \uac1c\ubc1c\uc790, G. \uc790\uc5f0\uacfc\ud559\uacc4\uc5f4 \uc5f0\uad6c\uc790, H. \ub9c8\ucf00\ud130 / \uc601\uc5c5\uad00\ub9ac", "F. PM / \uc11c\ube44\uc2a4 \uae30\ud68d\uc790, H. \ub9c8\ucf00\ud130 / \uc601\uc5c5\uad00\ub9ac", "B. \uae30\ud68d / \uc804\ub7b5 / \uacbd\uc601 \uc9c1\ubb34, E. UI/UX \ub514\uc790\uc774\ub108", "C. MD, D. \uc18c\ud504\ud2b8\uc6e8\uc5b4 \uac1c\ubc1c\uc790", "C. MD, H. \ub9c8\ucf00\ud130 / \uc601\uc5c5\uad00\ub9ac", "B. \uae30\ud68d / \uc804\ub7b5 / \uacbd\uc601 \uc9c1\ubb34, G. \uc790\uc5f0\uacfc\ud559\uacc4\uc5f4 \uc5f0\uad6c\uc790", "B. \uae30\ud68d / \uc804\ub7b5 / \uacbd\uc601 \uc9c1\ubb34, F. PM / \uc11c\ube44\uc2a4 \uae30\ud68d\uc790, H. \ub9c8\ucf00\ud130 / \uc601\uc5c5\uad00\ub9ac", "A. \uae08\uc735 / \ubcf4\ud5d8 \uc9c1\ubb34, E. UI/UX \ub514\uc790\uc774\ub108", "B. \uae30\ud68d / \uc804\ub7b5 / \uacbd\uc601 \uc9c1\ubb34, C. MD, E. UI/UX \ub514\uc790\uc774\ub108, F. PM / \uc11c\ube44\uc2a4 \uae30\ud68d\uc790, H. \ub9c8\ucf00\ud130 / \uc601\uc5c5\uad00\ub9ac", "A. \uae08\uc735 / \ubcf4\ud5d8 \uc9c1\ubb34, D. \uc18c\ud504\ud2b8\uc6e8\uc5b4 \uac1c\ubc1c\uc790, E. UI/UX \ub514\uc790\uc774\ub108", "B. \uae30\ud68d / \uc804\ub7b5 / \uacbd\uc601 \uc9c1\ubb34, E. UI/UX \ub514\uc790\uc774\ub108, F. PM / \uc11c\ube44\uc2a4 \uae30\ud68d\uc790", "B. \uae30\ud68d / \uc804\ub7b5 / \uacbd\uc601 \uc9c1\ubb34, D. \uc18c\ud504\ud2b8\uc6e8\uc5b4 \uac1c\ubc1c\uc790, F. PM / \uc11c\ube44\uc2a4 \uae30\ud68d\uc790", "D. \uc18c\ud504\ud2b8\uc6e8\uc5b4 \uac1c\ubc1c\uc790, G. \uc790\uc5f0\uacfc\ud559\uacc4\uc5f4 \uc5f0\uad6c\uc790", "D. \uc18c\ud504\ud2b8\uc6e8\uc5b4 \uac1c\ubc1c\uc790, E. UI/UX \ub514\uc790\uc774\ub108", "B. \uae30\ud68d / \uc804\ub7b5 / \uacbd\uc601 \uc9c1\ubb34, D. \uc18c\ud504\ud2b8\uc6e8\uc5b4 \uac1c\ubc1c\uc790, G. \uc790\uc5f0\uacfc\ud559\uacc4\uc5f4 \uc5f0\uad6c\uc790", "A. \uae08\uc735 / \ubcf4\ud5d8 \uc9c1\ubb34, E. UI/UX \ub514\uc790\uc774\ub108, G. \uc790\uc5f0\uacfc\ud559\uacc4\uc5f4 \uc5f0\uad6c\uc790", "E. UI/UX \ub514\uc790\uc774\ub108, F. PM / \uc11c\ube44\uc2a4 \uae30\ud68d\uc790", "B. \uae30\ud68d / \uc804\ub7b5 / \uacbd\uc601 \uc9c1\ubb34, C. MD", "D. \uc18c\ud504\ud2b8\uc6e8\uc5b4 \uac1c\ubc1c\uc790, E. UI/UX \ub514\uc790\uc774\ub108, F. PM / \uc11c\ube44\uc2a4 \uae30\ud68d\uc790, G. \uc790\uc5f0\uacfc\ud559\uacc4\uc5f4 \uc5f0\uad6c\uc790", "A. \uae08\uc735 / \ubcf4\ud5d8 \uc9c1\ubb34, F. PM / \uc11c\ube44\uc2a4 \uae30\ud68d\uc790, G. \uc790\uc5f0\uacfc\ud559\uacc4\uc5f4 \uc5f0\uad6c\uc790", "D. \uc18c\ud504\ud2b8\uc6e8\uc5b4 \uac1c\ubc1c\uc790, E. UI/UX \ub514\uc790\uc774\ub108, G. \uc790\uc5f0\uacfc\ud559\uacc4\uc5f4 \uc5f0\uad6c\uc790", "B. \uae30\ud68d / \uc804\ub7b5 / \uacbd\uc601 \uc9c1\ubb34, C. MD, H. \ub9c8\ucf00\ud130 / \uc601\uc5c5\uad00\ub9ac", "G. \uc790\uc5f0\uacfc\ud559\uacc4\uc5f4 \uc5f0\uad6c\uc790, H. \ub9c8\ucf00\ud130 / \uc601\uc5c5\uad00\ub9ac", "A. \uae08\uc735 / \ubcf4\ud5d8 \uc9c1\ubb34, F. PM / \uc11c\ube44\uc2a4 \uae30\ud68d\uc790", "B. \uae30\ud68d / \uc804\ub7b5 / \uacbd\uc601 \uc9c1\ubb34, C. MD, F. PM / \uc11c\ube44\uc2a4 \uae30\ud68d\uc790", "F. PM / \uc11c\ube44\uc2a4 \uae30\ud68d\uc790, G. \uc790\uc5f0\uacfc\ud559\uacc4\uc5f4 \uc5f0\uad6c\uc790, H. \ub9c8\ucf00\ud130 / \uc601\uc5c5\uad00\ub9ac", "A. \uae08\uc735 / \ubcf4\ud5d8 \uc9c1\ubb34, D. \uc18c\ud504\ud2b8\uc6e8\uc5b4 \uac1c\ubc1c\uc790, F. PM / \uc11c\ube44\uc2a4 \uae30\ud68d\uc790", "E. UI/UX \ub514\uc790\uc774\ub108, F. PM / \uc11c\ube44\uc2a4 \uae30\ud68d\uc790, H. \ub9c8\ucf00\ud130 / \uc601\uc5c5\uad00\ub9ac", "A. \uae08\uc735 / \ubcf4\ud5d8 \uc9c1\ubb34, B. \uae30\ud68d / \uc804\ub7b5 / \uacbd\uc601 \uc9c1\ubb34, G. \uc790\uc5f0\uacfc\ud559\uacc4\uc5f4 \uc5f0\uad6c\uc790", "A. \uae08\uc735 / \ubcf4\ud5d8 \uc9c1\ubb34, E. UI/UX \ub514\uc790\uc774\ub108, F. PM / \uc11c\ube44\uc2a4 \uae30\ud68d\uc790", "B. \uae30\ud68d / \uc804\ub7b5 / \uacbd\uc601 \uc9c1\ubb34, D. \uc18c\ud504\ud2b8\uc6e8\uc5b4 \uac1c\ubc1c\uc790", "A. \uae08\uc735 / \ubcf4\ud5d8 \uc9c1\ubb34, D. \uc18c\ud504\ud2b8\uc6e8\uc5b4 \uac1c\ubc1c\uc790, G. \uc790\uc5f0\uacfc\ud559\uacc4\uc5f4 \uc5f0\uad6c\uc790", "F. PM / \uc11c\ube44\uc2a4 \uae30\ud68d\uc790, G. \uc790\uc5f0\uacfc\ud559\uacc4\uc5f4 \uc5f0\uad6c\uc790", "E. UI/UX \ub514\uc790\uc774\ub108, G. \uc790\uc5f0\uacfc\ud559\uacc4\uc5f4 \uc5f0\uad6c\uc790", "A. \uae08\uc735 / \ubcf4\ud5d8 \uc9c1\ubb34, B. \uae30\ud68d / \uc804\ub7b5 / \uacbd\uc601 \uc9c1\ubb34, D. \uc18c\ud504\ud2b8\uc6e8\uc5b4 \uac1c\ubc1c\uc790, F. PM / \uc11c\ube44\uc2a4 \uae30\ud68d\uc790, G. \uc790\uc5f0\uacfc\ud559\uacc4\uc5f4 \uc5f0\uad6c\uc790", "A. \uae08\uc735 / \ubcf4\ud5d8 \uc9c1\ubb34, C. MD, F. PM / 